FANN_FLO_2.1
num_layers=3
learning_rate=0.005000
connection_rate=1.000000
network_type=0
learning_momentum=0.900000
training_algorithm=0
train_error_function=1
train_stop_function=0
cascade_output_change_fraction=0.010000
quickprop_decay=-0.000100
quickprop_mu=1.750000
rprop_increase_factor=1.200000
rprop_decrease_factor=0.500000
rprop_delta_min=0.000000
rprop_delta_max=50.000000
rprop_delta_zero=0.100000
cascade_output_stagnation_epochs=12
cascade_candidate_change_fraction=0.010000
cascade_candidate_stagnation_epochs=12
cascade_max_out_epochs=150
cascade_max_cand_epochs=150
cascade_num_candidate_groups=2
bit_fail_limit=3.49999999999999977796e-01
cascade_candidate_limit=1.00000000000000000000e+03
cascade_weight_multiplier=4.00000000000000022204e-01
cascade_activation_functions_count=10
cascade_activation_functions=3 5 7 8 10 11 14 15 16 17 
cascade_activation_steepnesses_count=4
cascade_activation_steepnesses=2.50000000000000000000e-01 5.00000000000000000000e-01 7.50000000000000000000e-01 1.00000000000000000000e+00 
layer_sizes=61 61 4 
scale_included=0
neurons (num_inputs, activation_function, activation_steepness)=(0, 0, 0.00000000000000000000e+00) (0, 0, 0.00000000000000000000e+00) (0, 0, 0.00000000000000000000e+00) (0, 0, 0.00000000000000000000e+00) (0, 0, 0.00000000000000000000e+00) (0, 0, 0.00000000000000000000e+00) (0, 0, 0.00000000000000000000e+00) (0, 0, 0.00000000000000000000e+00) (0, 0, 0.00000000000000000000e+00) (0, 0, 0.00000000000000000000e+00) (0, 0, 0.00000000000000000000e+00) (0, 0, 0.00000000000000000000e+00) (0, 0, 0.00000000000000000000e+00) (0, 0, 0.00000000000000000000e+00) (0, 0, 0.00000000000000000000e+00) (0, 0, 0.00000000000000000000e+00) (0, 0, 0.00000000000000000000e+00) (0, 0, 0.00000000000000000000e+00) (0, 0, 0.00000000000000000000e+00) (0, 0, 0.00000000000000000000e+00) (0, 0, 0.00000000000000000000e+00) (0, 0, 0.00000000000000000000e+00) (0, 0, 0.00000000000000000000e+00) (0, 0, 0.00000000000000000000e+00) (0, 0, 0.00000000000000000000e+00) (0, 0, 0.00000000000000000000e+00) (0, 0, 0.00000000000000000000e+00) (0, 0, 0.00000000000000000000e+00) (0, 0, 0.00000000000000000000e+00) (0, 0, 0.00000000000000000000e+00) (0, 0, 0.00000000000000000000e+00) (0, 0, 0.00000000000000000000e+00) (0, 0, 0.00000000000000000000e+00) (0, 0, 0.00000000000000000000e+00) (0, 0, 0.00000000000000000000e+00) (0, 0, 0.00000000000000000000e+00) (0, 0, 0.00000000000000000000e+00) (0, 0, 0.00000000000000000000e+00) (0, 0, 0.00000000000000000000e+00) (0, 0, 0.00000000000000000000e+00) (0, 0, 0.00000000000000000000e+00) (0, 0, 0.00000000000000000000e+00) (0, 0, 0.00000000000000000000e+00) (0, 0, 0.00000000000000000000e+00) (0, 0, 0.00000000000000000000e+00) (0, 0, 0.00000000000000000000e+00) (0, 0, 0.00000000000000000000e+00) (0, 0, 0.00000000000000000000e+00) (0, 0, 0.00000000000000000000e+00) (0, 0, 0.00000000000000000000e+00) (0, 0, 0.00000000000000000000e+00) (0, 0, 0.00000000000000000000e+00) (0, 0, 0.00000000000000000000e+00) (0, 0, 0.00000000000000000000e+00) (0, 0, 0.00000000000000000000e+00) (0, 0, 0.00000000000000000000e+00) (0, 0, 0.00000000000000000000e+00) (0, 0, 0.00000000000000000000e+00) (0, 0, 0.00000000000000000000e+00) (0, 0, 0.00000000000000000000e+00) (0, 0, 0.00000000000000000000e+00) (61, 4, 5.00000000000000000000e-01) (61, 4, 5.00000000000000000000e-01) (61, 4, 5.00000000000000000000e-01) (61, 4, 5.00000000000000000000e-01) (61, 4, 5.00000000000000000000e-01) (61, 4, 5.00000000000000000000e-01) (61, 4, 5.00000000000000000000e-01) (61, 4, 5.00000000000000000000e-01) (61, 4, 5.00000000000000000000e-01) (61, 4, 5.00000000000000000000e-01) (61, 4, 5.00000000000000000000e-01) (61, 4, 5.00000000000000000000e-01) (61, 4, 5.00000000000000000000e-01) (61, 4, 5.00000000000000000000e-01) (61, 4, 5.00000000000000000000e-01) (61, 4, 5.00000000000000000000e-01) (61, 4, 5.00000000000000000000e-01) (61, 4, 5.00000000000000000000e-01) (61, 4, 5.00000000000000000000e-01) (61, 4, 5.00000000000000000000e-01) (61, 4, 5.00000000000000000000e-01) (61, 4, 5.00000000000000000000e-01) (61, 4, 5.00000000000000000000e-01) (61, 4, 5.00000000000000000000e-01) (61, 4, 5.00000000000000000000e-01) (61, 4, 5.00000000000000000000e-01) (61, 4, 5.00000000000000000000e-01) (61, 4, 5.00000000000000000000e-01) (61, 4, 5.00000000000000000000e-01) (61, 4, 5.00000000000000000000e-01) (61, 4, 5.00000000000000000000e-01) (61, 4, 5.00000000000000000000e-01) (61, 4, 5.00000000000000000000e-01) (61, 4, 5.00000000000000000000e-01) (61, 4, 5.00000000000000000000e-01) (61, 4, 5.00000000000000000000e-01) (61, 4, 5.00000000000000000000e-01) (61, 4, 5.00000000000000000000e-01) (61, 4, 5.00000000000000000000e-01) (61, 4, 5.00000000000000000000e-01) (61, 4, 5.00000000000000000000e-01) (61, 4, 5.00000000000000000000e-01) (61, 4, 5.00000000000000000000e-01) (61, 4, 5.00000000000000000000e-01) (61, 4, 5.00000000000000000000e-01) (61, 4, 5.00000000000000000000e-01) (61, 4, 5.00000000000000000000e-01) (61, 4, 5.00000000000000000000e-01) (61, 4, 5.00000000000000000000e-01) (61, 4, 5.00000000000000000000e-01) (61, 4, 5.00000000000000000000e-01) (61, 4, 5.00000000000000000000e-01) (61, 4, 5.00000000000000000000e-01) (61, 4, 5.00000000000000000000e-01) (61, 4, 5.00000000000000000000e-01) (61, 4, 5.00000000000000000000e-01) (61, 4, 5.00000000000000000000e-01) (61, 4, 5.00000000000000000000e-01) (61, 4, 5.00000000000000000000e-01) (61, 4, 5.00000000000000000000e-01) (0, 0, 0.00000000000000000000e+00) (61, 4, 5.00000000000000000000e-01) (61, 4, 5.00000000000000000000e-01) (61, 4, 5.00000000000000000000e-01) (0, 0, 0.00000000000000000000e+00) 
connections (connected_to_neuron, weight)=(0, -4.55863186993068325581e-01) (1, -2.95459774280208309349e-01) (2, -1.17611004575678981809e-01) (3, -7.28025060032068838806e-03) (4, -3.82406638301489909537e-01) (5, -1.84165414071003508134e-01) (6, -2.11897297294859204841e-01) (7, -6.68588139625622829287e-02) (8, -2.66329647785471967936e-01) (9, -2.50235990475768776964e-01) (10, -2.33032568840112787323e-02) (11, -1.09023781791388899021e-01) (12, -2.58335370595586255593e-01) (13, -5.88121411866964205473e-02) (14, -2.22402888489304617625e-01) (15, -1.73523758700542263256e-01) (16, -2.66831843652937161782e-01) (17, -1.01765173145691278922e-01) (18, -9.82967514308075579477e-02) (19, -1.46606470829325402638e-01) (20, -1.24410239436519187706e-01) (21, -3.06100686521303566590e-01) (22, -2.85062967453306066734e-02) (23, 2.61449897352604467005e-02) (24, -1.41416159553567094553e-01) (25, -5.16233995752782726107e-01) (26, -4.53056136130424794151e-02) (27, 5.93106412002712968246e-02) (28, -4.03411621332897707415e-01) (29, -6.56102651385098156744e-01) (30, -1.73827342511677890302e-01) (31, -2.60263159871101379395e-02) (32, -1.53611691761757124253e-01) (33, -3.27258980749037919900e-01) (34, -1.58916217328695041910e-01) (35, -6.95400142162049261785e-02) (36, -2.84207259378297716346e-01) (37, -1.03408974280110727006e-01) (38, -2.15746795724990475529e-01) (39, -1.29423290834912135816e-01) (40, -2.94285822272565666946e-01) (41, -2.72800339282088855075e-01) (42, -3.90156258295990127083e-02) (43, -1.51739558728603285420e-01) (44, -1.32090863165186422901e-01) (45, -1.51806673618966769812e-01) (46, -8.48197661387910945008e-02) (47, -1.37043907382714796883e-01) (48, -3.55079130496855910337e-01) (49, -3.47778658230880777236e-01) (50, 1.40375140927366387489e-01) (51, -1.02681376099478874342e-01) (52, -2.18935043914051996605e-01) (53, -3.41685783735673376249e-01) (54, 1.09635767389324872978e-01) (55, -1.85066418043704550289e-01) (56, -2.69284937200150342740e-01) (57, -4.49750481522613154706e-01) (58, 6.54449354949973027828e-02) (59, -1.98433303370139202393e-01) (60, -5.80875930231221415667e-01) (0, -4.93566183457001816937e-01) (1, -9.56764625829526371703e-01) (2, -6.15258425769670602712e-01) (3, -4.29791354393487923247e-01) (4, -4.98845888925972147376e-01) (5, -9.46565057325117475973e-02) (6, -1.03316981796593920784e+00) (7, -6.41029724367307207622e-01) (8, -3.13177990501774194954e-01) (9, -4.73019857815120126077e-01) (10, -7.32100626869444659484e-01) (11, -9.27838646586503834612e-01) (12, -9.31177882393484757095e-01) (13, -3.67942361946449580934e-01) (14, -4.21626391374881170915e-01) (15, -5.47473948607768767793e-01) (16, -1.02175780500050938926e+00) (17, -1.33976822152249222531e-02) (18, -4.35186227253391566538e-01) (19, -2.48323882878751900360e-01) (20, 7.23320224931379429645e-02) (21, -3.78568592719282115411e-01) (22, -5.84399205737404447980e-01) (23, -4.99826170968618171964e-02) (24, -6.29137076399065686694e-01) (25, -4.01796697471358654763e-01) (26, -2.10572198589665304791e-01) (27, 2.51457630208093835256e-02) (28, -1.57014597122755250602e+00) (29, 1.04256318028810079923e+00) (30, -7.32988879600779408285e-01) (31, 3.03294286131858825684e-02) (32, -7.29932774628935132633e-01) (33, 1.28358419208718710358e+00) (34, -3.85574399630626063473e-01) (35, -1.36573638051765450241e-01) (36, 4.39430878258875237674e-02) (37, 8.73450126480539656981e-01) (38, 6.25914932789974454153e-01) (39, -4.70119922334322759561e-02) (40, -8.69605859435904848809e-01) (41, 2.31408291006735628015e-01) (42, 1.56555278150553767169e+00) (43, -2.80558473287335963242e-01) (44, -1.06134870064307551552e+00) (45, 2.40363480898514281225e-01) (46, 1.42253473548164466322e+00) (47, -1.50487924142769902147e-01) (48, -7.17177830197723076289e-01) (49, -4.63821081764565323891e-01) (50, 8.74332191933258173755e-01) (51, -1.13517182690967468467e-02) (52, -4.74108058697078116328e-01) (53, -1.60356094333942378327e+00) (54, 4.51174536443872176150e-01) (55, 1.79772248822157199033e-01) (56, -6.37594756525126205027e-01) (57, -9.99199507159170274839e-01) (58, -4.71004560856875920116e-01) (59, 3.66910142058535615472e-01) (60, -4.18920688532785578939e-01) (0, -2.99383702705292631396e-01) (1, -3.10957794527998099277e-01) (2, -2.67917932593184027201e-01) (3, -4.82183839743820091828e-02) (4, -3.06564203696447934444e-01) (5, -2.64616684013419090071e-01) (6, -1.47770458869292575788e-01) (7, -8.46665524781518158415e-02) (8, -3.25082486917769197809e-01) (9, -2.96212128832524290711e-01) (10, -2.75330292544762711415e-01) (11, -2.94226574991891115518e-02) (12, -3.77419617397192153074e-01) (13, -2.93772634286248168767e-01) (14, -2.71929891854333971590e-01) (15, -4.29193388465670244009e-03) (16, -4.08063678860820955308e-01) (17, -1.45167794977702144243e-02) (18, -1.14207529983111191751e-01) (19, 1.37511990605897957418e-02) (20, -3.64378354045588159771e-01) (21, -5.08436748188725029518e-02) (22, -1.33580907298271517325e-01) (23, -4.12529361146726433751e-02) (24, -3.81197266651888633238e-01) (25, -1.47172280940406102756e-01) (26, -1.81316686567739339397e-02) (27, -1.08495754979657230144e-01) (28, -5.95517280783240288144e-01) (29, 1.30132787320218403643e-02) (30, -8.48055428641922848243e-02) (31, 5.97464218735694885254e-02) (32, -2.64719799138739830813e-01) (33, -1.25163672069449005697e-01) (34, -1.09009420644205171080e-01) (35, -5.31292438727700502832e-02) (36, -1.51654258656556212292e-01) (37, -1.44979580464658669436e-01) (38, -5.63526481689176628187e-02) (39, -7.49144482810888273638e-02) (40, -9.97044971629293258486e-02) (41, -2.54517304449434766944e-01) (42, -1.61343391533835728291e-01) (43, -1.44982974849074214285e-01) (44, -2.14284528836034299237e-01) (45, -1.91775008297345672670e-01) (46, -2.92835626855460440243e-01) (47, -5.50175251256247027642e-02) (48, -2.10165924918437108104e-01) (49, -1.18917639874126859767e-01) (50, -1.94251657780887987403e-01) (51, -7.69898389223400009262e-02) (52, -2.18590544898940530860e-01) (53, -3.29335913717928363553e-01) (54, -2.16356004385272859825e-01) (55, -1.19413384103774708467e-01) (56, -3.68074202651013038246e-01) (57, -3.09123593411514407947e-01) (58, -1.06342255528390786101e-01) (59, 9.17947367012984967449e-03) (60, -6.98390039299858211841e-01) (0, 1.75743915070762285469e-01) (1, -1.35482109432490660517e+00) (2, 8.91622032777923956282e-01) (3, -5.18151618592133322849e-01) (4, 9.90449062477053554510e-01) (5, -7.35031514959885279303e-01) (6, 3.62627019124745708645e-01) (7, -2.14154818887676706707e-01) (8, 2.27546722895913466900e+00) (9, -6.29399169109920886278e-01) (10, -4.79784944861996465182e-02) (11, 3.22625137428867059253e-01) (12, 1.51395957849503104420e+00) (13, -1.00219163522825294166e+00) (14, 7.96494860826156836353e-01) (15, 4.96279609665527587925e-01) (16, 1.43803894213072686048e-01) (17, -1.79426543319731290893e+00) (18, -2.32222664450289772997e-01) (19, 8.28388236900004792940e-02) (20, -5.92439050553472790206e-01) (21, -4.67276037768070834355e-02) (22, -7.01572253176686255749e-01) (23, -4.12498963244042005094e-01) (24, -7.91931842684179820857e-01) (25, 1.05526240349536770680e+00) (26, -1.88146775526957288349e+00) (27, 6.62091200645533395353e-01) (28, 1.40254409040553884580e+00) (29, 1.52477302006927950551e+00) (30, -5.34216875180491168607e+00) (31, 5.63848689198493957520e-02) (32, 1.16125191796195514904e+00) (33, -3.89548255138133681097e-01) (34, -2.00402230333555264608e+00) (35, 8.55579991953420715411e-01) (36, -2.99741133193457853778e-01) (37, -1.06502297784662358637e+00) (38, -3.98933773770025368322e-01) (39, -3.51205366104635818836e-01) (40, 8.07524382355753855833e-01) (41, -4.47910706581945317062e-01) (42, -1.50861341033513729482e-01) (43, -4.03506103465324117430e-01) (44, 9.29882087176826632735e-01) (45, 6.39820329019244127267e-01) (46, 5.56280993377947785561e-01) (47, -5.74951095689831603863e-01) (48, -3.01385713487884732142e-01) (49, -2.18756479792355990055e-01) (50, 1.14068760725284867874e+00) (51, -2.01477404692584571855e-01) (52, 3.78880331938514147358e-03) (53, -2.95765119366269368939e-01) (54, 1.19770578186441295498e-01) (55, -1.09908786706861202886e-01) (56, 5.53172664391337831624e-01) (57, 1.21498707063327215927e+00) (58, 9.27315208378892003038e-02) (59, -1.00139482748276353874e+00) (60, -2.67499044977139854851e+00) (0, -3.47837843841499183561e-01) (1, -3.60408808018975346243e-01) (2, 3.74834123074763436723e-01) (3, -1.07929230597786210422e-01) (4, -2.52048253788535459030e-01) (5, -2.97490866362548955770e-01) (6, 2.80327388753855377690e-01) (7, -2.03622553456828253582e-01) (8, -3.24910767100694830578e-01) (9, -2.70609551894141764361e-01) (10, 1.49965543194095940471e-01) (11, -9.07305747727031042249e-02) (12, -1.69676603593418046101e-01) (13, -1.44253955278184853306e-01) (14, -3.66040572021298638017e-02) (15, -2.86495614575792111045e-02) (16, -3.21909105791022054355e-01) (17, 2.12965053472252696665e-02) (18, -1.97873586884141416942e-01) (19, 1.64216188848405435230e-02) (20, -3.86518844555115370643e-01) (21, -1.68761242758122737007e-01) (22, 3.74439920112523763618e-02) (23, 4.66567371205380415633e-02) (24, -1.87427995152258108913e-01) (25, -5.89387899916014479373e-01) (26, 6.21632649051556962494e-02) (27, 2.47496693389317373724e-01) (28, 1.09800170775674654777e+00) (29, -1.48029471133461343335e+00) (30, -4.00270664228697725662e-01) (31, -1.26623362302780151367e-02) (32, -1.29461566016803364398e-01) (33, -7.11433912727497563822e-01) (34, -3.56957933548388672840e-01) (35, 1.71506077780496812846e-01) (36, -1.47029791058038206142e-01) (37, -6.18750550240619034970e-02) (38, -5.71717240631207657131e-01) (39, -1.60231981281888313795e-01) (40, -1.91587466479484852533e-01) (41, -8.05323800641127712785e-02) (42, -5.87579328168935877130e-01) (43, -6.71677992329690470852e-02) (44, -4.04043792542192081729e-01) (45, 2.06944441661439104685e-02) (46, -2.45713827346080326830e-01) (47, -2.76702590366936451716e-01) (48, -3.57830636119196743294e-01) (49, -3.51216770002840128484e-01) (50, 3.10205309302024112572e-01) (51, -2.89999256807990823948e-01) (52, -2.67456719419811472793e-01) (53, -2.83641948918150754722e-01) (54, 4.49623721987265755756e-03) (55, -1.12567449994655566226e-01) (56, 3.03165766267196670758e-02) (57, -2.80878659831243104872e-01) (58, -4.06969956100519725251e-01) (59, -2.94891017475847783125e-01) (60, -5.86088964432780690217e-01) (0, -3.30890818606795200640e-01) (1, -4.80769093993331508852e-01) (2, -2.69760200066592736867e-01) (3, 2.86715400803906395044e-01) (4, -3.30207973320204961620e-01) (5, -5.65953655164283753187e-01) (6, -2.11829897323807719856e-01) (7, -4.93940950755083832413e-02) (8, -5.15567591343924047642e-01) (9, -1.97766700424831132210e-01) (10, -2.03269520222050081859e-01) (11, -1.85183318987991896165e-01) (12, -5.67147963155060108598e-01) (13, -2.54612381503485585288e-01) (14, -4.29710951268621951793e-02) (15, -1.38936339835838251755e-01) (16, -4.21573177984961133813e-01) (17, 2.23180789549482366807e-01) (18, 6.75444906658825578588e-03) (19, 2.32281848305626974216e-02) (20, -3.01206038822702582003e-01) (21, 1.64264732824130038624e-01) (22, 2.56625806405376744035e-01) (23, 2.30813968619683514139e-02) (24, -4.46503990673953965462e-01) (25, -9.44974296651822920357e-02) (26, -7.45503088586678963612e-02) (27, -2.43228659926792045720e-01) (28, -9.11785940095523605997e-01) (29, -2.42996366424903909031e-01) (30, 4.45339888281035212181e-01) (31, 7.67751783132553100586e-03) (32, -8.17104657466778822039e-02) (33, -4.45019773345658384289e-02) (34, -1.81596517489557324199e-01) (35, -3.73332987431054252880e-01) (36, -1.25482743630666276902e-01) (37, -1.74773230899553620732e-02) (38, -1.27976036583544977576e-01) (39, 6.95301176389959418866e-02) (40, -5.92772660428011743949e-02) (41, 2.12582470713579066435e-02) (42, -2.35586335854585382510e-01) (43, -1.69703057483761160507e-01) (44, -5.15704585349029340224e-02) (45, -2.21029097317687106550e-01) (46, -1.53114176258350470627e-01) (47, -1.27214260795352612776e-01) (48, -3.78873517580288754480e-01) (49, -3.87977948246614245953e-01) (50, -2.93834933162308409305e-01) (51, 8.38885811299523026507e-02) (52, -4.39566660267301789755e-01) (53, -4.69848208544948131582e-01) (54, -1.72547697394029225793e-01) (55, 2.27076980991294738454e-02) (56, -4.86865449575617004196e-01) (57, -4.73670557868788089095e-01) (58, 1.43191356566853503912e-02) (59, 6.88198845551776794416e-02) (60, -5.32336067069094975857e-01) (0, -3.41112392537666120340e-01) (1, 8.04797866775043058141e-01) (2, -1.26797548320965947077e+00) (3, -4.55724496071122711638e-02) (4, 3.53472863823079241907e-01) (5, 2.39406920298713882245e-01) (6, -1.04635949444306075584e+00) (7, -5.62597430404140341764e-02) (8, -3.05054083258094743680e-01) (9, 6.15546286888039514973e-02) (10, -1.61123443552100814591e-01) (11, 1.17972581601009179897e-01) (12, -1.23798608220338141050e-01) (13, -7.61060055548996999830e-02) (14, 3.81888502594198375739e-01) (15, -1.37194468698999483269e-01) (16, -3.10542514533905300578e-01) (17, -1.03519846013758320957e+00) (18, 4.69330993107191118963e-01) (19, -3.97297527427535532296e-02) (20, -9.21848367666330603676e-01) (21, -8.62575855852302786353e-01) (22, 1.14669955126472422613e+00) (23, 1.12481274149037455135e-01) (24, -6.99298957565114287505e-01) (25, -1.28855377430473883038e+00) (26, 4.69901419967987954429e-01) (27, 7.98672402834110450875e-01) (28, 2.02779011603454906165e+00) (29, -3.21962952617701958502e+00) (30, -3.17898902019253415396e-01) (31, 4.49410825967788696289e-03) (32, -6.49726308467310081918e-02) (33, -1.27396514395465931813e+00) (34, -7.83274613181482864954e-02) (35, 9.13779706677807279647e-01) (36, -1.08803069883727965284e+00) (37, 2.06353077117557293096e-01) (38, 7.23765206409819228384e-01) (39, -3.06314349422406984047e-01) (40, -1.01372669020617589553e+00) (41, 3.97789884953936356826e-01) (42, 1.68106242336970107543e-01) (43, -4.89458682743294903883e-01) (44, -6.31939317146581580609e-01) (45, 3.25447512579170095126e-01) (46, 1.39881612237806152166e-01) (47, -4.21869116356883844254e-01) (48, 5.64344293115955131235e-01) (49, 3.35421096099520588130e-01) (50, -7.89778854128434071313e-01) (51, -7.06262917700759662587e-01) (52, -8.34433541656482091753e-01) (53, -9.69707500826906404479e-02) (54, -4.83004189521972215893e-02) (55, 9.03580977818696229331e-02) (56, -6.97188218058663378152e-01) (57, -4.11344549196442310635e-01) (58, 1.21769051128460138039e-02) (59, 1.02118816378718418880e-01) (60, -1.91974415381925478385e+00) (0, -1.68693665129919401213e-01) (1, -5.53349503636217043834e-01) (2, -8.26718564818549661588e-01) (3, 9.10834947292003260788e-02) (4, -2.11766472950845191514e-01) (5, -7.94209900734814899792e-01) (6, 2.15493729385541898935e-01) (7, -1.89265060825092035213e-01) (8, -1.12582901226164855402e+00) (9, -8.27878764236488762229e-02) (10, 1.67023004777614142435e-01) (11, -5.30004451098297968414e-01) (12, -3.78991098271195980818e-01) (13, -3.53949973289119868003e-01) (14, -2.06503668521459793350e-01) (15, -1.15103728582510111966e-01) (16, -9.40492399566895120877e-02) (17, 2.65091181494976568800e-01) (18, -3.92667409929153554682e-01) (19, -1.15228041256611901666e-01) (20, -2.47093207654248386840e-01) (21, 8.01528411686144082182e-01) (22, 5.49739180729167872808e-02) (23, -3.04198116414760078019e-01) (24, -7.12110854498167605842e-02) (25, -3.49589294298787489623e-01) (26, -2.11536809516288698552e-01) (27, -2.66004658965826534800e-01) (28, -2.82456294225230086781e+00) (29, -8.38175451230787849077e-01) (30, 2.95772940476205148386e+00) (31, 3.82397100329399108887e-02) (32, 1.14337171324757580493e+00) (33, -3.48794145173503100654e-01) (34, 1.05217029503581374628e-01) (35, -8.11037014477686168945e-01) (36, 3.94331648101856169220e-01) (37, 5.22101986302065501633e-01) (38, -1.51712918653585537854e+00) (39, 3.63376551564144556483e-01) (40, -9.22850830945496497515e-02) (41, 5.15414492787014788533e-01) (42, 1.09015942967188042556e-01) (43, -1.35183521499121883647e-01) (44, -1.20570391199217730183e+00) (45, 3.59453260518894313069e-01) (46, 1.87204038981962674060e-02) (47, 4.16138639909554575169e-01) (48, -1.49631732101114856004e-01) (49, -7.04742255342417078801e-01) (50, -7.93953702745124889617e-01) (51, 6.53159272364155274460e-01) (52, -4.75444160651748271018e-01) (53, -6.05014883800876535069e-01) (54, -3.47326583176871761527e-01) (55, 4.26318612728049828320e-01) (56, -6.82192960102083967300e-01) (57, -1.34209128425102841575e+00) (58, 7.39443475543581918430e-01) (59, 1.30863735895072275106e-01) (60, -9.79788151171725574251e-01) (0, -5.20265029250088661961e-01) (1, -3.70432069534305630221e-01) (2, -8.68094770302417773067e-02) (3, -1.70694143917212923234e-03) (4, -4.38968493756491273672e-01) (5, -3.88121217268038191592e-03) (6, -1.45478619459194963293e-01) (7, -7.07460386221673565021e-02) (8, -2.97264272198585643991e-01) (9, -1.51113225544841134340e-01) (10, -2.36427826807219243488e-01) (11, -1.59345575647015236243e-01) (12, -3.06753604940909585519e-01) (13, -2.72786212222416654671e-02) (14, -1.66695417372450332971e-01) (15, -1.57953542778534100632e-01) (16, -2.54247984218539502255e-01) (17, -1.18099122007450083038e-01) (18, -7.20418933581280229728e-02) (19, -1.03841157558392363502e-01) (20, -4.52652045633595775942e-02) (21, -3.86213274901174241638e-01) (22, -6.66606112727040206467e-02) (23, -3.13087234250715509831e-02) (24, -8.15710203949701478932e-02) (25, -6.06563953426517254996e-01) (26, -7.61002305654133043289e-02) (27, 2.23897339948140212951e-02) (28, -8.63834125310299905109e-02) (29, -7.87500579127150546199e-01) (30, -4.66631193788183351590e-01) (31, 3.92508134245872497559e-02) (32, -2.07751347915522743826e-01) (33, -3.18531175692556123291e-01) (34, -3.47366070978583518780e-01) (35, 3.67838204305639265845e-02) (36, -2.56580210021185251001e-01) (37, -6.58347161211899761790e-02) (38, -3.46048247382180151899e-01) (39, -5.87217634219270381846e-02) (40, -2.61623170374374602876e-01) (41, -1.02796845496748931459e-01) (42, -1.73980783983607639742e-01) (43, -1.06024426921324368966e-01) (44, -1.08819680065140853009e-01) (45, -1.01556903550069979603e-01) (46, -9.65239379687548165743e-02) (47, -3.46622716368303468437e-02) (48, -3.19475619790952569677e-01) (49, -1.81299214059083529937e-01) (50, -1.10213166332045042067e-02) (51, -2.28336203010363780752e-01) (52, -3.18090603864731646944e-01) (53, -2.90917543048733573396e-01) (54, 1.26938149373438668999e-01) (55, -2.29045849818331398451e-01) (56, -4.14618749744621817310e-01) (57, -3.16030605346995063787e-01) (58, 1.76670907858599735007e-01) (59, -2.61214424210984230701e-01) (60, -4.55639547084890961237e-01) (0, -1.01307753973482062015e+00) (1, 4.35773617929081091837e-01) (2, -1.07137050068025097005e-01) (3, -1.51143976060583828946e-01) (4, 1.80622549849199037775e-01) (5, 1.57796368782643164907e-01) (6, -3.54004201504796112143e-01) (7, -5.54235636945749510218e-01) (8, -6.04820985262569776886e-01) (9, 3.55699436359979637157e-01) (10, -8.98272124137172944813e-01) (11, -2.03573251106317298920e-01) (12, -1.52685254203329540124e-01) (13, 7.56008254285366554370e-01) (14, -4.02716359738261198142e-01) (15, -7.74267844929504983620e-02) (16, -7.48829442253053589873e-01) (17, 7.50391010773251210253e-01) (18, -3.85164123036224381735e-01) (19, -8.65118900428901438371e-02) (20, 3.25008693060566622446e-01) (21, -4.90280045718845591818e-01) (22, 3.85373349067176310112e-02) (23, 1.09866523591240737578e-02) (24, -1.52562920836111282075e-01) (25, -9.36533624216565496745e-01) (26, 2.69027046463257202280e-01) (27, 2.45385082699950823892e-01) (28, 9.97474403516600882647e-01) (29, -4.52691906279785793998e+00) (30, 6.17659730948677210272e-01) (31, -5.48142939805984497070e-02) (32, -1.52794328422662739619e+00) (33, -4.10901053885669276244e-01) (34, -3.87093929190574836952e-01) (35, 4.35849253779190745628e-02) (36, -5.86217215159539062341e-01) (37, 4.51336168731294395950e-01) (38, -8.02581138498214774479e-01) (39, -1.68633095085483630804e-01) (40, 3.00604167046886527892e-01) (41, 2.00711241504804266400e-01) (42, -1.33785947686564732351e+00) (43, -1.54385060506841351180e-02) (44, -3.36634691587177514727e-01) (45, 3.77368170677615855091e-01) (46, -3.32601411208377828466e-01) (47, -2.10229394198182678588e-01) (48, -8.72409379264111106700e-01) (49, 2.24495250105809257546e-01) (50, 3.96122761680312407417e-01) (51, -5.29037266485332668964e-01) (52, -3.90084162182458282775e-01) (53, 5.13799399957469600519e-03) (54, 9.25535349840546361921e-02) (55, -8.65092949223123741653e-01) (56, -1.06958566472460314678e+00) (57, 7.31076407083678381227e-01) (58, 1.07801106769651183770e-01) (59, -5.81297140699747139081e-01) (60, -1.19506568731570239628e+00) (0, -4.67337097957544578275e-01) (1, -1.31338519265526154634e+00) (2, 6.18229854587481857109e-03) (3, -2.74197112171768619948e-01) (4, 7.07713146030567230582e-01) (5, -1.39622551438606357088e+00) (6, -2.52841847891048299157e-01) (7, -5.58594411091378972856e-01) (8, -7.40637351150397638122e-01) (9, 9.18478400308400000362e-01) (10, -3.76666641000658608540e-01) (11, -6.30098097278118718378e-01) (12, -1.13260804008194757020e-01) (13, 9.12791721019805823989e-02) (14, -9.24356086913381780334e-01) (15, -9.32612250141542087345e-02) (16, 1.93494080339408208724e-01) (17, -2.72883578087873501783e-01) (18, -3.28538227498275603455e-01) (19, -1.59198681115966939048e-01) (20, -1.93166728847985136319e-01) (21, 2.69990830900730838238e-01) (22, -6.58038521064671366734e-02) (23, -2.79905050741839411810e-01) (24, -6.85597594415401578871e-01) (25, 4.10433899512912925278e-01) (26, -7.62451336696642223423e-01) (27, -1.02499933470177620465e-01) (28, -2.88363696655935397573e+00) (29, 1.31117212891891554705e+00) (30, 1.07598041507999719890e+00) (31, 4.29649874567985534668e-02) (32, 3.44259480483881163959e-01) (33, -7.05738651811907202749e-01) (34, 3.98936501622687400559e-01) (35, -2.25133122085589804096e-01) (36, 1.69846028148153083137e+00) (37, -1.05475584406536904147e+00) (38, -4.26890131229033353844e-01) (39, -2.74766002524127528339e-01) (40, 2.00131693877038285834e+00) (41, -1.40004170901232272151e+00) (42, -3.58007324951674144042e-01) (43, -2.24586406801042137715e-01) (44, -2.55927989870272432071e-01) (45, -9.98970749194692309025e-01) (46, 3.32231173522464784398e-01) (47, 2.25380712871164456956e-01) (48, -1.32213123820856953694e-01) (49, 1.28752416600201563535e-01) (50, -5.95045312897068745528e-01) (51, -8.13243474203697719327e-02) (52, -8.56523308837167873797e-01) (53, 5.61876822713843093737e-01) (54, -8.99904239887615919891e-01) (55, -5.06476410033549373502e-01) (56, -4.93081496046278155987e-01) (57, 3.26155376499312421590e-01) (58, -7.86931719407126251120e-01) (59, -1.00841885771261297045e+00) (60, -2.10710768151728977671e+00) (0, 8.41471690702355834546e-01) (1, -2.18979074587474942248e+00) (2, -7.47227021704439331451e-01) (3, -3.59116017169002710308e-01) (4, -1.01362809751852345208e+00) (5, -7.67108627591521208267e-01) (6, -1.45914742500848321205e-01) (7, -6.06854666106886320165e-01) (8, -1.38775836390855267233e+00) (9, 6.41593164150569966742e-02) (10, -6.43320599480475818766e-01) (11, -7.30034401644506281137e-01) (12, -1.76957428898519086857e+00) (13, -4.28777694477098181292e-01) (14, -5.09258216595867563292e-01) (15, -1.39756045710560022899e-01) (16, -8.40075928817059613962e-01) (17, -8.42645539996021882001e-03) (18, -3.83732354661366292792e-01) (19, 1.82428439875292142114e-01) (20, 1.28897705387286665157e+00) (21, -3.22541789938840571875e-03) (22, -1.68126812510227385822e+00) (23, 4.17361745482656587569e-01) (24, -4.08040845125414858297e-02) (25, -1.09197154375171523455e+00) (26, 2.77588358305935256620e-01) (27, -4.16886509967021479106e-01) (28, -1.22714625398171928161e+00) (29, -3.67784565093252802104e-01) (30, 3.41731705988648082339e+00) (31, 5.43667301535606384277e-02) (32, -1.49691719947214818554e+00) (33, 1.71747484776355530123e+00) (34, 1.36892282448567503828e+00) (35, -2.94360190822924250309e-01) (36, -5.08096440255492276528e-01) (37, 9.81379190339791374065e-01) (38, 1.51188634231880403291e+00) (39, -2.85482337439358080378e-01) (40, -6.35783507152386406780e-01) (41, -7.19578467462295368051e-01) (42, 1.01152111749410522634e+00) (43, 3.15906108880598893857e-04) (44, -5.38849073268252598545e-01) (45, 3.70584092632100514653e-01) (46, 5.17844960375539842268e-01) (47, -1.34714875704770253861e-01) (48, -1.39661408066709502585e+00) (49, -2.87687438438502307569e-01) (50, 1.31122898434142909352e+00) (51, -2.75493760573271462277e-01) (52, -1.03383517611128872282e+00) (53, -8.41088672699128347965e-01) (54, 7.72526403876562905992e-01) (55, 2.15662129806605734617e-01) (56, -5.94112017506904899200e-01) (57, -1.10428284018657474341e+00) (58, -9.20279701598078037073e-01) (59, 7.97575176630775928288e-01) (60, -1.10063199251204135720e+00) (0, 1.63975787128726388509e-02) (1, -4.71106681386710246517e-01) (2, 2.78975507836424163610e-01) (3, -2.67799902178548987486e-01) (4, -1.25323709346967504530e+00) (5, -1.27338816201758886493e+00) (6, 1.73450696847854990423e+00) (7, -1.25166565110127914195e-01) (8, -9.85834834896772482793e-01) (9, -1.37791519982629306895e+00) (10, 1.30028818897505993313e+00) (11, -6.31445874014876923352e-02) (12, 9.85394418625886309160e-02) (13, -1.27776354207511810834e+00) (14, 8.12488129821859250690e-01) (15, -3.21781635988341351354e-03) (16, -1.59660584255629650619e-01) (17, -1.13449434257917514124e+00) (18, -7.09848649666323217033e-01) (19, 1.41788116370475586470e-01) (20, -1.95554455264276083604e+00) (21, -6.03579756449209581248e-01) (22, 1.26855470196167519070e+00) (23, 1.78758393360018696949e-01) (24, -8.47380102308221805352e-01) (25, -3.34184745068998756423e-01) (26, -3.77894796109555675123e-01) (27, 5.10605164172087899743e-01) (28, -1.69371556130491290881e-01) (29, 2.93349968915811054604e-01) (30, -2.46225009709811581970e+00) (31, 6.13394305109977722168e-02) (32, -5.87045430746800933619e-01) (33, -1.56440929046226173682e+00) (34, 5.56527585585264605861e-01) (35, 1.14953086960871475597e+00) (36, -2.01017068527885189866e+00) (37, -4.94262986964830522418e-02) (38, 4.85782830823590916491e-02) (39, -7.45372426680668415111e-02) (40, -1.52732600392422157576e+00) (41, 3.17386014105382141537e-01) (42, 1.31986109301942648730e-02) (43, 1.88529374658524151442e-01) (44, -1.35991652823123509997e+00) (45, 6.07242849372066850755e-01) (46, -1.04145900878032882098e-01) (47, -5.00007863735565868946e-02) (48, -1.56640226866710086107e+00) (49, 5.75973573567831409470e-01) (50, 7.05641884787866491280e-01) (51, -2.80119287738158535828e-02) (52, -1.25426528026752515110e+00) (53, -5.76775755369725362520e-01) (54, 1.24138305265162385282e+00) (55, -6.60716888936633967022e-02) (56, 6.58293248699344579755e-01) (57, -6.64549140180477171391e-01) (58, -1.36389222554446387647e+00) (59, -8.08394846282008694427e-02) (60, -1.39657841248098613107e+00) (0, -1.50556894853082656738e-01) (1, 4.89849653068214707652e-01) (2, 4.84283653753399753739e-02) (3, -1.01264240504218072658e+00) (4, 2.93295790490658292438e-01) (5, -8.49336721233430284872e-03) (6, 1.97778873872335003714e-01) (7, -5.93920399467336879162e-01) (8, -4.95650899200870076466e-01) (9, -3.89328758157344190227e-01) (10, 1.83826796424337191027e-01) (11, -2.29042924650016438415e-01) (12, 9.88485020163978655994e-01) (13, -5.78170426494994171840e-01) (14, 3.47811045655432915513e-01) (15, -3.12868495646567434942e-02) (16, 1.25455181922647235337e-02) (17, -3.51422859398973608247e-01) (18, -1.15710215033763080816e-01) (19, 1.68613001535519273222e-02) (20, -4.45012442123092433199e-01) (21, -4.38176057780321648316e-01) (22, 6.33078228639807227829e-01) (23, 3.52911241113434970273e-02) (24, 7.60012925500556768554e-01) (25, -1.30815343499813141470e+00) (26, -1.05215070942296895495e+00) (27, 8.47961038932156019321e-01) (28, 4.53504481718083418684e+00) (29, -3.76367395528722159526e+00) (30, -3.84544639091418805066e+00) (31, 5.31261637806892395020e-02) (32, 2.59179450733245164695e-01) (33, -1.42972059512745119925e+00) (34, -1.51740400095758998233e+00) (35, 1.22359667557036821961e+00) (36, 2.75773588562626181808e-01) (37, 1.08756920695979419911e-01) (38, -5.27172881837223550328e-01) (39, -8.62958610786205837506e-01) (40, -9.89471619718124001386e-02) (41, 1.05992200530726798924e+00) (42, -1.08908379749037775852e+00) (43, -3.53381917968721703804e-01) (44, 4.10856228881218810134e-01) (45, -3.82519743207457574297e-02) (46, -8.46722919742020074807e-01) (47, 2.80068117456851894964e-01) (48, -6.73164733785736713045e-01) (49, -1.14053570908449086740e-01) (50, 6.28601296758355965189e-01) (51, -7.89974732967117510007e-02) (52, -3.17799535207828220962e-01) (53, -5.48774563823101191318e-01) (54, 4.57927531504874751889e-01) (55, 6.19333749628184649511e-03) (56, 3.80259429782322633251e-01) (57, -1.07956189504581057115e+00) (58, -3.83422075991892208346e-01) (59, -3.20277979203569040934e-01) (60, -2.62660034158245858649e+00) (0, -1.34333224027052766658e+00) (1, -1.16152186952924574292e+00) (2, -1.84940599332456441506e-02) (3, -3.58816321192130471829e-01) (4, -1.13190796431961082646e+00) (5, -1.46246357002285054527e+00) (6, -5.76181715903493985032e-01) (7, -1.57952015911048439245e-02) (8, -8.47890478257515289862e-01) (9, -1.02702938696568635280e+00) (10, -3.92771106854433782463e-01) (11, -2.12899363236370597896e-01) (12, -2.35608157680173402326e-01) (13, -7.14472970416092367785e-01) (14, 1.46835862844662962123e-01) (15, 1.46498918105470443685e-01) (16, -1.40100567312990108293e-02) (17, -3.34037856473815911174e-02) (18, 8.59919909288484607401e-01) (19, -3.59553746293590548166e-01) (20, -1.19562346287233634001e+00) (21, 1.24981757228901058099e+00) (22, 9.88649075282607370241e-01) (23, -5.05523616709652179324e-01) (24, -2.43669307160287473835e+00) (25, 1.42273466450140828599e-01) (26, 1.93742614665693269060e+00) (27, -3.68929714543532183413e-01) (28, -4.50456574376418927841e+00) (29, 1.19516736524000810604e+00) (30, 2.39941166992501830890e+00) (31, -5.62020391225814819336e-02) (32, -1.51306249179336882449e+00) (33, -1.73644599224246021230e-01) (34, 1.98474954320621232995e+00) (35, -4.43780328182527772363e-01) (36, 6.93899025848737360800e-02) (37, -1.09767473584953823007e+00) (38, 6.54224999984485799942e-01) (39, -3.54069943371720263769e-01) (40, -4.43542365191713472417e-01) (41, 2.15666964094038238198e-01) (42, 7.12502101871588688908e-01) (43, -3.34451886795886943471e-01) (44, -1.54537567478097798146e-01) (45, 5.75624793152568980936e-01) (46, 7.73904225755649294305e-02) (47, -3.25937837500095861643e-01) (48, 5.72170113594875462404e-01) (49, -1.00665282976340875187e+00) (50, -5.07509346262689287066e-01) (51, -7.37453680720510096336e-01) (52, -1.13707133447916985958e+00) (53, -3.69041082205625647905e-01) (54, -3.67704343266478106411e-02) (55, -2.76330037361369351689e-01) (56, -1.07259120994096873725e-01) (57, -6.85033761868596546840e-01) (58, -1.13635457078743251635e+00) (59, -6.14835122609744599842e-01) (60, -2.59696424487499610834e+00) (0, -9.27465088707463247708e-01) (1, -5.34569440129689987806e-01) (2, -3.62212224394482584788e-01) (3, 9.33147826358981247186e-02) (4, -5.34193527871602236168e-01) (5, 3.32267724061288752258e-02) (6, -3.29536576898914468359e-01) (7, 6.04633000607209120103e-02) (8, -4.76622089000245385826e-01) (9, 1.81106392499543356056e-01) (10, -1.04029928125204756961e-01) (11, -2.94450785926985314500e-01) (12, -2.92976071671420368325e-01) (13, -2.26439290339838728006e-01) (14, -1.84126181020004914268e-01) (15, 1.78473020738865117973e-01) (16, -3.26068297164723353010e-01) (17, 5.71519527040897701298e-01) (18, 3.00964572356821669086e-01) (19, 7.91646670655389572691e-02) (20, 1.51715727921528681366e-01) (21, 4.74751209843747801198e-01) (22, 1.21921563304380287107e+00) (23, -9.31136136611028925048e-02) (24, -2.41639303071543853907e-01) (25, 2.39369262930643256215e-01) (26, 3.07609131557134818369e-01) (27, -2.54404322364363499887e-01) (28, -2.68591673249465090478e+00) (29, 6.35423959606347010798e-01) (30, 5.83169292090489732594e-01) (31, 6.30480572581291198730e-02) (32, -4.71954625142244399427e-01) (33, 9.06956452313451788605e-01) (34, 1.10106082346045297538e-01) (35, -4.17539817168989413343e-01) (36, -3.67149804218256520238e-02) (37, 7.93055202790349467179e-01) (38, 2.96621866791002275487e-01) (39, -2.53655296977651656398e-01) (40, 1.20847416591743250791e-01) (41, 7.34104055537878941173e-01) (42, 2.37494858144969456237e-01) (43, -1.57475551389188284102e-01) (44, -5.28499489373082553811e-01) (45, 7.54843683489122424524e-02) (46, 3.21207836798395651723e-01) (47, 2.92610003991235712029e-01) (48, -3.92488508946726322169e-01) (49, -4.16478667810809971561e-02) (50, -3.72932646150194058166e-01) (51, 1.81997039428674123318e-01) (52, -1.22535753282527706820e-01) (53, -5.56436553559762847598e-01) (54, -4.07032464039144559198e-01) (55, 9.88996992614044889702e-02) (56, -4.06601790592952705428e-01) (57, -7.99275005321941733882e-01) (58, -1.57290854982307631849e-01) (59, -1.60503753172073992950e-01) (60, -1.24509958522945085591e+00) (0, -1.95053231676832944386e-01) (1, 1.21396145867358651316e+00) (2, -3.12026984067641244280e+00) (3, 4.52702847376588668471e-01) (4, 6.21781257812923593420e-01) (5, 4.74664169695244220204e-01) (6, -2.82750229353896953555e+00) (7, 4.58257402082135556487e-01) (8, 6.48742346286822479939e-02) (9, 1.20157240223330119555e+00) (10, -2.99225647660551796747e+00) (11, 2.91799891163408986472e-01) (12, 4.78827127240227523597e-01) (13, 1.15686698882050498227e+00) (14, -2.32935241788714941791e+00) (15, 2.43275256280162631428e-02) (16, 2.12610645964349576076e+00) (17, 3.70783222505415843706e-01) (18, -2.60462254302295992403e+00) (19, -9.03571957859035795879e-02) (20, 1.97215105721676353667e+00) (21, 1.64220792021701478269e-01) (22, -2.93071243425567606877e+00) (23, 9.83339479269972616127e-02) (24, -8.70651618332000595823e-03) (25, -7.91681269029671841331e-01) (26, -6.95981235241590612262e-01) (27, 5.24133014462713986426e-01) (28, 1.57486066161791704587e+00) (29, -2.74680870959380918350e+00) (30, -1.68138205806875085102e+00) (31, -3.65205556154251098633e-02) (32, -1.28361344257441234440e+00) (33, -7.95317663664315110950e-01) (34, -5.01043233080314953654e-01) (35, 2.45845694320316082715e-01) (36, -8.08525189967973650917e-02) (37, 1.35535946569384002647e-01) (38, -4.87883300147269771685e-01) (39, -1.83655465116281418902e-01) (40, 3.43255072199223576490e-01) (41, -1.25351902809087101254e+00) (42, -1.05015304608140414011e+00) (43, 4.35584566112395377147e-01) (44, 4.57191216087937224444e-01) (45, 1.16783703915129266626e-01) (46, -1.01716717079241858457e+00) (47, -1.31872419260147283326e-01) (48, 1.22707173957924231544e+00) (49, -4.56770908465755298700e-01) (50, -8.39366437170006474133e-01) (51, 7.46945763325364137097e-02) (52, -1.66818524983459337552e-01) (53, 1.04422470304041503653e+00) (54, -2.02134038242767904991e-01) (55, -1.11665209152506245127e-01) (56, 1.05885139673353778633e+00) (57, 3.21101742558705272046e-01) (58, -8.07516619539095814595e-01) (59, -1.46665605542176044618e-02) (60, -1.84016142704478391501e+00) (0, -2.39633438961270123224e-01) (1, -1.22985839270567803849e-01) (2, -3.08498323368023963376e-01) (3, 2.33893400054342198713e-01) (4, -3.61044362900320325860e-01) (5, -1.48407675102865066474e-01) (6, -1.81039900801731323821e-01) (7, 2.23511179765880640957e-01) (8, -4.78422357795207697784e-01) (9, -5.58048174883719969724e-03) (10, -1.99970831995394476843e-01) (11, 2.11880612180584376736e-01) (12, -1.97674197258188466542e-01) (13, -1.07438845437644300840e-01) (14, -2.25938400363307145824e-01) (15, -6.84285380309274191696e-03) (16, -1.98859643302295385769e-01) (17, -2.14646571816273556976e-01) (18, -2.57908680067259643565e-01) (19, 9.37926515816242811763e-02) (20, -5.55371981659406460663e-02) (21, -3.71140978144534339211e-02) (22, -4.13343561979748863600e-01) (23, -2.09388357466324448453e-01) (24, -2.58011498791220317273e-01) (25, 4.46799718676804680229e-02) (26, -4.62704082439917951941e-01) (27, 1.51158869934833933746e-01) (28, -1.45435906324328428907e-01) (29, 2.52364593960559324692e-01) (30, -8.02464270148658509463e-01) (31, -4.36869971454143524170e-02) (32, -3.09883449625451945497e-01) (33, -2.16967782258042328480e-02) (34, -4.66730819487734260864e-01) (35, 1.88622252928930866922e-01) (36, -2.32511685531001405236e-01) (37, 1.25647357585133040425e-01) (38, -5.11304061710509349936e-01) (39, 4.44292578864123807736e-02) (40, -2.73083662099570689819e-01) (41, 2.41914326999859846667e-02) (42, -3.48062654810191662857e-01) (43, 9.29737456463324285494e-02) (44, -3.30089949889765865709e-01) (45, -1.76272579960452091541e-01) (46, -9.76281759709083235554e-02) (47, 1.74789314961217884248e-01) (48, -7.60492438981318352731e-02) (49, -1.97522683402567539312e-01) (50, -1.83493358220472746467e-01) (51, 3.35279958960961882442e-02) (52, -1.49273905940120715785e-01) (53, -1.23517692518958804859e-01) (54, -2.91112610664617299516e-01) (55, 9.00459755647830401015e-02) (56, -2.93322886850809205761e-01) (57, 6.08965587412806964862e-03) (58, -3.73956007955800140419e-01) (59, 3.16686805940226343004e-02) (60, -7.78421890541515004713e-01) (0, -1.06627607413688130222e+00) (1, 1.29445055535006603442e+00) (2, -3.89093715514593097016e-01) (3, -4.20562231325966484619e-01) (4, -6.50990792173725463243e-01) (5, 1.66814261777159071609e-02) (6, -7.39656192845980359207e-02) (7, -9.68042146382815799077e-03) (8, -3.52296948374429208517e-01) (9, -5.79793401075835324043e-01) (10, 1.03740799580590264961e-01) (11, 2.35468470866311341272e-01) (12, 5.22257740820666116477e-01) (13, -1.53545170395131602703e+00) (14, 3.24411412886596139948e-01) (15, 1.45036094677384347351e-01) (16, 1.20169574534319045789e+00) (17, -1.87081259257737064772e+00) (18, -2.39430501815737550864e-01) (19, -8.57072220483442587247e-02) (20, 5.71888712103292728983e-01) (21, -6.16444648401132333504e-01) (22, -7.78889755906502556648e-01) (23, -8.24526638231636369025e-03) (24, -1.15874681672456447679e+00) (25, 1.88332453641057506744e+00) (26, -1.63043195551022268575e+00) (27, 1.85228324276212226451e-02) (28, 2.99304927041807611321e-01) (29, 9.65809980563567926914e-01) (30, -1.68849106144808636110e+00) (31, -7.20315575599670410156e-02) (32, -8.71916258752084227801e-01) (33, 4.63006591677940892993e-01) (34, -8.21836541752269722494e-01) (35, 1.83481204587041479837e-01) (36, -4.34714303536852531007e-01) (37, -6.30953284462847707736e-01) (38, -2.05612571294843393677e-01) (39, -1.02503860702516130798e-01) (40, -2.24120135239222084689e-01) (41, -2.75610760856664860352e-01) (42, -3.29448086563464470622e-01) (43, -1.96131463562867619510e-01) (44, -1.02250823655012323954e+00) (45, 2.88476920722449403645e-01) (46, -4.97144748650759221720e-02) (47, -3.66763048779973011015e-01) (48, -6.43736366249560876263e-01) (49, 8.17895183657914720543e-02) (50, -1.99434961877536509611e-01) (51, -2.79788046193796657857e-01) (52, 2.80183679036714650135e-01) (53, -6.57171270125379458626e-01) (54, -2.90695902564435171289e-01) (55, -2.56062861489106341484e-01) (56, 4.46671236072356148128e-01) (57, -5.16236980232299802474e-01) (58, -6.90690387678905892699e-01) (59, -4.29599376970604018844e-01) (60, -1.51566820355366482787e+00) (0, -1.08981962461453418811e+00) (1, -2.32570777652250759715e+00) (2, 1.98174322643731826155e+00) (3, -1.97719151488781191839e-01) (4, -6.47137358941049178895e-01) (5, -2.03083094405223041345e-01) (6, -2.29831260268352544074e-01) (7, -4.64852478650872813493e-01) (8, 1.17475700043213546198e-01) (9, -9.06844146509753978869e-01) (10, -6.48862590801860705803e-01) (11, -2.30958989173113665716e-01) (12, -9.00903107469543162900e-01) (13, 9.77603128655936570723e-01) (14, -6.43071878992526713148e-01) (15, -6.52041424860277524234e-02) (16, -1.42152515318090078011e+00) (17, 1.52791588883730145021e+00) (18, -9.91550680162168185383e-01) (19, -3.80376086414326297636e-02) (20, -7.83901736117248004732e-01) (21, 2.05844458625400994478e+00) (22, -1.62533990033879338633e+00) (23, 3.37877759233465024824e-02) (24, -1.72545250097194124983e-02) (25, 4.33802176299889874489e-01) (26, -1.42579889392584702179e+00) (27, 3.50953133572586728484e-01) (28, 1.06815386855174798697e+00) (29, -2.54397942468469473454e+00) (30, -1.10369434468762395163e+00) (31, 6.04096427559852600098e-02) (32, -9.77249720340420902076e-01) (33, -1.07265865678937921679e+00) (34, -7.56767126995451677729e-01) (35, 2.83904381389125826107e-01) (36, -1.76023973844206427231e+00) (37, -6.54004654226036263864e-01) (38, 1.16923882372059839696e+00) (39, -1.82032307925649533553e-01) (40, 5.87299667017586179973e-01) (41, -5.96862552496170373217e-01) (42, -4.08118173987040366857e-01) (43, -1.46200352367853975144e-01) (44, 8.88137007104134901248e-01) (45, 1.75782474101107949460e-01) (46, -9.30381862330206699241e-01) (47, -7.41662152556443077245e-01) (48, -5.82029529078018859067e-01) (49, 4.99703724662731996187e-01) (50, 1.20075829990149235416e-01) (51, -4.25136205184239279742e-01) (52, -2.27885305226071116502e-01) (53, 1.12261738189498638807e-01) (54, 2.04836948857593965923e-02) (55, -3.52653904911200355432e-01) (56, -1.56112860509253964514e-01) (57, -4.29876656717613270242e-01) (58, 2.02415725623352721341e-01) (59, -2.70069726853995273341e-01) (60, -7.28731886289281871605e-01) (0, -4.41102209776644160755e-01) (1, -8.15869137171041591827e-01) (2, -3.64059464097937102167e-01) (3, 3.94672528167823999379e-01) (4, -4.38685958618099169914e-01) (5, -5.65756738868286035427e-01) (6, -2.07317187254680485031e-01) (7, -5.44783565745472209141e-02) (8, -4.76418983354912617401e-01) (9, -5.23900413087868610518e-01) (10, -1.03081174769009256686e-01) (11, -2.25892939433167766472e-01) (12, -7.87912253425486985847e-01) (13, 2.15041865175993086867e-02) (14, 1.76700418195059952287e-02) (15, -2.95272900783759617571e-01) (16, -7.21908124828437580689e-01) (17, 2.52327224251548298817e-01) (18, -1.36490815533224368883e-01) (19, -1.40322989765224087622e-01) (20, 4.95851574476743276604e-03) (21, -8.17881463094465160912e-02) (22, -5.01553719814771370444e-01) (23, -7.13205204332261477607e-02) (24, -9.05953700209067291915e-02) (25, -4.57459737637177510372e-01) (26, -9.61982964667317669294e-02) (27, -1.94442528442382939202e-01) (28, -1.37200905325248867506e-01) (29, -8.10273884333376992473e-01) (30, 7.86338600984091362633e-01) (31, -6.90417587757110595703e-02) (32, -1.23222296643737252997e-01) (33, -5.54733148839477219205e-01) (34, 3.15172382517067695140e-01) (35, -1.47436169713795917069e-01) (36, -4.11747348906178617378e-02) (37, -3.57447761925357210266e-01) (38, 1.25002060091897210237e-01) (39, -2.63918037440969352470e-02) (40, -3.63314232755457988677e-01) (41, -1.04740367873314976777e-01) (42, -1.10702322239387973557e-02) (43, -1.56457265556682961760e-01) (44, -6.14114499747985598255e-01) (45, -2.83408778511496650676e-01) (46, 3.56778210020029934446e-02) (47, -2.87603325690459821207e-01) (48, -5.41472684466402731651e-01) (49, -2.29071740015888231090e-01) (50, 1.02399329269337910353e-01) (51, -1.43863453092405529921e-01) (52, -3.70981662639162823591e-01) (53, -4.09872007954698025500e-01) (54, 2.30167730499213102346e-01) (55, -1.22998343299554654950e-01) (56, -7.14024119683393632130e-01) (57, -6.38445936087382315272e-01) (58, 3.55434002198356691071e-01) (59, -1.01545384541118707822e-01) (60, -5.48678404321903956387e-01) (0, -9.60157599754197926822e-02) (1, -2.99037820205500459725e-01) (2, -3.45371817572405204189e-02) (3, -1.71885530921001145055e-01) (4, 1.42377576076761019896e-01) (5, -6.42849488249810696594e-01) (6, -1.22787635980521718515e-02) (7, -7.36807432277566398682e-02) (8, 2.37136150424116232127e-01) (9, -5.06107331310552299719e-01) (10, -1.87674594178550646628e-01) (11, 3.63746644387402673360e-02) (12, -1.54481052154988196534e-01) (13, -4.44483765395637719919e-01) (14, -6.50349284075052019860e-02) (15, 1.38644381464157029349e-01) (16, -2.06083482474089890735e-01) (17, -2.69211088995798153434e-01) (18, -1.41619838526491403918e-01) (19, 6.75766862122671209401e-03) (20, 1.10095067485338430485e-02) (21, -1.40109502455519729924e-01) (22, -2.44006970538902717704e-01) (23, 1.24211438760313229446e-02) (24, -3.18105573648555628452e-01) (25, 2.61674087831620216793e-01) (26, -2.85708990481511881931e-01) (27, -1.68862761753889478733e-01) (28, -1.24361243631463214143e+00) (29, 8.12129933430465245081e-01) (30, 1.90618509729392898722e-01) (31, 1.86692103743553161621e-02) (32, -5.92559395013393164220e-01) (33, 5.26372962548841138997e-01) (34, -2.63713540020980519163e-01) (35, -4.88369965485097451419e-02) (36, -4.35402869568890071861e-01) (37, -1.12442693552307210192e-02) (38, 2.30332885156828010009e-01) (39, -6.85722063391673991584e-02) (40, 2.00572352071587883815e-01) (41, -3.98379258144388459506e-01) (42, -2.14689157365635513441e-01) (43, 1.81747106514770669083e-02) (44, 4.63191716975020623126e-02) (45, -4.75060003516465989559e-01) (46, -3.94888619343544799989e-01) (47, 4.42716239293539787214e-02) (48, -7.75992979165473217851e-02) (49, -2.74505760836594669971e-01) (50, -3.88075987557522095184e-01) (51, -1.24147223444791648950e-01) (52, -1.15320245801827050980e-01) (53, -2.62539476691778683737e-01) (54, -4.44546966815259403383e-01) (55, 8.42979189258988292899e-02) (56, -1.85459933307782764977e-01) (57, -2.47177414886922408588e-01) (58, -5.85251166746239115390e-01) (59, 7.78008894552307140452e-03) (60, -8.91415957001428727047e-01) (0, 3.82713575431169517049e-01) (1, -3.16879577431094072715e-01) (2, -3.67068724806390356274e-01) (3, -4.65292333522000334245e-01) (4, 3.62721352484274117689e-01) (5, -8.89635569353065314147e-01) (6, -1.05314820458711697060e-01) (7, -1.82451349487308886466e-02) (8, -8.68537022083918502924e-03) (9, -6.26354310857158758097e-01) (10, -5.02107650077228351293e-01) (11, 1.94382387487550711835e-01) (12, -2.60640777036791948529e-01) (13, -4.61138656751600928274e-01) (14, -8.85614189292085685068e-01) (15, 3.10520990547503872303e-01) (16, -8.92488717622605398638e-01) (17, -3.99321970176020779597e-01) (18, -1.54773551688976773733e-01) (19, 3.05740325487283588768e-02) (20, 2.70121361012676697300e-01) (21, -1.01453977087645563770e+00) (22, -1.69169577023405764971e-01) (23, -9.81288248811413828590e-04) (24, -8.30178233924984132486e-01) (25, -2.58343424791472153768e-01) (26, 3.48982147012305232714e-01) (27, -3.32487779566340152515e-02) (28, -4.47106699013853070568e+00) (29, 1.41931288677637401641e+00) (30, 1.55109426360068480832e+00) (31, -8.59909951686859130859e-02) (32, -2.15760266161731273371e+00) (33, 7.17977512010391061281e-01) (34, 5.25248123740206240839e-01) (35, -1.52429279465684852646e-01) (36, -2.63271425382716683927e+00) (37, 7.28300406114962828319e-01) (38, 5.56418566299042294254e-01) (39, -1.38599969075727698364e-02) (40, -1.79939917399961202271e+00) (41, 8.22445339199839642319e-01) (42, -1.61088482883521115496e-02) (43, -6.82360573328091857270e-02) (44, -1.42525077840610991942e+00) (45, 5.47372180402837194002e-01) (46, -4.24579535639716343365e-01) (47, 7.64962072241657242699e-02) (48, -1.22531971642419512669e+00) (49, 2.43115002581018535555e-01) (50, -5.75390785263063642141e-01) (51, -1.98607813440031616414e-01) (52, -5.15903683617894959212e-01) (53, -8.48364332154250000428e-02) (54, -5.44434132696596129186e-01) (55, -3.50528727918103411021e-01) (56, -6.17843433246350381971e-01) (57, 1.70876310356722904693e-01) (58, -1.46377544037073126226e+00) (59, -5.32270036993512274393e-01) (60, -2.32734040003633335658e+00) (0, -3.44821954119344076251e-01) (1, 6.97095005477617601919e-01) (2, 2.23823426543132697475e-01) (3, 1.99511513710845217462e-01) (4, 1.21004446416961120025e-01) (5, 1.34802144686518632355e+00) (6, -8.47361485757501253779e-01) (7, 1.83163111081763779753e-01) (8, -6.54819098222343076721e-01) (9, 1.27064792363534939668e+00) (10, -6.30592424780542781804e-01) (11, -1.57482092809962365143e-01) (12, -1.22226607741004200669e+00) (13, 1.41057178353873990950e+00) (14, -5.00348151548261399491e-01) (15, -3.13156474095379389055e-01) (16, -2.02330522419792435684e+00) (17, 2.09910580012569081276e+00) (18, -1.10817919304356782284e+00) (19, -3.82296545408921051301e-01) (20, -1.02233435264130245734e+00) (21, 3.91740708250902347487e-01) (22, -8.56337312650112036927e-01) (23, -5.98015203230571001924e-01) (24, -5.35996574907158934709e-02) (25, 2.19214646427842740906e+00) (26, 6.57925021264857412540e-02) (27, 2.60137976707221996175e-01) (28, 2.67335698085684736469e+00) (29, -1.74558658165268693052e-01) (30, 2.98119286036485076075e-01) (31, -8.38303565979003906250e-02) (32, 2.82047624224873623444e-02) (33, 1.34330655262992304522e+00) (34, -2.94358471114751461817e-02) (35, 2.52942545363730786345e-01) (36, -1.05503208113227137099e-01) (37, -1.21141855475430465505e-01) (38, -5.53821684771392264146e-01) (39, -2.78595266723902224015e-01) (40, 2.17173554473922801600e-02) (41, 8.74282354068605216391e-01) (42, -2.94444024540109983157e-01) (43, -6.32112955790580688387e-01) (44, -1.74052950748490503630e-01) (45, 1.01825782569112610609e+00) (46, 9.45947730734098768401e-01) (47, -8.42696943692152311556e-01) (48, -2.29696483059890432799e-01) (49, 2.88719521179438443070e-01) (50, 4.86932107833511831907e-02) (51, 1.28103187538802260059e-01) (52, -6.55075724444800000512e-01) (53, 1.38718196572832686009e-01) (54, -7.20503072536363559086e-02) (55, 2.63816926603012702479e-01) (56, -1.25912434176564813626e+00) (57, -8.11608689705868927011e-03) (58, -1.86884088455505359416e-01) (59, 1.03220609403506613511e+00) (60, -4.04946564005852671642e+00) (0, -3.35519812004239414982e-01) (1, -2.29622511751149338544e-01) (2, 4.79399798642076019339e-02) (3, -5.98154560847624430786e-02) (4, -4.57675637362149390075e-01) (5, -9.18662586656369961613e-02) (6, -1.32319005822551238882e-02) (7, -1.17384864636790112180e-01) (8, -3.41119613219700357210e-01) (9, -1.73026670060653225969e-01) (10, -4.10367570312232254892e-02) (11, -6.36538657976304933506e-02) (12, -4.00277021142226407946e-01) (13, -9.74708472810371928663e-02) (14, -4.09711626207899942687e-02) (15, -1.73325715304056909849e-01) (16, -3.72546330735500308418e-01) (17, -1.53435229877543419241e-02) (18, -1.43012413456821252389e-01) (19, -2.41378843345222936223e-02) (20, -1.00603347153211591936e-01) (21, -3.14768290385860072256e-01) (22, -1.35814228922992802362e-01) (23, -9.55487280718581889760e-03) (24, 1.92287700540766416657e-02) (25, -6.03002970397189530516e-01) (26, -1.82841922203371420874e-01) (27, 5.57369712083170907452e-03) (28, -5.23342296194445749657e-02) (29, -7.16018965327839707058e-01) (30, -3.50002584779106951096e-01) (31, -5.17491921782493591309e-02) (32, -2.13882695304571435191e-01) (33, -4.43550519279106714166e-01) (34, -3.12237818707849168476e-01) (35, 4.58839609182918189978e-02) (36, -3.39367824963963726770e-01) (37, -1.69954376222038405775e-01) (38, -2.98531879356043250429e-01) (39, -1.39519981527195635618e-01) (40, -2.58865188082881669818e-01) (41, -6.96507737201120524784e-02) (42, -8.53257441411723327462e-02) (43, -1.70918031322655900039e-01) (44, -3.10474377205607665609e-01) (45, -1.89583278736939059295e-01) (46, -8.26146428181757375153e-02) (47, -1.71613183545752751025e-01) (48, -3.12612874990483291526e-01) (49, -2.73219847533476056789e-01) (50, 5.53520510145941516122e-02) (51, -1.42220178530465951594e-01) (52, -3.16036407606333225040e-01) (53, -2.20859377919719795935e-01) (54, 3.63403552320699096967e-02) (55, -1.59842583790711173508e-01) (56, -3.66854974367467279173e-01) (57, -3.60602016339053921268e-01) (58, -4.88980537385480598656e-02) (59, -3.21251099008748763897e-01) (60, -5.04340336556936219559e-01) (0, -2.16809883357824112471e-01) (1, -2.03240328873840220281e-01) (2, -1.80450553196625423924e-01) (3, -2.55963511093951351372e-02) (4, -1.13002788998410971799e-01) (5, -3.60520387367760319908e-01) (6, -2.38146784164557479002e-01) (7, -9.88762788691354699289e-02) (8, -1.93835902236951157507e-01) (9, -2.93953113199839910497e-01) (10, -2.28246368054875942155e-01) (11, -5.45085121657481949664e-02) (12, -1.22054579350127520576e-01) (13, -2.97184210004059701227e-01) (14, -2.10080643243242382034e-01) (15, 8.81411732739687536764e-02) (16, -1.96781412644947084623e-01) (17, -1.67150619657914084604e-01) (18, -2.29480375963094923586e-01) (19, -1.67331106765290196954e-03) (20, -3.20055630056332751643e-01) (21, 1.45995232616135034442e-01) (22, -1.40326755097954031237e-01) (23, -4.51472246552892392257e-02) (24, -4.78346144925669569670e-01) (25, 5.76300744006464013558e-02) (26, -1.32110148122341980459e-01) (27, -1.85831348447070054952e-01) (28, -1.25329518027258224322e+00) (29, 5.21202320480166347849e-01) (30, 3.21709883816270636459e-01) (31, 8.46924111247062683105e-02) (32, -4.74858711179089454379e-01) (33, 1.09421898587545154968e-01) (34, -1.75854220947766551331e-02) (35, -8.42071902547631284675e-02) (36, -1.90248020533407974364e-01) (37, -1.00459845226396907170e-01) (38, -5.16753413551039875173e-02) (39, 3.25346254079826660566e-02) (40, -1.07044102623371689686e-01) (41, -1.29608572000966454363e-01) (42, -1.96040141505832210544e-01) (43, 5.46413723026757530699e-02) (44, -1.77671560232992187256e-01) (45, -2.30344977562734892773e-01) (46, -2.65855009314563739409e-01) (47, -8.62243243490178473687e-02) (48, -1.74797783363313835592e-01) (49, -6.04463943940425837975e-02) (50, -3.59269802499945334340e-01) (51, -6.63070500359121267619e-02) (52, -3.02747169950205008426e-01) (53, -9.67216762602108592883e-02) (54, -2.74749295331152165733e-01) (55, -9.36598930686342590057e-02) (56, -2.78773538635169904065e-01) (57, -1.24644733312781363921e-01) (58, -2.37336719258803618970e-01) (59, -1.05456717001831595804e-01) (60, -8.35893506434571942343e-01) (0, 5.51065792371458140764e-01) (1, -3.97921566277140370538e-01) (2, -2.19175522942054445963e+00) (3, 1.00025909098689580468e+00) (4, 8.26510011699742475066e-01) (5, -9.10690304924979154855e-01) (6, -8.86767449272529928450e-01) (7, 7.66818183945554121550e-01) (8, 5.43415926383240099895e-01) (9, -4.03733676720997303189e-01) (10, -4.00086860498014007526e-01) (11, 3.40977884980960321837e-01) (12, 1.78553478354259803629e-01) (13, 9.72794783897434345299e-02) (14, -4.77713439354448432539e-01) (15, 2.62018412176497850208e-01) (16, -5.21482030753204761631e-01) (17, -1.90101950602093200393e-01) (18, -1.85200989001037430448e-01) (19, -1.99889734382963091264e-01) (20, -6.19128712439970252390e-01) (21, 4.77196186857081317001e-01) (22, -8.40076299268362136630e-01) (23, -7.40371609623291293545e-01) (24, -9.08969704307385550912e-01) (25, -5.98769970933524575685e-01) (26, -7.78682811470288172018e-01) (27, 1.08253044712120249926e+00) (28, 1.49347033015218744190e+00) (29, -4.58901175798542892981e-01) (30, -2.24530729860426081501e+00) (31, -1.03568583726882934570e-02) (32, -3.07216263358835062203e-01) (33, 2.33257940998232750351e-02) (34, -6.82423832742655389616e-01) (35, 8.10679210713225684160e-01) (36, 1.01616128500104305199e-01) (37, -2.96622962657241175111e-02) (38, -4.81528937875893958687e-01) (39, -7.61067066138946916876e-03) (40, -6.92636187706101913442e-01) (41, -1.26259418424760183619e-01) (42, 5.68145629074502805933e-02) (43, -2.89350488442549902413e-02) (44, -3.82983429738860348124e-01) (45, 2.13241324666296194756e-01) (46, 3.52971753584236214163e-01) (47, -1.15366217842069934685e-01) (48, 6.04974579562968517443e-01) (49, -8.29383610063302079141e-01) (50, -4.67611376750408092029e-01) (51, 2.14422977758763982914e-01) (52, 4.81803371330639662595e-01) (53, -3.64953091894573089515e-01) (54, -1.09386010745586981230e+00) (55, -2.31853723805444528194e-02) (56, 1.24534256852889635425e+00) (57, -6.43176997881111600641e-01) (58, -8.91138259932210963221e-01) (59, -3.93687784467553203438e-01) (60, -1.71066147883878971747e+00) (0, 1.68857558073561925260e-01) (1, -1.35528569328168924102e+00) (2, 3.46373989072535248823e-01) (3, -1.93798699912163752135e-01) (4, 2.75175271206457072726e-01) (5, -1.14873635997202439007e+00) (6, 5.49356565069999969175e-01) (7, -7.41021736515437012827e-01) (8, -8.20372816136016608929e-04) (9, -4.54700501036911675090e-01) (10, -7.14793117816716283563e-01) (11, -8.26511966708971868023e-01) (12, -2.01544849070603132590e-01) (13, -1.79203253451853283806e-01) (14, -8.65151655755734050324e-01) (15, -9.91758158308471915454e-01) (16, 5.66343138572166560074e-01) (17, -4.30176571181719535897e-01) (18, -7.98328308487001203630e-01) (19, -5.16439468199960782790e-01) (20, 1.16416403998897100003e+00) (21, -8.79456372695517019089e-01) (22, -1.61246127724685606175e+00) (23, -5.27000512487517461246e-02) (24, 5.22219511086026266788e-01) (25, -1.61451345912502586266e+00) (26, -1.05072201176689236646e-01) (27, 4.27578495730281948894e-02) (28, 9.27111518345251184314e-01) (29, -2.37897580107612505174e+00) (30, 3.77676155529266754929e-01) (31, 9.12010669708251953125e-04) (32, 1.11231404993650495605e+00) (33, -1.63486302409292627580e+00) (34, -6.42539771734226827782e-01) (35, -2.94845096935915429448e-01) (36, -2.03845238269774048367e-01) (37, -2.21388374838580814785e-01) (38, -6.74351346048638444763e-01) (39, -6.94737775760989190177e-02) (40, 7.15474831869165328602e-02) (41, -3.22715608203558934619e-01) (42, -3.75553412868813774050e-01) (43, -1.39722562197971383879e-01) (44, -2.94736564748274476599e-01) (45, -2.20027347206185663886e-01) (46, -1.55017986967928511621e-01) (47, -2.31721509714717416317e-01) (48, -3.77299642532070378387e-01) (49, -8.04347104759420283848e-02) (50, 1.73437200149994807941e-02) (51, -2.50378121581467716350e-01) (52, -3.46042479388208645830e-01) (53, -5.15614995767860961884e-01) (54, -1.33796759951435324104e-02) (55, -2.52155339080642915128e-01) (56, -1.04708919517688348044e+00) (57, -8.72131575359249344714e-01) (58, 5.92372541056744306154e-02) (59, 2.78810810689627708303e-01) (60, -8.99201010056710270391e-01) (0, -1.44552182319786926001e+00) (1, -3.26098110928359330440e-01) (2, 5.90516713008055402212e-02) (3, 3.29016496723164741933e-01) (4, -5.29936329538855388499e-02) (5, 1.22230559660954321566e-01) (6, -1.13428193635811846995e+00) (7, -4.61881937565180478167e-01) (8, 1.21242725076103147197e-01) (9, -6.75751474774228366726e-01) (10, -4.86408821195647655955e-01) (11, -7.68646134903893107904e-01) (12, 4.05357776154189108908e-01) (13, -1.40703841236281190774e+00) (14, -1.07046262991947714605e-02) (15, -4.17491941837716429298e-01) (16, -1.38389688134024829713e-01) (17, -6.08734676005636687890e-01) (18, 2.41462284752208183880e-01) (19, -1.17096897949393333183e-01) (20, -1.57904823561801732623e+00) (21, -7.46374257369521343364e-01) (22, 3.06196732332053578318e+00) (23, -7.14388916825160202873e-02) (24, -1.77258025471593239075e+00) (25, 1.78603132462283181736e-01) (26, 3.13189199423849728987e+00) (27, -9.14993585691890737310e-02) (28, 1.57667513830846384160e+00) (29, -4.28362462105670249723e-01) (30, 1.41853752429205814956e+00) (31, 7.67819806933403015137e-02) (32, 8.30204901858644594981e-01) (33, -5.68300391322496878388e-01) (34, 3.08074787384579606986e-01) (35, -2.94250031166007841588e-01) (36, 4.57481010619504691039e-01) (37, -5.84889216984949000810e-01) (38, -5.02953157672603942685e-02) (39, 4.37796903543959170513e-01) (40, -1.59568585466624807134e-01) (41, 2.60566362875798152032e-01) (42, -1.80973030565196008057e-01) (43, 1.24475655663397244410e-01) (44, -6.17362664818097650610e-01) (45, -7.43198857068765428302e-01) (46, -1.55484813547505512643e-01) (47, 2.62733231731962890709e-01) (48, -8.66049931242067638770e-01) (49, 5.28952331007386700179e-01) (50, -1.07497478941590614981e-02) (51, 2.16421237392947607425e-01) (52, -2.45154506458018617288e-01) (53, -4.01120032113540081475e-01) (54, 1.39254906873250483557e-01) (55, -4.02882985538042748264e-01) (56, 1.18008477684234225347e-01) (57, -1.26714159579471430384e+00) (58, -1.83322207497757551364e-02) (59, -1.20525827985675282328e+00) (60, -8.28039236643892118117e-01) (0, 9.53391283643843373552e-02) (1, -1.09115934178891293982e+00) (2, -1.45079293399599573711e-01) (3, -2.97896530714064800005e-01) (4, -4.63091904966992151671e-01) (5, -3.94455049347618935673e-01) (6, 2.90953016869259228905e-01) (7, -4.20891166633284186105e-01) (8, -7.15124772840128208884e-01) (9, -7.87170273887140892199e-01) (10, -6.64900227146716482629e-01) (11, -4.32038124273883550330e-01) (12, -5.17822015272569435851e-01) (13, -2.29691196636172489942e-01) (14, -7.01972264663973333221e-01) (15, 3.14910111362964539872e-01) (16, -1.48752096022507246387e-01) (17, -2.73943366688436606982e-01) (18, -6.79847526553052028397e-01) (19, 3.59728907748731063787e-01) (20, 1.99168960360591520975e-02) (21, 3.86575290521646131037e-01) (22, -7.95726325795617306369e-01) (23, -4.17907820762997428421e-02) (24, -1.22075093678685608900e+00) (25, 9.07196134022318495527e-02) (26, -1.13608159003274811205e+00) (27, 2.88563047084745449844e-01) (28, -1.87450015321409702018e+00) (29, -1.40578663249803437196e+00) (30, -7.34957526956727003054e-01) (31, -4.54036146402359008789e-03) (32, -1.09459364180897855690e+00) (33, -8.78412859232671983101e-01) (34, -2.18838645919406360463e+00) (35, 1.24092774023460252278e-03) (36, -4.44804879012321241483e-01) (37, 2.87131272395508885253e+00) (38, -4.43780721702024028019e+00) (39, -6.53579594389928492104e-02) (40, 7.10420278312658304287e-01) (41, 1.07267249387993568455e+00) (42, -4.46180244128573999518e+00) (43, -2.02097187671037153978e-01) (44, 9.41778833801374282153e-01) (45, 1.50547920740849350274e+00) (46, -4.80389560879731281062e+00) (47, -2.99132734506949549136e-01) (48, 7.21249714979114275870e-01) (49, -1.04952603803194238763e-01) (50, -2.36821964383852723302e+00) (51, -4.07729900155408164775e-01) (52, 8.18352745739570952566e-01) (53, 2.06712472941164371321e+00) (54, -3.06606782274376943320e+00) (55, -4.71166594607293431896e-01) (56, 1.48140201966157381008e+00) (57, 7.82762865006322305916e-01) (58, -2.24280123216991045254e+00) (59, -9.81396880860929021750e-01) (60, -1.70881386991717842960e+00) (0, -4.51788482095335841571e-01) (1, -5.96065335702677182028e-02) (2, -1.31129431002704244236e-01) (3, 7.55386932340110367479e-02) (4, -1.77291533532177081334e-01) (5, -7.79068888440759693692e-02) (6, -1.85753951707059189458e-01) (7, -6.01606542268296878850e-02) (8, -3.58898785322896596295e-01) (9, -7.81300426254487312416e-02) (10, 7.10057649199317131306e-02) (11, -5.81321786540540119681e-02) (12, -2.74177653883559968584e-01) (13, 1.59645687306605374434e-02) (14, -1.47673296975534718012e-01) (15, -6.74546991497189940556e-02) (16, -3.11684443548857041673e-02) (17, -1.41375128509387076869e-01) (18, -2.27017780931124957267e-01) (19, -4.49843897766432423979e-02) (20, 9.55102890270186910548e-02) (21, -3.46972425326816436009e-01) (22, -2.18771255525633534500e-01) (23, -1.37033267496462579649e-01) (24, -9.83677343938680198709e-02) (25, -6.90220134307721777667e-01) (26, -2.29076634777559878797e-01) (27, 3.89743755839064565105e-01) (28, 6.74597852188660973560e-01) (29, -1.06052139624114727390e+00) (30, -7.24617263643453357602e-01) (31, -8.30995365977287292480e-02) (32, 5.65985573758533352939e-02) (33, -7.81306652404787915778e-01) (34, -4.58317232080920011761e-01) (35, 3.29567376289060909311e-01) (36, -3.20863716911969909518e-01) (37, -9.59578635467810830972e-02) (38, -2.78368095268796855724e-01) (39, -8.01619102966722174575e-02) (40, -4.73899590384118662989e-01) (41, -1.87416986331005813726e-01) (42, -8.73211866481157783504e-02) (43, -1.06336603209945382287e-01) (44, -3.66452575611182940207e-01) (45, -3.80987962196415799743e-02) (46, 2.00533922590848436018e-02) (47, -4.29807706571613545865e-02) (48, -5.73709845121925590683e-02) (49, -2.45575405794534240567e-01) (50, -3.39997216376561744999e-02) (51, -1.29769338895995373084e-01) (52, -9.09477114499600142183e-02) (53, -4.73325744192535091681e-02) (54, -1.45242496654445218951e-01) (55, -1.21817782731541299213e-01) (56, -2.47154643275684260395e-01) (57, -1.82724632752290228055e-02) (58, -3.83749267954814121673e-01) (59, -3.80469666239627371529e-02) (60, -8.00110774024705762031e-01) (0, -4.80099172217089698034e-01) (1, -1.30745959194140864978e-01) (2, -6.06985540946034241028e-02) (3, 2.01486284583528296732e-02) (4, -2.91178547599909964827e-01) (5, -1.90767243356870619397e-01) (6, -7.13529339989588118343e-02) (7, -6.07086455463986263137e-02) (8, -3.57463229873863752584e-01) (9, -1.32740947437823414434e-01) (10, 4.06096443699591278659e-03) (11, -4.60955691542091691715e-02) (12, -2.84756406788545024522e-01) (13, -2.61245324694234365426e-02) (14, -1.27344176270334535905e-01) (15, 3.13698906036336544467e-02) (16, -3.63183510074965465453e-01) (17, -2.45889141236473734997e-01) (18, -1.05686494536705102854e-02) (19, 4.11533744166669157583e-02) (20, -3.84551238836377401453e-02) (21, -3.93491449586452046727e-01) (22, -1.59057659425170500045e-01) (23, -1.10077322755477560734e-01) (24, -5.42756272826830921119e-02) (25, -5.97451151162407101403e-01) (26, -3.11834137990829263209e-01) (27, 2.49636520121727850663e-01) (28, 3.44657516977515121503e-01) (29, -7.87625654014096010513e-01) (30, -6.20770206727758733223e-01) (31, 3.58479097485542297363e-02) (32, -1.65406702123499921298e-01) (33, -5.56583941947189630994e-01) (34, -4.78407710962436949487e-01) (35, 1.87139009820530333172e-01) (36, -3.25963638757010232272e-01) (37, 5.20485374661465091672e-02) (38, -4.10927036689810898373e-01) (39, -2.24492499927292747663e-02) (40, -3.50395542177185492783e-01) (41, -1.44254602369672663142e-01) (42, -3.01453447030238130822e-01) (43, 1.23241833382448547074e-02) (44, -3.30492346824987959231e-01) (45, -4.70658241645617106408e-02) (46, 1.50776473154735669857e-02) (47, -2.08369598127826849421e-01) (48, -2.93907597911757523246e-01) (49, -1.97514473093038850360e-01) (50, 2.09219209219298346580e-01) (51, -2.33928601812186193198e-01) (52, -3.00930954935364203262e-01) (53, -3.26376901374568706427e-01) (54, -1.51726763847129381135e-02) (55, -2.16680684676378521036e-01) (56, -1.37992451092166262816e-01) (57, -4.74982438948381990862e-02) (58, -1.43448945213213163719e-01) (59, -2.37524248016769939928e-01) (60, -6.66277586872770943849e-01) (0, 1.65323894752065037039e+00) (1, -4.33554637019771205164e-01) (2, -7.15823726558225348349e-01) (3, -1.41313715985109067397e+00) (4, -4.79889473687969636551e-01) (5, 1.88000972692414052012e-02) (6, -9.85378844093404260285e-01) (7, -3.59234279093494091040e-01) (8, 2.94808296264127467357e-01) (9, -5.77273214585406480026e-01) (10, 2.52225057177313694012e-01) (11, 3.72785887459050668813e-01) (12, -2.24179940135267707912e-01) (13, -6.77470333652953615733e-01) (14, 5.20394705823405523404e-01) (15, 1.29753836562855995318e-01) (16, 3.64337596134006569404e-01) (17, -2.58356143584649089462e-01) (18, -5.70885739486142185228e-01) (19, 2.88059070106645720433e-01) (20, 9.44797062619037730791e-02) (21, -1.43799318847549573164e+00) (22, 2.03331802224741586826e+00) (23, -3.14836451878702072715e-01) (24, 1.27153052626536844372e+00) (25, -3.03983124078515887234e+00) (26, 9.81165974912256544371e-01) (27, 8.96869956941870105638e-01) (28, 3.24440308118250042568e+00) (29, -2.03204149195649641513e+00) (30, -1.98066851559591872167e+00) (31, 9.28356498479843139648e-03) (32, 1.16927598605803151344e+00) (33, -2.88493233280488414749e+00) (34, 1.15669851185053865206e-01) (35, 1.25254776024786740329e+00) (36, 7.96755079402086452411e-01) (37, -1.85696076204793336650e+00) (38, 7.91014608682406694662e-01) (39, -5.85795985346468151000e-01) (40, 1.08611793328927253022e+00) (41, -4.45356799680905413030e-01) (42, -1.32506197169551609427e+00) (43, -3.50973003315247722433e-01) (44, 5.22166189708701655725e-01) (45, -5.41911265802017871884e-01) (46, -5.10097291489049253776e-01) (47, -1.72174651511229959144e-01) (48, -3.95093863767650155250e-01) (49, -5.18427326100044272295e-01) (50, 5.72399856512315063917e-01) (51, -1.05795157046674151435e-01) (52, 1.04210960197828661489e-01) (53, -4.66211317594801388786e-01) (54, -1.16000335703640855556e+00) (55, 5.21516575635104895348e-01) (56, -6.36453080739426191315e-01) (57, -2.00974091041702745963e-01) (58, -1.44223313571057798477e+00) (59, -8.10552721918761792663e-02) (60, -2.86248869092254398794e+00) (0, -3.34594627784969567141e-01) (1, -1.11724548482177654662e+00) (2, -3.29429946156849173811e-01) (3, -1.81575324210273919556e-01) (4, -3.22415598390641822135e-01) (5, -8.40899754458513504218e-01) (6, -5.22930521009220661277e-01) (7, -1.60371260487509048609e-01) (8, -7.85746027963495130564e-01) (9, -4.65904622872979068404e-01) (10, -1.28092231853818627751e-01) (11, -1.62402960992445527522e-01) (12, -9.85528914345307760492e-01) (13, -1.37287797436320302413e-01) (14, 5.39682668569188561669e-01) (15, 2.53327902243683011907e-01) (16, -3.91147632682597168330e-01) (17, 4.71159617680346476387e-01) (18, 3.68098153702481667437e-01) (19, -1.17694334483513407541e-01) (20, -1.16441002984783270602e-01) (21, 8.54715369252452394910e-01) (22, 5.70332959091954028175e-01) (23, -4.24079396814920850378e-01) (24, -9.91622281908536074013e-01) (25, 2.13610075467710963659e-01) (26, 7.95450515643775890595e-01) (27, -3.38716620706314086586e-01) (28, -2.96524802453750746523e+00) (29, 1.01982208401588003710e+00) (30, 1.44625764719887772713e+00) (31, 9.30697694420814514160e-02) (32, -1.22275129525385373164e+00) (33, 4.75832078729311602761e-01) (34, 1.29999325973981516569e+00) (35, -4.15643632748577629421e-01) (36, 6.98501602647215308339e-02) (37, -4.90884320512273986115e-02) (38, 8.12208079023456042123e-01) (39, -3.13949160338773403112e-01) (40, -2.83268915548393784842e-01) (41, 6.67316685902901607363e-01) (42, 4.26878161027951508188e-01) (43, -3.25652176975226137490e-01) (44, -4.23454981609803660092e-01) (45, 8.42812826811735610333e-02) (46, 3.11721243589153096387e-01) (47, -7.64818883527287191049e-02) (48, -1.78530238532597862466e-01) (49, -7.36741661336931197290e-01) (50, -3.57833458794319714258e-01) (51, -3.41541173454395496911e-02) (52, -5.95308879806413671076e-01) (53, -3.08207250857999714988e-01) (54, -4.41855153101715802944e-01) (55, 3.21494191225111136667e-01) (56, -6.06477820360365349472e-01) (57, -9.35113321952922404989e-01) (58, -2.80018207572971633557e-01) (59, 1.83097167263289672956e-01) (60, -1.53311894298897377631e+00) (0, -4.81797389870214365359e-01) (1, -8.74494321802974705626e-01) (2, 2.54541205804774239851e-01) (3, 4.39242372984803841618e-01) (4, -8.62586851018037475969e-02) (5, -5.34465877281066648052e-01) (6, 4.36473857459393987934e-01) (7, -1.89683000832656628587e-01) (8, -4.09695381328770757978e-01) (9, 6.19621138713371683027e-02) (10, -7.63774012549643055436e-01) (11, -3.38869315274525795267e-01) (12, -7.31381439921413578631e-01) (13, 9.36141226545084553790e-02) (14, 1.76370029211704026917e-01) (15, -9.18619663304390043912e-01) (16, -1.17175947347867759341e+00) (17, 4.40237719383977155196e-01) (18, 4.44363558479759002129e-01) (19, -5.57915909037075996579e-01) (20, 7.81951604812207823336e-01) (21, -8.99241724462188085631e-01) (22, -1.47980338515696341339e+00) (23, 1.70100853864643880575e-01) (24, 1.02175434468007564348e+00) (25, -1.83320262819578227997e+00) (26, -4.11718110554128102763e-01) (27, 1.19357727015661690961e-01) (28, -1.65787549280937834828e-01) (29, -2.47723971731893222170e+00) (30, 2.43182815596957579984e+00) (31, 1.96978673338890075684e-02) (32, 5.63684644669485535040e-01) (33, -2.65160964356177686341e+00) (34, 1.15427198375118633678e+00) (35, -3.28655201948021419289e-02) (36, -8.18228728589536769000e-02) (37, -1.40370964209642878906e+00) (38, -1.51307800773536005323e-01) (39, -5.29681418091801428649e-02) (40, 1.91851444334584536611e-01) (41, -7.73790903088208525951e-01) (42, -2.73511659423870179264e-01) (43, -1.61233371820283216680e-01) (44, 2.68184559626583773895e-01) (45, -1.33102194556004166381e-01) (46, -4.40807723808637585972e-01) (47, -4.55592976921350423236e-01) (48, 1.98812617065353858248e-01) (49, 4.97977105178262602347e-01) (50, -8.13973088322276105977e-01) (51, -6.81867014237780288965e-01) (52, 4.30555761218708421545e-01) (53, 6.55141968619943781960e-01) (54, -1.11581001153274095294e+00) (55, -7.94684540850253973154e-01) (56, -1.60651132398633988974e-01) (57, -3.52794802969267684567e-01) (58, -2.62893002582708715242e-02) (59, -9.47901104417870898899e-01) (60, -1.49493034132619850851e+00) (0, -5.17923436662655722884e-01) (1, -6.58798908415592215926e-02) (2, 2.80199237143547885687e-01) (3, -1.66681528515415677827e-01) (4, -5.66603275712671883291e-01) (5, -6.54805548525225100676e-01) (6, 2.75451636503845388726e-02) (7, 7.27509892908542732393e-01) (8, -1.53154285151548136268e-01) (9, -5.42343419975806151356e-01) (10, -4.68881162137453899597e-01) (11, 3.76053182638293959084e-01) (12, -6.78342917357568131465e-01) (13, 1.24451881479327799984e-01) (14, -9.62651904255463541915e-01) (15, 3.23617597221674657693e-01) (16, -6.94185247625332513266e-01) (17, -5.72303346940309237700e-02) (18, -9.32843334961109271752e-01) (19, 1.53985479337506531161e-01) (20, -1.03662289336424762176e+00) (21, 2.67909191907067523175e-01) (22, -1.35527048554890461318e+00) (23, -3.37081128562265949777e-02) (24, -4.09866086050958244869e+00) (25, 2.11627309833107402071e+00) (26, 2.97129162176932193340e-01) (27, -5.01343495184766799189e-02) (28, -4.41094412663552226661e+00) (29, 2.33301537973850292573e+00) (30, 1.22351362052742618225e+00) (31, -6.16163536906242370605e-02) (32, -3.54524846326907905336e+00) (33, 1.82129297331698336571e+00) (34, 1.08711397290412192795e+00) (35, -2.77518267919856856385e-02) (36, -3.16680546000239981907e+00) (37, 1.46402089390076972641e+00) (38, -2.33684904180260707984e-02) (39, -6.81202152883031986086e-02) (40, -1.87339700491051930342e+00) (41, 4.52439592766484988129e-01) (42, -9.17934742424588945298e-01) (43, -9.40748949750029594963e-02) (44, -9.48359307091994563343e-01) (45, -8.86704402903120580959e-01) (46, -1.79706613507323686996e+00) (47, 5.72783753901269787612e-02) (48, -2.55333506365288676054e-01) (49, -1.15926411085738512163e+00) (50, -1.49076276648849082029e+00) (51, -3.06035191277827467449e-01) (52, 1.55125671085541122496e-01) (53, -7.72273339605175968003e-01) (54, -8.24862951937133659364e-01) (55, -1.08630979424007101386e+00) (56, 2.93756950197724742146e-01) (57, -4.51520758328449345331e-01) (58, -1.84919225948306897855e+00) (59, -1.35736704067763591652e+00) (60, -2.57494054724299381576e+00) (0, -7.50164458610253159776e-01) (1, 4.52218515071087720503e-02) (2, -4.48708297112792142691e-01) (3, -6.61278058148041525399e-01) (4, -7.79420312531779790888e-01) (5, 5.43566785336420110752e-02) (6, -7.24405590989116582312e-02) (7, -3.35119966071142083575e-01) (8, -8.51748327895098578111e-01) (9, 4.20559039336821094412e-01) (10, -3.50212543918819174671e-01) (11, -1.86915766710703118436e-01) (12, 2.67439901520109511723e-02) (13, -2.50185435245012022243e-01) (14, -5.79687410043645878766e-01) (15, 2.43847584857339622078e-01) (16, 5.73084078017522591253e-01) (17, -2.89490064724885143299e-01) (18, 3.08353627537502443523e-03) (19, -5.30917510164432837616e-02) (20, -3.55311556489203594911e-01) (21, 1.06730269376932240810e+00) (22, 3.49901934466346931085e-01) (23, -2.90072850345267474470e-01) (24, -1.09971583143321871567e+00) (25, -3.14393190896578855753e-02) (26, 7.30716196742757007065e-01) (27, -1.51416111613638160183e-01) (28, -3.48992224610370405102e+00) (29, 2.61610685759776750992e-01) (30, 1.83861941965752850869e+00) (31, -7.55137428641319274902e-02) (32, -9.41449357381117013510e-01) (33, -3.76985940950705089580e-01) (34, 9.15166628440240326192e-01) (35, -3.93866923622031739338e-01) (36, 2.69174016057917409039e-01) (37, 9.54427732096883169044e-03) (38, -2.09331182953296029980e-01) (39, -2.15162459424656338225e-01) (40, -6.41987891759546180914e-01) (41, 7.63232760338960702917e-01) (42, 3.21570170223226370343e-01) (43, -4.44818309692716837289e-02) (44, -1.10056636112718986276e+00) (45, 4.23553204698207175216e-01) (46, 2.77981999240085320135e-01) (47, -1.45150395686192895672e-01) (48, -3.73868174769072636465e-01) (49, 1.36259158150535519827e-01) (50, -2.82879815617056940003e-01) (51, -2.73280768551551755952e-01) (52, -1.24851433871783501495e+00) (53, 2.58302362025499943066e-01) (54, -5.72926375429495676750e-02) (55, -3.39506372022519264942e-01) (56, -1.97501869390330292431e-01) (57, -7.42555434013238424562e-01) (58, 5.97086902841727357183e-02) (59, -6.44211764601405945108e-01) (60, -1.63277243724894982613e+00) (0, -3.51269831682212041457e-01) (1, -3.04290429164062625755e-01) (2, -4.16646373987115792303e-01) (3, 2.17214475787291527720e-01) (4, -4.10626889993146837465e-01) (5, -2.99808657945617895724e-01) (6, -2.79167566614090367771e-01) (7, -2.54686024140805336580e-02) (8, -4.25747720573891708096e-01) (9, -1.86032256538407186897e-01) (10, -3.50952277279261842802e-02) (11, -3.09560193006521433556e-01) (12, -4.27196711591574740385e-01) (13, -8.54414965881398758007e-02) (14, -2.47516959976981809621e-01) (15, -1.80556525304995857395e-01) (16, -3.30698560912474237572e-01) (17, 1.05976136637073808933e-01) (18, -1.77345178463529873358e-01) (19, -2.19286142733830402562e-01) (20, -3.65538151097478503093e-01) (21, 2.10707225119256581769e-02) (22, -2.13456110503328522210e-01) (23, -1.12435850913274570928e-01) (24, -3.89192725734691824524e-01) (25, -2.49226103574025609211e-01) (26, -8.29346186657727857394e-02) (27, -1.30354121356675373145e-01) (28, -1.34052133677694002012e-01) (29, -6.82710666467047921913e-01) (30, -5.68812530752580564064e-02) (31, 7.59169086813926696777e-02) (32, 1.48431478872031539368e-02) (33, -2.40907340429451694019e-01) (34, -4.45180705162812939690e-01) (35, -4.87743309857142232078e-02) (36, 1.04732194926565214121e-01) (37, -9.67205624385606838045e-02) (38, -4.04767440641040088245e-01) (39, -1.00526110227781573236e-02) (40, -1.78301268713262794918e-01) (41, -1.39629040110807123298e-01) (42, -2.24192328431689735790e-01) (43, 4.94045296183109969995e-03) (44, -2.62645910456612952100e-01) (45, -2.20482622943727807341e-01) (46, -4.31786009267843551296e-02) (47, -2.01116205206566867059e-01) (48, -4.98318236215819443391e-01) (49, -3.88269315565114681021e-01) (50, 1.43359119452232841585e-01) (51, -1.63955440518400885619e-01) (52, -4.81502310293206503555e-01) (53, -4.08073642378563028466e-01) (54, 2.50604988381380289209e-01) (55, -2.17777958152070350017e-01) (56, -5.35819014240970448171e-01) (57, -4.94691458502294512112e-01) (58, 2.67301692246233513206e-01) (59, -2.36918539150407891913e-01) (60, -5.22428311627371910753e-01) (0, -1.41605711955473612118e-01) (1, -1.78522514923918212970e-01) (2, 1.02097789358862198195e-01) (3, -1.42233589279805783256e+00) (4, 7.15345721607067441816e-01) (5, 3.68562502031486882714e-01) (6, -1.10782467007201512743e+00) (7, -1.03511643918514506524e+00) (8, -5.79301513909593474017e-02) (9, 2.83625987241284627238e-01) (10, -4.66805879624735617361e-02) (11, -6.70938600569286891506e-01) (12, 1.43335872086539278802e-01) (13, 2.71009630157223846414e-01) (14, -3.66727341418373320447e-01) (15, -3.78154446672004429519e-01) (16, 9.68745861291400056636e-01) (17, -3.76564574662609286015e-01) (18, -7.29225000844950121959e-01) (19, -1.44425446615659647254e-01) (20, -5.20288167108234889113e-01) (21, 3.32826361192786079890e-01) (22, -6.01674217002112876607e-01) (23, -4.66595705414124053978e-02) (24, 2.56063149743825657634e-01) (25, 2.39438368404108148368e+00) (26, -1.86358844884423646704e+00) (27, -1.13633509966814885694e-01) (28, -2.05634173126978486712e-01) (29, 1.84813469887131609504e+00) (30, -1.15245012661164869527e+00) (31, 2.03903689980506896973e-02) (32, -1.01898687505962515232e+00) (33, -1.34342236611135035229e-01) (34, -6.59891812986954207076e-01) (35, 4.97614073329654821309e-02) (36, 5.50808545032265950425e-01) (37, -2.63452986976921232909e+00) (38, -2.61888473545445921165e-01) (39, -1.85524305601725725268e-01) (40, 1.42753804211095070009e+00) (41, -4.36606034007203636094e+00) (42, 2.42482860098513525182e-01) (43, -7.98077878621778924462e-01) (44, 4.78216022855541156300e-01) (45, -3.89556268862333876513e+00) (46, 2.33921905119594375488e-01) (47, -1.74365833637383449428e-01) (48, 1.23905195642869281336e+00) (49, -3.02239717905650406848e+00) (50, -5.21242108335135179153e-01) (51, -8.55698786901845642738e-01) (52, 1.22566695196945338320e-01) (53, -2.10731512921304275920e+00) (54, 5.18917639477444736507e-01) (55, -6.23900981884848326864e-01) (56, -3.50494380103794467285e-01) (57, -1.19561002051393550083e+00) (58, 2.79976162482018231525e-01) (59, -4.49740040279941244439e-01) (60, -2.22777563137757095291e+00) (0, -7.00170477110605760096e-01) (1, 1.26328309995414311828e+00) (2, -1.73285217325210044725e-01) (3, -1.00067794545694321862e+00) (4, -3.95716538217310676018e-01) (5, -1.56607693826244231960e-01) (6, -2.26684375316554970192e-02) (7, -3.27418682869777877276e-01) (8, -9.00025172480630741845e-01) (9, 5.26423195390624210077e-01) (10, 1.48691474532091055805e-01) (11, -1.13744903486676693372e-01) (12, -3.97028436433963738406e-01) (13, -1.16215816645298852805e+00) (14, 9.04582044027419818200e-01) (15, 1.47293501893835471206e-01) (16, 7.24846443525957284670e-01) (17, -2.18185357569929472277e+00) (18, 7.17487582911327859136e-01) (19, 9.26790079150794920970e-02) (20, 1.29167023805035463546e+00) (21, -2.58546559651819762848e+00) (22, 1.52146337246353424710e+00) (23, -2.35345684643513408663e-01) (24, -3.44414085199365449519e-01) (25, -1.80438636660794876621e-01) (26, 5.09210961036117071288e-01) (27, 3.01508491589448590631e-01) (28, 5.36813105980332938572e-01) (29, 7.26346584120130311923e-01) (30, -2.46336241880281470173e+00) (31, -2.58378610014915466309e-02) (32, -9.33114447331311658296e-01) (33, 6.23724464461704264373e-01) (34, -1.26683070041461798283e+00) (35, 6.24006337053036430618e-01) (36, -5.96453165527157658232e-01) (37, -1.26299264565452329379e+00) (38, 1.74969709691064401191e-01) (39, -3.64791841104246672423e-01) (40, 3.38819364752335872026e-01) (41, -1.64934125610920778726e+00) (42, -1.69638605117542418110e-01) (43, 5.88543378246079509908e-02) (44, 5.18283949455039860688e-01) (45, -4.60522097420618226060e-01) (46, -8.49906478625350403355e-01) (47, 2.94663246273989598567e-01) (48, -5.62713182473308370923e-01) (49, 1.02962005252434360414e-01) (50, -3.38006001853144610880e-01) (51, 9.96884344362065494272e-02) (52, -2.13316208220252573335e-01) (53, -5.01961034390582261366e-01) (54, 2.19459219355134765861e-01) (55, 7.79677412212177733952e-02) (56, -1.21275614446734084084e-01) (57, -6.33083126321368760969e-01) (58, 2.51236340509845113012e-01) (59, -3.00814238436445113845e-01) (60, -1.80202129481570683112e+00) (0, -3.66836582804783595257e-01) (1, -2.50659297813434989166e-01) (2, -8.65916360130122575445e-02) (3, 4.54826225440066109207e-02) (4, -3.04694515885005956513e-01) (5, -2.66709645145413842826e-01) (6, 3.55791464114192379498e-02) (7, -3.56558480713689146535e-02) (8, -3.60756164982978688727e-01) (9, -1.72658933334216058153e-01) (10, -5.27524756514665127405e-02) (11, -1.20108426640768858884e-01) (12, -3.82744599666232476753e-01) (13, -1.43251717928989923817e-02) (14, -1.25712751498801039718e-01) (15, -1.55127225424994241720e-01) (16, -3.18318636185671799410e-01) (17, -6.85329209091298657830e-02) (18, -1.25942276321987484122e-01) (19, -9.25704465165414769334e-02) (20, -2.21521642477085750622e-01) (21, -2.51933010562226278317e-01) (22, -1.97766128400442608992e-01) (23, -1.22257413972902753696e-02) (24, -4.98399568015044022729e-02) (25, -4.58676776288116039293e-01) (26, -2.22647883583968614341e-01) (27, 3.56453166740087062925e-02) (28, 7.20840939052534157572e-02) (29, -6.89882717904967246447e-01) (30, -2.97180547171311260080e-01) (31, -3.87807004153728485107e-02) (32, -1.63362661696171362902e-01) (33, -2.37191315197101459944e-01) (34, -3.65611915191121128466e-01) (35, 2.57007038351279928912e-02) (36, -3.61840380065225952766e-01) (37, -2.27972523871663446116e-01) (38, -2.04053284203664808683e-01) (39, -7.96764452550963314659e-02) (40, -2.56548688338544550458e-01) (41, -2.75462863577393413106e-01) (42, -3.52643302022007040786e-02) (43, -1.70553976639512411273e-02) (44, -1.83918123216515572160e-01) (45, -2.27077718445605786224e-01) (46, -1.30074433031333897004e-01) (47, -2.40362430602443083449e-01) (48, -4.15055749165868959061e-01) (49, -2.17102949796816935280e-01) (50, 1.02345791117930171032e-01) (51, -2.81649101526993905775e-01) (52, -2.86487917534250957630e-01) (53, -2.22902661209052138647e-01) (54, 5.67195596052862405223e-02) (55, -1.35390667872716363718e-01) (56, -2.92314581449578669847e-01) (57, -3.55722268928798379672e-01) (58, -5.76891106631886377287e-02) (59, -1.36732277844943989065e-01) (60, -6.35556025303761651379e-01) (0, -4.67328349123127262388e-01) (1, 7.39980873039572051297e-01) (2, -7.31664658625557629001e-01) (3, -1.03601038112386689694e-01) (4, -2.86978884037466186463e-01) (5, 5.18045780223198026881e-01) (6, -4.61772526762733170891e-01) (7, -2.10129235386195961643e-01) (8, -7.63133797300890925897e-01) (9, 2.85937611988694828646e-01) (10, 2.30072039722111737481e-01) (11, -7.42582696999279229244e-02) (12, 1.63734772869779041105e-02) (13, 1.55101792954054962248e-01) (14, 7.81087207727816090763e-02) (15, -1.35276865989761935216e-01) (16, 1.87576863760939821502e-01) (17, -3.31627069035923649487e-01) (18, -1.87075340418002361575e-01) (19, -9.49776281851949372159e-02) (20, -3.63912013372176268433e-02) (21, -6.36589334511351689905e-01) (22, 4.19242166953973371957e-01) (23, 5.27574357434979629433e-03) (24, -2.20793513407108427105e-01) (25, -1.33128299404132621753e+00) (26, 4.77960969295795012890e-01) (27, 4.59983485259775115583e-01) (28, 1.34662243259229774672e+00) (29, -2.86552409439891997422e+00) (30, 1.42353731417724810315e-01) (31, 5.27593418955802917480e-02) (32, -4.32496867784518068678e-01) (33, -1.16663217128553564628e+00) (34, 2.04716946326901544362e-01) (35, 3.92353500414817701891e-01) (36, -7.33528585602311156144e-01) (37, 6.61706644880536432041e-02) (38, 5.70051202072678120381e-01) (39, -1.33808443805691679174e-01) (40, -7.80551316498422576018e-01) (41, 2.88494069296360289290e-01) (42, 2.44770383323358597938e-01) (43, -2.51209974166636706983e-01) (44, -2.90979687245224882819e-01) (45, 1.28719907407236822117e-01) (46, -4.66580341342255275339e-02) (47, -3.78163764318481587789e-01) (48, 3.86407903554984499817e-01) (49, 1.91972174882505508542e-01) (50, -3.84286563380895840325e-01) (51, -4.89870568066526512752e-01) (52, -8.39468048909456643347e-02) (53, -1.32274781842913580210e-01) (54, -8.61612660124497775627e-02) (55, -2.12525173001079870083e-01) (56, 6.76579839725576122345e-03) (57, -4.65524495411786476406e-01) (58, -2.48080410059558054137e-01) (59, -1.67835455235026659304e-01) (60, -1.30358684942304603460e+00) (0, -8.93895446539175297929e-01) (1, -2.45126714650172244925e-01) (2, 2.40248221766646813391e-01) (3, -6.88288912406169628433e-01) (4, -2.12910894040030038155e-02) (5, -5.02214077324147134540e-01) (6, -1.14940958024072253929e-01) (7, -3.01679205277251949457e-01) (8, 5.27927991107460692355e-01) (9, -4.69435026820875178633e-01) (10, -2.81066773483862886174e-02) (11, -2.39031371947356408025e-01) (12, -2.73151984551678161939e-01) (13, -3.26671344048055256604e-01) (14, -4.88271147287687390381e-01) (15, 7.00025820929645825608e-01) (16, 8.68312453076797718943e-01) (17, -1.48565507665967613815e-02) (18, 2.91258525386521194278e-01) (19, -2.26592089176808647588e-01) (20, -2.56140142391633796048e-01) (21, 2.86449044551139220260e+00) (22, 1.02217107312580712808e-01) (23, -4.18122557319663856745e-01) (24, -1.96398042578004172753e+00) (25, 1.73602538943502837654e+00) (26, 8.59197374627333143593e-01) (27, -3.66956813945243875974e-01) (28, -4.30934770735212069326e+00) (29, 2.30638135186971915402e+00) (30, 1.90163356221361024012e+00) (31, -3.45845744013786315918e-02) (32, -1.50240951896820318368e+00) (33, 2.05281952831827763095e-01) (34, 1.93523053034502612313e+00) (35, -2.15949012304450682631e-01) (36, 1.68563207756755956135e-01) (37, 4.74591168508040506246e-01) (38, 6.57724014046387583932e-01) (39, -2.36754736622600103768e-01) (40, -1.84575481994475348868e-01) (41, 1.48595822151763656827e+00) (42, 7.38896362068405032630e-01) (43, -2.13675460584690835031e-01) (44, -2.27700220897821242749e-01) (45, 6.32892562269717795509e-01) (46, 5.20380763594617157253e-01) (47, -5.16269732584068830050e-01) (48, 1.39534762314629190438e-01) (49, 3.74875641189353514537e-01) (50, 2.84032191172233272614e-01) (51, -8.02885138614116589117e-01) (52, 2.52054064355373731721e-02) (53, -9.04623864763925977783e-02) (54, -8.30776331792967503986e-01) (55, -2.58177178553286701401e-01) (56, -6.98326682332972015210e-01) (57, -5.55125997103963264578e-01) (58, -6.19822189440051740661e-01) (59, 3.76502137026009306431e-02) (60, -2.49539782657087050310e+00) (0, -9.00276718517974194889e-01) (1, -3.95849512055099606034e-01) (2, -1.21342656846675486793e-01) (3, -3.68028681610686747572e-01) (4, -7.05641834877113294233e-01) (5, -3.16116071272802390268e-01) (6, -5.30124753048537900035e-01) (7, -8.23327194868236494907e-02) (8, -1.15140248331637717882e+00) (9, -2.77950426294545693828e-01) (10, -7.50237310857674033482e-02) (11, 2.53530098328546248110e-02) (12, 2.27165349302566287049e-02) (13, -8.31344204608742698426e-01) (14, -1.61119603204127992413e-01) (15, 3.42590933273844877593e-01) (16, 5.75192504875149834831e-01) (17, -4.64197845798376751425e-01) (18, -1.64223403648786459019e-01) (19, -2.17344373434468662865e-01) (20, -3.74187619667192328254e-01) (21, 3.05993240312684655624e-01) (22, 1.06029480623151473040e+00) (23, -4.48900926150373802415e-01) (24, -1.84648787612486264820e+00) (25, 8.18962353646772944771e-01) (26, 1.38131196280803458798e+00) (27, -2.03015037498995881693e-01) (28, -3.60840100291914867014e+00) (29, 1.39708981896750517038e+00) (30, 1.50782635890419847158e+00) (31, -7.75350034236907958984e-02) (32, -1.39392025007702691219e+00) (33, 8.12888613725095243723e-01) (34, 6.29080884713344223869e-01) (35, -3.72975171839160957177e-01) (36, 3.61305583440327648947e-01) (37, -4.05394133255427668860e-01) (38, 2.73980313131426955753e-01) (39, -1.91625310125223158320e-01) (40, -3.74576438656983146114e-01) (41, 1.95021261502455078851e-01) (42, 1.10701726834548042078e+00) (43, -3.70801696193112650946e-01) (44, -7.76552661540369504323e-01) (45, 5.22817227130827899551e-01) (46, 4.78884118058147567609e-01) (47, -1.74814354909208657940e-01) (48, -2.14719889797164192879e-01) (49, -1.84428127273216058146e-01) (50, -1.39406228343361443534e-01) (51, -3.88076049958240576476e-01) (52, -7.43350667878851956161e-01) (53, -3.04995825268687126286e-01) (54, 8.96012179594312674347e-02) (55, -2.89318089673160860897e-01) (56, 3.75668870192312820411e-01) (57, -3.50320957243254960112e-01) (58, -1.07676561152822203304e+00) (59, -8.31097290758991746884e-01) (60, -1.74095304291859509505e+00) (0, -5.92600467437803923865e-01) (1, 8.70997671403996864825e-02) (2, -5.71571690237800744683e-01) (3, 7.03214948688844376790e-01) (4, -3.20136271702355035274e-01) (5, -2.73799223907153665980e-01) (6, -2.35565560030456311313e-01) (7, 5.54421781645340616684e-01) (8, -4.30550457005490216922e-01) (9, -3.22865030332000202407e-01) (10, 2.43176575596785293776e-01) (11, 4.17899718265056230315e-01) (12, 1.75255362328041675024e-01) (13, -3.74843820875993605224e-01) (14, -1.12253921905508202705e-01) (15, 1.14705293027085611368e-01) (16, 3.15279888900868776602e-01) (17, -6.53407609149163182138e-01) (18, -2.15537480618545412847e-01) (19, -1.65874262203154626549e-01) (20, 6.41435152180548473488e-01) (21, -5.79591908842674419233e-01) (22, -1.75979799268463993345e-01) (23, -5.04311592854746693071e-01) (24, -2.11715597310731001857e-01) (25, -1.91761628340165191098e-01) (26, -8.52281139772368745433e-01) (27, 3.65855812362332721843e-01) (28, 6.07508708980577738501e-01) (29, -1.06865427548323552176e-01) (30, -1.63716923204508280065e+00) (31, 6.64876326918601989746e-02) (32, 3.86619811513136735215e-01) (33, -7.98493140132071177462e-01) (34, -6.23387847645394121976e-01) (35, 3.59786257822620247904e-01) (36, -2.45210870890334407812e-02) (37, -5.51447655552012139246e-01) (38, -3.17151173024710575366e-01) (39, -1.71595009104431484026e-01) (40, -6.98660491443731102024e-01) (41, -1.47412155959366714120e-01) (42, 1.83162063809681835425e-01) (43, 1.31887871798641292259e-02) (44, -6.50853240566244162224e-01) (45, 8.37296406649077756823e-02) (46, 4.79651666616562610823e-01) (47, 1.64830213739088293767e-01) (48, -1.37394659345544567497e-01) (49, -9.57406031928272199805e-02) (50, -3.31071499142250702530e-01) (51, 2.61046917513077736395e-01) (52, 5.01108917453795196795e-02) (53, -2.09153543560370962229e-02) (54, -3.74547925440364415373e-01) (55, 3.06375824072140090504e-01) (56, -2.60894704243586961212e-01) (57, 6.41664222464611522234e-01) (58, -5.61256892649523497774e-01) (59, 1.89594337373006488479e-02) (60, -1.02401956602833821286e+00) (0, -1.91724942956327332189e-01) (1, -1.27765507535836431163e-01) (2, 3.15003906156761992463e-01) (3, -1.47472607901441232769e+00) (4, -8.24710533081461777405e-02) (5, 3.78477164087858142238e-01) (6, -8.22797321518626723069e-01) (7, -7.64310725209508046163e-01) (8, -6.51548183284857973518e-01) (9, -9.81495614803333804588e-02) (10, -1.15153760676524330453e-01) (11, -1.37050825872509413061e-01) (12, -4.15532650312687934502e-01) (13, 3.49339697448557862103e-01) (14, -1.58692035001635978197e+00) (15, 9.11906177199835049629e-02) (16, -7.84405037431625262734e-01) (17, -1.38615904680952617412e+00) (18, 5.52387550104275759644e-01) (19, 5.87050054127350229294e-01) (20, 8.29051480600095258566e-01) (21, -3.16177935265974419110e+00) (22, 2.36297826106838559923e+00) (23, 3.15918705124630438963e-01) (24, 3.96896829284589491849e+00) (25, -5.40138392396139366269e+00) (26, 1.63898595990785111987e+00) (27, -8.95001476970068432504e-03) (28, -2.04799966552640944073e+00) (29, 1.50487608158017094340e+00) (30, -1.02006650380455665683e+00) (31, -6.49647116661071777344e-02) (32, 8.47598260785894397351e-01) (33, 1.02418015924615435353e+00) (34, -2.53147861770499327250e+00) (35, 5.59950296754737897320e-02) (36, -2.18644611299042601615e+00) (37, 1.25210927885484690769e+00) (38, -1.36768723994946522771e-01) (39, -5.11600759016426986925e-01) (40, -6.68091415509125124972e-02) (41, -5.00665114461972149407e-01) (42, 1.69693497496350903520e-01) (43, -5.26365165754388297792e-01) (44, 5.26947578760322943303e-01) (45, -3.24682537289628203592e-01) (46, -4.74379519398013038689e-01) (47, -2.54886353158664369367e-01) (48, -4.04941531457472803091e-01) (49, -1.87006887459571446986e-01) (50, 2.22709167297221698190e-02) (51, 1.93061170951096990056e-02) (52, 1.18149491323645619567e-01) (53, -2.48446605826376759607e-01) (54, -1.21652600782995357065e+00) (55, -2.62010266429122340437e-01) (56, -3.07598734046221566896e-01) (57, -4.35236109903066992199e-01) (58, 1.99740913959205124151e-01) (59, -6.00497479359344277228e-01) (60, -2.77058347719458275549e+00) (0, -1.93326020511394962298e-02) (1, -6.77680585922287442857e-02) (2, 5.18918305450506323062e-01) (3, -3.22480298178302815515e-01) (4, -1.78108631806665751451e-01) (5, 1.10509229504939399114e+00) (6, 6.25640530291441621102e-01) (7, 5.51903164423217171275e-02) (8, 