FANN_FLO_2.1
num_layers=3
learning_rate=0.005000
connection_rate=1.000000
network_type=0
learning_momentum=0.900000
training_algorithm=0
train_error_function=1
train_stop_function=0
cascade_output_change_fraction=0.010000
quickprop_decay=-0.000100
quickprop_mu=1.750000
rprop_increase_factor=1.200000
rprop_decrease_factor=0.500000
rprop_delta_min=0.000000
rprop_delta_max=50.000000
rprop_delta_zero=0.100000
cascade_output_stagnation_epochs=12
cascade_candidate_change_fraction=0.010000
cascade_candidate_stagnation_epochs=12
cascade_max_out_epochs=150
cascade_max_cand_epochs=150
cascade_num_candidate_groups=2
bit_fail_limit=3.49999999999999977796e-01
cascade_candidate_limit=1.00000000000000000000e+03
cascade_weight_multiplier=4.00000000000000022204e-01
cascade_activation_functions_count=10
cascade_activation_functions=3 5 7 8 10 11 14 15 16 17 
cascade_activation_steepnesses_count=4
cascade_activation_steepnesses=2.50000000000000000000e-01 5.00000000000000000000e-01 7.50000000000000000000e-01 1.00000000000000000000e+00 
layer_sizes=316 76 4 
scale_included=0
neurons (num_inputs, activation_function, activation_steepness)=(0, 0, 0.00000000000000000000e+00) (0, 0, 0.00000000000000000000e+00) (0, 0, 0.00000000000000000000e+00) (0, 0, 0.00000000000000000000e+00) (0, 0, 0.00000000000000000000e+00) (0, 0, 0.00000000000000000000e+00) (0, 0, 0.00000000000000000000e+00) (0, 0, 0.00000000000000000000e+00) (0, 0, 0.00000000000000000000e+00) (0, 0, 0.00000000000000000000e+00) (0, 0, 0.00000000000000000000e+00) (0, 0, 0.00000000000000000000e+00) (0, 0, 0.00000000000000000000e+00) (0, 0, 0.00000000000000000000e+00) (0, 0, 0.00000000000000000000e+00) (0, 0, 0.00000000000000000000e+00) (0, 0, 0.00000000000000000000e+00) (0, 0, 0.00000000000000000000e+00) (0, 0, 0.00000000000000000000e+00) (0, 0, 0.00000000000000000000e+00) (0, 0, 0.00000000000000000000e+00) (0, 0, 0.00000000000000000000e+00) (0, 0, 0.00000000000000000000e+00) (0, 0, 0.00000000000000000000e+00) (0, 0, 0.00000000000000000000e+00) (0, 0, 0.00000000000000000000e+00) (0, 0, 0.00000000000000000000e+00) (0, 0, 0.00000000000000000000e+00) (0, 0, 0.00000000000000000000e+00) (0, 0, 0.00000000000000000000e+00) (0, 0, 0.00000000000000000000e+00) (0, 0, 0.00000000000000000000e+00) (0, 0, 0.00000000000000000000e+00) (0, 0, 0.00000000000000000000e+00) (0, 0, 0.00000000000000000000e+00) (0, 0, 0.00000000000000000000e+00) (0, 0, 0.00000000000000000000e+00) (0, 0, 0.00000000000000000000e+00) (0, 0, 0.00000000000000000000e+00) (0, 0, 0.00000000000000000000e+00) (0, 0, 0.00000000000000000000e+00) (0, 0, 0.00000000000000000000e+00) (0, 0, 0.00000000000000000000e+00) (0, 0, 0.00000000000000000000e+00) (0, 0, 0.00000000000000000000e+00) (0, 0, 0.00000000000000000000e+00) (0, 0, 0.00000000000000000000e+00) (0, 0, 0.00000000000000000000e+00) (0, 0, 0.00000000000000000000e+00) (0, 0, 0.00000000000000000000e+00) (0, 0, 0.00000000000000000000e+00) (0, 0, 0.00000000000000000000e+00) (0, 0, 0.00000000000000000000e+00) (0, 0, 0.00000000000000000000e+00) (0, 0, 0.00000000000000000000e+00) (0, 0, 0.00000000000000000000e+00) (0, 0, 0.00000000000000000000e+00) (0, 0, 0.00000000000000000000e+00) (0, 0, 0.00000000000000000000e+00) (0, 0, 0.00000000000000000000e+00) (0, 0, 0.00000000000000000000e+00) (0, 0, 0.00000000000000000000e+00) (0, 0, 0.00000000000000000000e+00) (0, 0, 0.00000000000000000000e+00) (0, 0, 0.00000000000000000000e+00) (0, 0, 0.00000000000000000000e+00) (0, 0, 0.00000000000000000000e+00) (0, 0, 0.00000000000000000000e+00) (0, 0, 0.00000000000000000000e+00) (0, 0, 0.00000000000000000000e+00) (0, 0, 0.00000000000000000000e+00) (0, 0, 0.00000000000000000000e+00) (0, 0, 0.00000000000000000000e+00) (0, 0, 0.00000000000000000000e+00) (0, 0, 0.00000000000000000000e+00) (0, 0, 0.00000000000000000000e+00) (0, 0, 0.00000000000000000000e+00) (0, 0, 0.00000000000000000000e+00) (0, 0, 0.00000000000000000000e+00) (0, 0, 0.00000000000000000000e+00) (0, 0, 0.00000000000000000000e+00) (0, 0, 0.00000000000000000000e+00) (0, 0, 0.00000000000000000000e+00) (0, 0, 0.00000000000000000000e+00) (0, 0, 0.00000000000000000000e+00) (0, 0, 0.00000000000000000000e+00) (0, 0, 0.00000000000000000000e+00) (0, 0, 0.00000000000000000000e+00) (0, 0, 0.00000000000000000000e+00) (0, 0, 0.00000000000000000000e+00) (0, 0, 0.00000000000000000000e+00) (0, 0, 0.00000000000000000000e+00) (0, 0, 0.00000000000000000000e+00) (0, 0, 0.00000000000000000000e+00) (0, 0, 0.00000000000000000000e+00) (0, 0, 0.00000000000000000000e+00) (0, 0, 0.00000000000000000000e+00) (0, 0, 0.00000000000000000000e+00) (0, 0, 0.00000000000000000000e+00) (0, 0, 0.00000000000000000000e+00) (0, 0, 0.00000000000000000000e+00) (0, 0, 0.00000000000000000000e+00) (0, 0, 0.00000000000000000000e+00) (0, 0, 0.00000000000000000000e+00) (0, 0, 0.00000000000000000000e+00) (0, 0, 0.00000000000000000000e+00) (0, 0, 0.00000000000000000000e+00) (0, 0, 0.00000000000000000000e+00) (0, 0, 0.00000000000000000000e+00) (0, 0, 0.00000000000000000000e+00) (0, 0, 0.00000000000000000000e+00) (0, 0, 0.00000000000000000000e+00) (0, 0, 0.00000000000000000000e+00) (0, 0, 0.00000000000000000000e+00) (0, 0, 0.00000000000000000000e+00) (0, 0, 0.00000000000000000000e+00) (0, 0, 0.00000000000000000000e+00) (0, 0, 0.00000000000000000000e+00) (0, 0, 0.00000000000000000000e+00) (0, 0, 0.00000000000000000000e+00) (0, 0, 0.00000000000000000000e+00) (0, 0, 0.00000000000000000000e+00) (0, 0, 0.00000000000000000000e+00) (0, 0, 0.00000000000000000000e+00) (0, 0, 0.00000000000000000000e+00) (0, 0, 0.00000000000000000000e+00) (0, 0, 0.00000000000000000000e+00) (0, 0, 0.00000000000000000000e+00) (0, 0, 0.00000000000000000000e+00) (0, 0, 0.00000000000000000000e+00) (0, 0, 0.00000000000000000000e+00) (0, 0, 0.00000000000000000000e+00) (0, 0, 0.00000000000000000000e+00) (0, 0, 0.00000000000000000000e+00) (0, 0, 0.00000000000000000000e+00) (0, 0, 0.00000000000000000000e+00) (0, 0, 0.00000000000000000000e+00) (0, 0, 0.00000000000000000000e+00) (0, 0, 0.00000000000000000000e+00) (0, 0, 0.00000000000000000000e+00) (0, 0, 0.00000000000000000000e+00) (0, 0, 0.00000000000000000000e+00) (0, 0, 0.00000000000000000000e+00) (0, 0, 0.00000000000000000000e+00) (0, 0, 0.00000000000000000000e+00) (0, 0, 0.00000000000000000000e+00) (0, 0, 0.00000000000000000000e+00) (0, 0, 0.00000000000000000000e+00) (0, 0, 0.00000000000000000000e+00) (0, 0, 0.00000000000000000000e+00) (0, 0, 0.00000000000000000000e+00) (0, 0, 0.00000000000000000000e+00) (0, 0, 0.00000000000000000000e+00) (0, 0, 0.00000000000000000000e+00) (0, 0, 0.00000000000000000000e+00) (0, 0, 0.00000000000000000000e+00) (0, 0, 0.00000000000000000000e+00) (0, 0, 0.00000000000000000000e+00) (0, 0, 0.00000000000000000000e+00) (0, 0, 0.00000000000000000000e+00) (0, 0, 0.00000000000000000000e+00) (0, 0, 0.00000000000000000000e+00) (0, 0, 0.00000000000000000000e+00) (0, 0, 0.00000000000000000000e+00) (0, 0, 0.00000000000000000000e+00) (0, 0, 0.00000000000000000000e+00) (0, 0, 0.00000000000000000000e+00) (0, 0, 0.00000000000000000000e+00) (0, 0, 0.00000000000000000000e+00) (0, 0, 0.00000000000000000000e+00) (0, 0, 0.00000000000000000000e+00) (0, 0, 0.00000000000000000000e+00) (0, 0, 0.00000000000000000000e+00) (0, 0, 0.00000000000000000000e+00) (0, 0, 0.00000000000000000000e+00) (0, 0, 0.00000000000000000000e+00) (0, 0, 0.00000000000000000000e+00) (0, 0, 0.00000000000000000000e+00) (0, 0, 0.00000000000000000000e+00) (0, 0, 0.00000000000000000000e+00) (0, 0, 0.00000000000000000000e+00) (0, 0, 0.00000000000000000000e+00) (0, 0, 0.00000000000000000000e+00) (0, 0, 0.00000000000000000000e+00) (0, 0, 0.00000000000000000000e+00) (0, 0, 0.00000000000000000000e+00) (0, 0, 0.00000000000000000000e+00) (0, 0, 0.00000000000000000000e+00) (0, 0, 0.00000000000000000000e+00) (0, 0, 0.00000000000000000000e+00) (0, 0, 0.00000000000000000000e+00) (0, 0, 0.00000000000000000000e+00) (0, 0, 0.00000000000000000000e+00) (0, 0, 0.00000000000000000000e+00) (0, 0, 0.00000000000000000000e+00) (0, 0, 0.00000000000000000000e+00) (0, 0, 0.00000000000000000000e+00) (0, 0, 0.00000000000000000000e+00) (0, 0, 0.00000000000000000000e+00) (0, 0, 0.00000000000000000000e+00) (0, 0, 0.00000000000000000000e+00) (0, 0, 0.00000000000000000000e+00) (0, 0, 0.00000000000000000000e+00) (0, 0, 0.00000000000000000000e+00) (0, 0, 0.00000000000000000000e+00) (0, 0, 0.00000000000000000000e+00) (0, 0, 0.00000000000000000000e+00) (0, 0, 0.00000000000000000000e+00) (0, 0, 0.00000000000000000000e+00) (0, 0, 0.00000000000000000000e+00) (0, 0, 0.00000000000000000000e+00) (0, 0, 0.00000000000000000000e+00) (0, 0, 0.00000000000000000000e+00) (0, 0, 0.00000000000000000000e+00) (0, 0, 0.00000000000000000000e+00) (0, 0, 0.00000000000000000000e+00) (0, 0, 0.00000000000000000000e+00) (0, 0, 0.00000000000000000000e+00) (0, 0, 0.00000000000000000000e+00) (0, 0, 0.00000000000000000000e+00) (0, 0, 0.00000000000000000000e+00) (0, 0, 0.00000000000000000000e+00) (0, 0, 0.00000000000000000000e+00) (0, 0, 0.00000000000000000000e+00) (0, 0, 0.00000000000000000000e+00) (0, 0, 0.00000000000000000000e+00) (0, 0, 0.00000000000000000000e+00) (0, 0, 0.00000000000000000000e+00) (0, 0, 0.00000000000000000000e+00) (0, 0, 0.00000000000000000000e+00) (0, 0, 0.00000000000000000000e+00) (0, 0, 0.00000000000000000000e+00) (0, 0, 0.00000000000000000000e+00) (0, 0, 0.00000000000000000000e+00) (0, 0, 0.00000000000000000000e+00) (0, 0, 0.00000000000000000000e+00) (0, 0, 0.00000000000000000000e+00) (0, 0, 0.00000000000000000000e+00) (0, 0, 0.00000000000000000000e+00) (0, 0, 0.00000000000000000000e+00) (0, 0, 0.00000000000000000000e+00) (0, 0, 0.00000000000000000000e+00) (0, 0, 0.00000000000000000000e+00) (0, 0, 0.00000000000000000000e+00) (0, 0, 0.00000000000000000000e+00) (0, 0, 0.00000000000000000000e+00) (0, 0, 0.00000000000000000000e+00) (0, 0, 0.00000000000000000000e+00) (0, 0, 0.00000000000000000000e+00) (0, 0, 0.00000000000000000000e+00) (0, 0, 0.00000000000000000000e+00) (0, 0, 0.00000000000000000000e+00) (0, 0, 0.00000000000000000000e+00) (0, 0, 0.00000000000000000000e+00) (0, 0, 0.00000000000000000000e+00) (0, 0, 0.00000000000000000000e+00) (0, 0, 0.00000000000000000000e+00) (0, 0, 0.00000000000000000000e+00) (0, 0, 0.00000000000000000000e+00) (0, 0, 0.00000000000000000000e+00) (0, 0, 0.00000000000000000000e+00) (0, 0, 0.00000000000000000000e+00) (0, 0, 0.00000000000000000000e+00) (0, 0, 0.00000000000000000000e+00) (0, 0, 0.00000000000000000000e+00) (0, 0, 0.00000000000000000000e+00) (0, 0, 0.00000000000000000000e+00) (0, 0, 0.00000000000000000000e+00) (0, 0, 0.00000000000000000000e+00) (0, 0, 0.00000000000000000000e+00) (0, 0, 0.00000000000000000000e+00) (0, 0, 0.00000000000000000000e+00) (0, 0, 0.00000000000000000000e+00) (0, 0, 0.00000000000000000000e+00) (0, 0, 0.00000000000000000000e+00) (0, 0, 0.00000000000000000000e+00) (0, 0, 0.00000000000000000000e+00) (0, 0, 0.00000000000000000000e+00) (0, 0, 0.00000000000000000000e+00) (0, 0, 0.00000000000000000000e+00) (0, 0, 0.00000000000000000000e+00) (0, 0, 0.00000000000000000000e+00) (0, 0, 0.00000000000000000000e+00) (0, 0, 0.00000000000000000000e+00) (0, 0, 0.00000000000000000000e+00) (0, 0, 0.00000000000000000000e+00) (0, 0, 0.00000000000000000000e+00) (0, 0, 0.00000000000000000000e+00) (0, 0, 0.00000000000000000000e+00) (0, 0, 0.00000000000000000000e+00) (0, 0, 0.00000000000000000000e+00) (0, 0, 0.00000000000000000000e+00) (0, 0, 0.00000000000000000000e+00) (0, 0, 0.00000000000000000000e+00) (0, 0, 0.00000000000000000000e+00) (0, 0, 0.00000000000000000000e+00) (0, 0, 0.00000000000000000000e+00) (0, 0, 0.00000000000000000000e+00) (0, 0, 0.00000000000000000000e+00) (0, 0, 0.00000000000000000000e+00) (0, 0, 0.00000000000000000000e+00) (0, 0, 0.00000000000000000000e+00) (0, 0, 0.00000000000000000000e+00) (0, 0, 0.00000000000000000000e+00) (0, 0, 0.00000000000000000000e+00) (0, 0, 0.00000000000000000000e+00) (0, 0, 0.00000000000000000000e+00) (0, 0, 0.00000000000000000000e+00) (0, 0, 0.00000000000000000000e+00) (0, 0, 0.00000000000000000000e+00) (0, 0, 0.00000000000000000000e+00) (0, 0, 0.00000000000000000000e+00) (0, 0, 0.00000000000000000000e+00) (0, 0, 0.00000000000000000000e+00) (0, 0, 0.00000000000000000000e+00) (0, 0, 0.00000000000000000000e+00) (316, 4, 5.00000000000000000000e-01) (316, 4, 5.00000000000000000000e-01) (316, 4, 5.00000000000000000000e-01) (316, 4, 5.00000000000000000000e-01) (316, 4, 5.00000000000000000000e-01) (316, 4, 5.00000000000000000000e-01) (316, 4, 5.00000000000000000000e-01) (316, 4, 5.00000000000000000000e-01) (316, 4, 5.00000000000000000000e-01) (316, 4, 5.00000000000000000000e-01) (316, 4, 5.00000000000000000000e-01) (316, 4, 5.00000000000000000000e-01) (316, 4, 5.00000000000000000000e-01) (316, 4, 5.00000000000000000000e-01) (316, 4, 5.00000000000000000000e-01) (316, 4, 5.00000000000000000000e-01) (316, 4, 5.00000000000000000000e-01) (316, 4, 5.00000000000000000000e-01) (316, 4, 5.00000000000000000000e-01) (316, 4, 5.00000000000000000000e-01) (316, 4, 5.00000000000000000000e-01) (316, 4, 5.00000000000000000000e-01) (316, 4, 5.00000000000000000000e-01) (316, 4, 5.00000000000000000000e-01) (316, 4, 5.00000000000000000000e-01) (316, 4, 5.00000000000000000000e-01) (316, 4, 5.00000000000000000000e-01) (316, 4, 5.00000000000000000000e-01) (316, 4, 5.00000000000000000000e-01) (316, 4, 5.00000000000000000000e-01) (316, 4, 5.00000000000000000000e-01) (316, 4, 5.00000000000000000000e-01) (316, 4, 5.00000000000000000000e-01) (316, 4, 5.00000000000000000000e-01) (316, 4, 5.00000000000000000000e-01) (316, 4, 5.00000000000000000000e-01) (316, 4, 5.00000000000000000000e-01) (316, 4, 5.00000000000000000000e-01) (316, 4, 5.00000000000000000000e-01) (316, 4, 5.00000000000000000000e-01) (316, 4, 5.00000000000000000000e-01) (316, 4, 5.00000000000000000000e-01) (316, 4, 5.00000000000000000000e-01) (316, 4, 5.00000000000000000000e-01) (316, 4, 5.00000000000000000000e-01) (316, 4, 5.00000000000000000000e-01) (316, 4, 5.00000000000000000000e-01) (316, 4, 5.00000000000000000000e-01) (316, 4, 5.00000000000000000000e-01) (316, 4, 5.00000000000000000000e-01) (316, 4, 5.00000000000000000000e-01) (316, 4, 5.00000000000000000000e-01) (316, 4, 5.00000000000000000000e-01) (316, 4, 5.00000000000000000000e-01) (316, 4, 5.00000000000000000000e-01) (316, 4, 5.00000000000000000000e-01) (316, 4, 5.00000000000000000000e-01) (316, 4, 5.00000000000000000000e-01) (316, 4, 5.00000000000000000000e-01) (316, 4, 5.00000000000000000000e-01) (316, 4, 5.00000000000000000000e-01) (316, 4, 5.00000000000000000000e-01) (316, 4, 5.00000000000000000000e-01) (316, 4, 5.00000000000000000000e-01) (316, 4, 5.00000000000000000000e-01) (316, 4, 5.00000000000000000000e-01) (316, 4, 5.00000000000000000000e-01) (316, 4, 5.00000000000000000000e-01) (316, 4, 5.00000000000000000000e-01) (316, 4, 5.00000000000000000000e-01) (316, 4, 5.00000000000000000000e-01) (316, 4, 5.00000000000000000000e-01) (316, 4, 5.00000000000000000000e-01) (316, 4, 5.00000000000000000000e-01) (316, 4, 5.00000000000000000000e-01) (0, 0, 0.00000000000000000000e+00) (76, 4, 5.00000000000000000000e-01) (76, 4, 5.00000000000000000000e-01) (76, 4, 5.00000000000000000000e-01) (0, 0, 0.00000000000000000000e+00) 
connections (connected_to_neuron, weight)=(0, 3.19531677326413021678e-01) (1, -5.31205817087022524881e-01) (2, 1.33921683121701562413e+00) (3, -1.37010948830171480628e-01) (4, 7.70526303077257307406e-02) (5, 8.75727934770252014474e-01) (6, -3.31600424051538056336e-01) (7, -3.26668394088266256237e-01) (8, 8.12772439943374447324e-02) (9, -3.26373965937612087185e-01) (10, -6.33446763778631183328e-01) (11, 3.49267619128278028473e-01) (12, 1.74404329443066052896e-01) (13, 1.97807179490107454267e-01) (14, 5.56632122492904876654e-02) (15, -6.66295466765535471243e-02) (16, 3.04240077024287847163e-01) (17, -8.19859536812517775139e-02) (18, -2.66811939111056495300e-01) (19, -7.20899446935363424904e-02) (20, -2.62627910837250677645e-01) (21, 6.15514816877077097779e-01) (22, -4.06732543711376737239e-01) (23, 7.39261726173436550802e-01) (24, -3.30411547440599764891e-02) (25, 2.33553448940197368178e-02) (26, -5.82163974938181630336e-02) (27, -5.09510182860623106471e-01) (28, 6.23657344899759769064e-01) (29, -7.27690077017775355239e-02) (30, 1.66801434715149396459e-02) (31, -1.42193695965476307741e+00) (32, -6.92378972662075375943e-01) (33, 1.21784427313763946032e-01) (34, -2.85119621897410635558e-01) (35, 1.24382501005248766179e-01) (36, -1.88656339118231208829e-01) (37, 2.80686084684317715965e-01) (38, 7.24255035781645850612e-01) (39, 2.56163591101999654764e-01) (40, 3.39079892993552622915e-02) (41, -1.42448999275703813705e-01) (42, 2.22857089396386931490e-01) (43, -4.14368399126613218275e-01) (44, 1.51013910611351220847e-01) (45, -5.61115917316312370899e-02) (46, 1.95991832033232837862e-01) (47, -7.98137670210239624780e-01) (48, -4.09060772619410539797e-01) (49, -3.43216255431022937428e-02) (50, 1.60244592131514373978e-01) (51, 3.37352844264438400668e-01) (52, -9.13285206717774467045e-01) (53, -2.68042852598114889062e-01) (54, -1.13074601871480195925e+00) (55, -2.05260795697772384372e-02) (56, 3.48986848363067758694e-01) (57, -1.62360614882056109032e-02) (58, 4.89674490096137504658e-01) (59, -7.48335802603787569875e-02) (60, 4.37165668989693667612e-01) (61, -3.80388628158530792134e-02) (62, 1.57844612984050572391e-02) (63, 1.26326253042940561677e+00) (64, -2.30921586251463285822e-02) (65, -5.85366054007524616587e-01) (66, -2.52140099161752284651e-01) (67, 3.48584030865910221575e-01) (68, -4.59397331024326005533e-01) (69, -1.35269422066449596098e-01) (70, 6.54380336562224051988e-01) (71, 2.91376088316705972314e-01) (72, -7.28194840161363321496e-02) (73, -3.97451597422827984651e-01) (74, -6.78436961688801687398e-02) (75, -4.69983065243262332356e-01) (76, -4.67786585129151111229e-01) (77, -9.16977977165418095540e-02) (78, -7.26781596770251364648e-02) (79, -4.61879701837951961441e-01) (80, 2.23904619869851551073e-01) (81, 7.75384873361316118157e-01) (82, -2.12123556088127551700e-01) (83, -3.76985587794928175831e-02) (84, 6.97750276660165424936e-01) (85, 4.56749908396838100177e-01) (86, -2.77536130659111146546e-01) (87, 1.70219341815491198577e-01) (88, -5.47208064308034036749e-01) (89, -3.02731754472576441994e-01) (90, 5.72014458351562463112e-02) (91, 7.56502488531032191155e-01) (92, -3.04572070327068233908e-01) (93, -9.28948672448971640714e-02) (94, 4.08078074844439198099e-01) (95, 4.83279460960807233372e-02) (96, -2.43825301398200744440e-01) (97, 5.63906924460253478060e-01) (98, 5.09543826016830347925e-01) (99, -5.37036551979530818457e-01) (100, -4.07957492003680033399e-01) (101, 3.11519857217842748021e-02) (102, -3.75417949573091991322e-01) (103, -7.74843457228873488951e-01) (104, 1.11992105995893057035e-01) (105, 8.91192620069325841525e-02) (106, -4.21838728899902731806e-02) (107, 5.38175152691506619718e-01) (108, 6.15719862207959600653e-01) (109, 3.64764314928317012754e-01) (110, -8.30169956325469082792e-01) (111, 3.30369125043060318792e-01) (112, 3.95927096259045985249e-01) (113, 5.34748040453062678523e-01) (114, 3.52068972208902541965e-01) (115, 3.44118804683121948251e-01) (116, 6.71612788465182575237e-01) (117, -5.61003416765627815899e-01) (118, 5.18572302223703540669e-01) (119, 6.02964355140332197713e-01) (120, 3.83170819490479708236e-01) (121, 1.15256537879240839040e+00) (122, 6.93176510080096286437e-01) (123, 8.79978931577613754378e-01) (124, 4.38031253907167072992e-01) (125, 1.37497868516423982221e-01) (126, -7.26090668215767509608e-01) (127, -1.96291134632961022932e-01) (128, 1.37044087053768071094e+00) (129, -1.85687632116476264432e-01) (130, 7.35859935807988557732e-02) (131, 1.68814536019845240489e+00) (132, 1.06112322602950184813e-01) (133, -7.56045951291514972681e-01) (134, -2.10817915473035993879e-01) (135, -3.49611694569364694907e-01) (136, -5.08721869732636666761e-01) (137, 1.09662908081846444119e+00) (138, 7.90415676948338585817e-01) (139, -5.41611993056768173394e-02) (140, -3.01119497974386585160e-01) (141, -3.97436144643158240086e-01) (142, -3.18696829612929777298e-01) (143, 2.48247960798697653306e-01) (144, -4.17805635941460529192e-01) (145, -3.41382073907543603930e-01) (146, 4.80832881549062493565e-02) (147, -1.00991204429657421837e-01) (148, 6.40276249886294612779e-01) (149, 1.21678137811487729891e+00) (150, -6.92360724938520744054e-01) (151, -4.69695098421898993291e-01) (152, 6.06839272241145977205e-01) (153, -1.17320992386558020648e+00) (154, -4.27927602313543486989e-01) (155, 2.46158077752546666783e-01) (156, -6.02181687925058328759e-01) (157, -1.02137328263204985035e+00) (158, 4.88324519468213646967e-01) (159, 1.77428647739701261798e+00) (160, -4.22107881871097379012e-01) (161, -5.13723095582852215535e-02) (162, -1.53981580199146694810e+00) (163, -1.06488740089037547953e+00) (164, -4.46954837714608255173e-01) (165, -2.61478483869593769651e-01) (166, -2.87969896991376150819e-01) (167, 4.47680428624153137207e-02) (168, -1.20240189362181415511e+00) (169, 7.26502123948930100816e-01) (170, -2.15848500387009922807e-01) (171, -9.20740616715336135378e-01) (172, -7.42150463556083272998e-01) (173, 1.13512116521202810482e+00) (174, -4.01766941336216820702e-01) (175, -7.02044422087061970039e-01) (176, -4.61746729635008623660e-01) (177, -1.28548308035773639624e+00) (178, -1.43891602343006658193e-01) (179, 5.29840174838420163717e-02) (180, -8.99721567372049113587e-01) (181, -5.56116118563571085187e-02) (182, -1.53375881887572340645e-01) (183, -1.56426106657015218104e+00) (184, 5.25110394019770887475e-01) (185, -1.09516277714461568449e-01) (186, 7.68430659177793268233e-02) (187, -1.23049451297991316312e-01) (188, 7.35132441171427619686e-01) (189, -1.02018823449136930570e+00) (190, 6.66954560715722566400e-01) (191, -8.12230618540656368332e-01) (192, -3.85951982436229190654e-01) (193, -2.36147828354797362227e-01) (194, -6.90764031846564874328e-01) (195, 3.08626045575639773588e-01) (196, 5.68387449947528877736e-01) (197, 5.05658909876268936046e-01) (198, -9.54680792057764127101e-01) (199, 1.05553933280536901829e-01) (200, -7.59107847794701862121e-01) (201, 7.08366323558834304341e-02) (202, -2.54355293623794886937e-01) (203, 6.96388209022071991150e-01) (204, -5.60231450923605045489e-01) (205, 6.93097906734112201299e-01) (206, 1.00240820513117756541e+00) (207, 3.38437121643346772171e-01) (208, -2.68735452363392524067e-01) (209, 3.19554427915740735244e-01) (210, -9.30094740016426335671e-01) (211, 1.09543745150195062643e-01) (212, -7.73887420579277951482e-01) (213, -4.16187133783199825210e-01) (214, 4.36146328792410942210e-01) (215, -3.53615438275914240052e-01) (216, 1.88891799938857157803e-01) (217, 9.35200260794403659403e-01) (218, 1.56765896692778294863e-01) (219, -3.46962824740433772863e-01) (220, -3.81847862656371717094e-01) (221, -2.65013945652565807709e-01) (222, -5.29327087638750359844e-01) (223, -6.80796266114694903493e-01) (224, -2.55044490794337053163e-01) (225, -1.00575808406744338086e+00) (226, -8.33645120258742933217e-01) (227, 1.37094467555702270722e+00) (228, 6.41253617374815398922e-02) (229, 5.64087905186189897400e-01) (230, -1.22514651409368624524e-02) (231, -7.22320553624863914699e-01) (232, 1.38717752991378340255e+00) (233, -1.37737873985451897418e+00) (234, -3.68148114970500206500e-01) (235, -6.50645299259919318580e-02) (236, 1.52726442574538490149e-01) (237, -7.64010181445161307145e-01) (238, 2.59791700059391617028e-01) (239, -1.46510878571050578989e-01) (240, -3.52529014852896172005e-01) (241, -5.63482194571430006214e-01) (242, -7.35062997273191021108e-01) (243, -2.11258601451413563499e-01) (244, 9.32480538046390472484e-02) (245, 6.41343875435848032041e-01) (246, -6.81290976859416086420e-02) (247, -6.11075812008961882782e-01) (248, 8.99282711462827011317e-01) (249, -2.19730577354462740247e-02) (250, 5.22763508015134381601e-01) (251, -5.78027525238569928057e-01) (252, -1.08672579226218801729e+00) (253, 3.60742976310265361928e-01) (254, -3.27806810471789999983e-01) (255, -6.84779662589045656773e-01) (256, -5.19511603323169257607e-01) (257, 6.80711848619294124241e-01) (258, -2.24830451998071223496e-01) (259, -3.25183366953386232545e-01) (260, -3.06578648698288824814e-01) (261, -7.69662543493793926963e-01) (262, -5.32429459560997409007e-01) (263, 1.59231482280317943045e-01) (264, -4.49906118340847427373e-01) (265, -6.95627104977516341755e-01) (266, 2.08011064370175025040e-01) (267, 4.21552822421538408992e-01) (268, 9.06149479568063576096e-02) (269, 7.20415500864841490403e-02) (270, 4.11899927832038270648e-01) (271, 1.63285197579770557930e-01) (272, -6.72044219138204557140e-01) (273, -8.19361410988527660848e-01) (274, 3.75534265251041998734e-01) (275, 2.25085973159192320736e-01) (276, 2.02819283620741530605e-02) (277, -8.94836918448219803546e-02) (278, 1.99200628735457851981e-01) (279, 4.28626329420077473165e-02) (280, -2.46289755089042106118e-01) (281, -8.03435327064445092837e-02) (282, -4.24612537065958250970e-01) (283, -3.35739188017936007746e-01) (284, -1.59652927072844105783e-02) (285, -4.55495921277236925917e-02) (286, -2.26781294605973016143e-01) (287, -1.69009650338445616136e-01) (288, 1.53552738418100270801e-01) (289, 8.44023930729090210434e-01) (290, 6.50968937438250350169e-01) (291, -3.76996209183773411944e-01) (292, -6.46345062180585849809e-01) (293, -3.98414992578996707273e-01) (294, -5.43627780804399329817e-01) (295, 5.55920871696683471797e-01) (296, 5.71406066728473716054e-01) (297, 4.07845760279641131318e-02) (298, 1.92151657443150020166e-01) (299, 7.92310903040340575032e-01) (300, -2.27287593311305713417e-01) (301, -1.77531754277392678221e-01) (302, -1.99117669822641042698e-02) (303, -1.92036774296838380627e-01) (304, -2.53429342746508912132e-01) (305, 2.80085934341757158972e-01) (306, 4.39062545220994693285e-01) (307, -8.82863037874885847600e-02) (308, -7.19611943606187215439e-02) (309, -6.43867157837115094976e-02) (310, 1.12282990650737568572e+00) (311, 3.55987663248134023064e-01) (312, 6.18077420716821701596e-01) (313, 4.67585215433482026537e-01) (314, -3.38635882830889800577e-01) (315, -6.28210962115831828001e-01) (0, -4.23452355190845758370e-02) (1, -9.87760959490701084817e-01) (2, 2.82444979996538614309e-01) (3, 5.13535096386471406893e-02) (4, 8.71106209437172013255e-02) (5, -6.62328476205908400765e-02) (6, 6.15372298340244386350e-02) (7, -1.68575954615745898790e-01) (8, -2.54278404586680828459e-01) (9, -1.17237683895675792733e-01) (10, -7.62301398335394231331e-01) (11, 5.55019694566172394623e-01) (12, 6.48541330947571048604e-01) (13, 1.13161901612534761263e-02) (14, 4.71431275365951030221e-01) (15, -2.99949582040788198523e-01) (16, -5.23894569490658934541e-01) (17, 3.22753763573490171090e-01) (18, 3.82575835488875359847e-01) (19, -2.60165504117398749262e-01) (20, -3.74164471723048952523e-01) (21, 8.05277071038848907270e-02) (22, 1.38937275999272857874e-01) (23, 9.39249798771763649841e-02) (24, -3.15180779985993808623e-01) (25, -4.92726856318824346648e-01) (26, 2.48132610027476691039e-01) (27, 7.52271621141500479446e-01) (28, -1.26509849157308396084e-01) (29, 3.85489797388855637283e-01) (30, -5.30275303215046317495e-02) (31, -3.54305513534456328895e-01) (32, 1.78511064153772727736e-02) (33, -9.25155129260936681668e-01) (34, 2.62752029713776202868e-01) (35, 5.34140597434279107425e-01) (36, -3.99337207864469745378e-01) (37, -3.79522661947105266478e-01) (38, 1.56659150885916170770e-01) (39, 7.52815458540124438080e-01) (40, 6.05532945837283509416e-02) (41, -8.55742983693831560377e-03) (42, -1.14367471683789190262e-01) (43, 5.54619774111890673218e-01) (44, 3.21812017234524738729e-01) (45, 5.56574933857751696920e-01) (46, -3.20468289954029261768e-01) (47, 1.01599113957553965903e+00) (48, 9.53497153883425818677e-01) (49, -1.05849773066112740061e+00) (50, 1.02255677004695177956e+00) (51, -1.04062037308945987135e+00) (52, -1.08057541288653768952e+00) (53, 3.96264286368883722478e-01) (54, 6.42405545181671033816e-01) (55, 6.21167761006959473491e-01) (56, 5.41622084593019970100e-01) (57, -2.86353695263017571371e-01) (58, -1.54578149486482546715e-01) (59, -1.83691160710316658822e-01) (60, -2.59057948426714756973e-01) (61, 6.89668175570357436244e-03) (62, -1.19705569390254076834e-01) (63, -5.08739196806396898332e-01) (64, 3.88800830793774587768e-01) (65, 1.57926244168899138076e-01) (66, -8.78969493931056944369e-01) (67, 1.66790210907142882890e-01) (68, 7.41810849316247300500e-01) (69, 4.40066623484827057489e-01) (70, -3.46249816473716387488e-01) (71, -6.23254125279412818372e-01) (72, -8.04235426543369463781e-02) (73, -4.85491576770007704500e-01) (74, 4.15313642092587365084e-01) (75, -3.66625509913560687636e-01) (76, -9.62747214225529002185e-01) (77, -6.96519917810724531471e-01) (78, -4.71006292442442353607e-01) (79, -1.85842198239280581573e-01) (80, 3.30161967661513233718e-01) (81, 1.19522320799951425885e-01) (82, 4.64699915003783659007e-01) (83, -4.15486749847008896008e-01) (84, -9.71837512378018297809e-01) (85, -3.63014195582292586995e-01) (86, 7.05888765631286219104e-01) (87, 1.13248325541122807358e+00) (88, 6.32967498252670485170e-02) (89, 5.97192984331407772380e-01) (90, 1.04556112336642947902e+00) (91, -7.35281244551001411658e-01) (92, 1.87932167206962041917e+00) (93, -9.38310943302796962584e-01) (94, -3.22012658425816333807e-01) (95, 1.96750517448577577628e-01) (96, 7.30727363331849233408e-02) (97, 7.91742229261381380567e-01) (98, 1.04003636318888315060e+00) (99, 4.24758934068750593216e-01) (100, 9.10287978759591109856e-01) (101, -5.55054626751888130487e-02) (102, 5.43387359522672808154e-01) (103, 2.60824015843517553748e-01) (104, -4.76848449834655019330e-01) (105, -7.37683853874047251731e-02) (106, 1.24248729477423025536e+00) (107, -8.97910200474989483865e-01) (108, -1.16844179011403381807e+00) (109, 1.88332019469493766595e-01) (110, -6.95662141226446595343e-02) (111, 8.69793393860024965925e-02) (112, -1.86206020562665913731e-01) (113, -1.04348887003064261236e+00) (114, -8.78868713918542598940e-01) (115, 1.71668924885322565776e-01) (116, -1.20909725283853686228e+00) (117, -3.17382646068879892276e-01) (118, -4.87539546086389552482e-01) (119, -1.36500724437547404921e-01) (120, -1.40040285295563560197e+00) (121, -4.88339100675225901149e-01) (122, 1.57032007994557054609e+00) (123, 3.72548219703902394606e-01) (124, 3.27470761133794419084e-01) (125, -5.54841673925569045522e-01) (126, -8.97324909439432105707e-01) (127, -1.41791569182228821555e-01) (128, -8.09620702024390848095e-01) (129, 8.05615401573690603776e-01) (130, -2.91150216101126235735e-01) (131, -1.77401264602584851637e+00) (132, 6.13303434861987128990e-01) (133, 1.20146682093366652389e+00) (134, 3.18768625776221392609e-01) (135, -1.57595273361945620305e-01) (136, -5.76845559516641903652e-02) (137, -1.25868062858217610867e+00) (138, -1.81936457694033704158e+00) (139, 6.33798791253068150020e-01) (140, -4.42645790046168552401e-01) (141, 8.97793557796973007434e-01) (142, 6.79251776843104448922e-01) (143, 1.87080274320744632810e+00) (144, 3.41093485153411479782e-01) (145, 1.27225181421311561714e-01) (146, -4.20448643557351453559e-01) (147, 5.19688984315473390119e-01) (148, 3.57546448959731588690e-01) (149, -1.29160521758728119579e+00) (150, -3.91297784834279738231e-01) (151, 1.61097699015697176650e-01) (152, 1.03293288015653961232e+00) (153, 8.84444940255490752445e-02) (154, 2.53672527295574712358e-01) (155, -6.86668579625231867425e-01) (156, -9.25998281066338010947e-03) (157, 2.13911505176591326682e-01) (158, -1.43942560565017063645e+00) (159, -2.12711288248977004045e+00) (160, -6.44651165741234932760e-01) (161, -1.15915962395935823182e-01) (162, -2.09358919968998691274e-01) (163, -1.45389606787592584602e+00) (164, 1.79825061392811402783e+00) (165, 8.74440650692558385515e-01) (166, 1.54244422198842656702e-01) (167, 3.69127839803695678711e-03) (168, -6.59103351781219481964e-01) (169, 7.89754965221731497493e-01) (170, -4.82790588898176220578e-01) (171, 6.05716839937995021881e-02) (172, -2.06717816828385275718e-01) (173, -1.34337593738496940965e+00) (174, 5.95160330109346435989e-01) (175, 3.52999055364805913726e-01) (176, 1.40052110139567170810e-01) (177, 1.40139124981839446882e-01) (178, -5.04415438142025496226e-01) (179, -9.66337046693596435354e-01) (180, -2.49683258031959187662e+00) (181, -6.14683579411977376594e-01) (182, 4.21640199291195394427e-01) (183, 2.79306535782317899574e-01) (184, -1.42953197712345131398e-01) (185, 1.86547283315914325108e+00) (186, 5.30152264541056683633e-01) (187, 1.73580600747907820569e-01) (188, -5.13221455150530747602e-01) (189, -3.42944162415275421996e-01) (190, -1.09261435735120513574e-02) (191, -1.25137173904287052340e-01) (192, 9.17296832993355279462e-03) (193, 4.14638758961311137963e-01) (194, -5.31239734841058353076e-01) (195, 5.10864955834302358895e-01) (196, 2.05629129265810284277e-01) (197, -7.25953434726756441364e-01) (198, -7.27153738825211060082e-01) (199, -6.44886727553614230724e-02) (200, -1.00784449870122627679e+00) (201, -6.61191908370353909064e-01) (202, -3.00503371274854269579e-01) (203, -5.84481665900100422206e-01) (204, 1.01975741063294066992e-03) (205, 1.59088528563102349356e-01) (206, 7.65154134072020375434e-01) (207, -1.08495766595779516428e-01) (208, 1.89461226701630430780e-01) (209, -6.41142292073929698226e-01) (210, -9.42498836943291062873e-01) (211, 9.58995110325148170105e-01) (212, -2.06839937411038815585e-01) (213, 1.52309562884249655168e-01) (214, -6.70602855101404271565e-02) (215, -5.96379398489461087784e-01) (216, -1.02900552412434620475e-01) (217, -5.57603695941441546147e-01) (218, -3.92919069627280181933e-01) (219, -4.69245760488099405983e-01) (220, -2.52262048829454688104e-01) (221, -1.79695890274845837542e-01) (222, 4.71630402662555237026e-01) (223, 7.87319074239800409387e-01) (224, 7.22979356709442133599e-01) (225, 5.00912060798006653073e-01) (226, -2.56345582665317650584e-01) (227, -2.44034655501682018475e-02) (228, 4.41119656193509901421e-01) (229, 9.22635521360773314115e-01) (230, -6.85376129304821279931e-01) (231, -3.94415547167025135056e-02) (232, 3.91759065696060060358e-01) (233, 3.62834063668872608410e-01) (234, -5.07663547676135085140e-01) (235, 7.86058931434333252319e-01) (236, 3.86855213163318223391e-02) (237, -3.14708613489428967736e-01) (238, -3.14784840826079714837e-01) (239, -8.87420015204013701293e-01) (240, -4.22704111144778960085e-01) (241, -5.96413143320783777773e-03) (242, -4.93834264414296952861e-01) (243, 7.99066600052140557642e-02) (244, -2.77577201318240540662e-01) (245, -3.18397417201982724233e-01) (246, 2.70926237443730108523e-02) (247, -4.42729366726819839606e-01) (248, -4.66888275771818461735e-02) (249, -5.50848032519083319336e-01) (250, -9.08581668133491421324e-02) (251, -4.78235814510474588346e-01) (252, -2.02969225619570758923e-01) (253, -4.83356661220237793231e-02) (254, 2.12687258282149460609e-01) (255, 3.46249011032658704501e-01) (256, -5.69154064739076481771e-01) (257, -3.36320277912671494747e-01) (258, 2.17959602373913402529e-01) (259, -9.81306567992770856224e-02) (260, 3.81457811540104954617e-02) (261, -6.96922193025356517815e-01) (262, -2.65951853609885824348e-01) (263, 7.44419980629176469833e-01) (264, 6.09309429792482926125e-01) (265, -2.87330593480198015488e-01) (266, 5.53691017901720483607e-01) (267, 9.12099191870704983920e-01) (268, 4.93702345179713786294e-01) (269, 3.28274578565918129236e-01) (270, -3.47869910151258066033e-01) (271, -1.70475267277584496828e-01) (272, -7.12067130101565193279e-01) (273, -3.38177929177948144446e-01) (274, -2.13045741260293797215e-01) (275, 4.85897601706650195119e-01) (276, -2.68689485434257913088e-01) (277, 3.81591197099964141159e-01) (278, -6.49525595321332194221e-02) (279, 3.49152440500688832081e-01) (280, 1.50967568584351313765e-01) (281, -5.88798035465691427248e-01) (282, -3.22661562271266078028e-01) (283, 1.30898715154934508487e-01) (284, -3.24643573399639867594e-02) (285, -6.19245686593796085262e-01) (286, -2.64607537464770781188e-01) (287, -4.13139794305677654496e-01) (288, -2.52693464689676960955e-01) (289, -2.80516537031176460548e-01) (290, 1.67955598494670815812e-01) (291, 3.00713387008303578707e-01) (292, 1.48635151231808065875e-01) (293, -4.05255832806299176596e-01) (294, -3.72086772133657095463e-01) (295, -2.57199515404577916389e-01) (296, 3.18458691548743552668e-02) (297, 3.68918162839626806448e-01) (298, 1.55112244138470328769e-01) (299, 7.58352682926320298407e-01) (300, 3.38987179859566931106e-02) (301, 2.29443651360989493704e-02) (302, 2.71162134902401333325e-02) (303, -3.58612938511687684429e-01) (304, -3.00192707393693636320e-01) (305, -2.62092657796289540961e-01) (306, 5.19910463552730184311e-01) (307, 2.14514976893334208263e-01) (308, 2.17174862573676144550e-02) (309, 1.48582836194075279534e-01) (310, 3.61187054548615993355e-01) (311, 6.37919877386765699079e-01) (312, 5.14029783949746965632e-01) (313, -3.26405759193457489786e-01) (314, -3.76949391248456000536e-01) (315, -2.88861192849073189493e+00) (0, 3.51711319892448637248e-01) (1, 3.12432369134446275005e-01) (2, -5.36840365520273588018e-01) (3, -2.19971104727436167492e-01) (4, 5.81764121214048968156e-01) (5, -3.03178236288124014486e-01) (6, -2.71283679115765508083e-01) (7, 3.33526021234305551297e-04) (8, -1.01844592063511685254e+00) (9, 4.36574624640979513934e-01) (10, -2.33993454529894291671e-02) (11, -7.20512489157046909227e-02) (12, 4.26516530591442913356e-02) (13, 1.04766627787782895531e-01) (14, -2.15577876822925340594e-01) (15, 5.17141804736743870841e-01) (16, -5.66550902358916724788e-02) (17, 3.73043199714132966971e-01) (18, 1.35996894032127446650e-01) (19, 6.74727214996340696196e-01) (20, -1.02124423659024365918e+00) (21, -5.48271675978582284650e-01) (22, -2.28105939990921879890e-01) (23, 1.44243481631274525490e-02) (24, 6.55538885491508849235e-01) (25, -2.27876449037558354016e-01) (26, -5.75081778602192006389e-01) (27, 8.68817269280609538740e-02) (28, 2.35092794008535735384e-02) (29, -6.91765143425884018041e-03) (30, 1.07581850041337301338e-01) (31, -5.00094980586864967798e-01) (32, -2.61104809331778431325e-01) (33, -1.76781180617625855410e-03) (34, 7.02730263630214957438e-01) (35, -3.77412229379308905575e-01) (36, 1.85575887209678797030e-01) (37, 3.73144394751813379685e-01) (38, 6.59612353084440439233e-01) (39, -1.79071525762032834894e-01) (40, 5.50756353320352221026e-01) (41, -4.68474040873464891988e-01) (42, -5.25664479188959893330e-02) (43, -2.42812900592657504584e-01) (44, -8.61449094826553518622e-01) (45, -2.42658460846444018477e-01) (46, -1.05309475567344434932e-01) (47, -1.78608008807347451441e-01) (48, -1.76128102439573747118e-01) (49, -1.69602652182349808441e-02) (50, -2.28507904873063633078e-01) (51, 5.71191986663683523573e-02) (52, 3.30399091030268377001e-01) (53, 6.41447252906661574690e-02) (54, -4.68988408994567729238e-01) (55, 2.46072945989016217405e-01) (56, -2.57499570826032864179e-01) (57, -6.47893126480762471253e-02) (58, -3.42238087863504958364e-01) (59, 3.16093838872319246591e-02) (60, -3.32248517155396605460e-01) (61, 1.48572202579573098280e-01) (62, -2.79884473531389343925e-01) (63, 2.00771237037324183639e-02) (64, -1.56720003350616539362e-02) (65, -2.64042480516344935104e-01) (66, 4.34193447867305459820e-01) (67, -2.45145050077997195270e-01) (68, 3.19612838810058141892e-01) (69, -6.06246318538038120316e-01) (70, -5.06449613673811832593e-02) (71, 2.07811070916934764741e-01) (72, 1.32278993790495208449e-01) (73, 1.47254636416822265454e-01) (74, 2.09904913526225672671e-01) (75, -1.82243589542093714639e-01) (76, 1.37317600188666594230e-01) (77, -3.07341773914532268019e-01) (78, 7.18741194529209093123e-02) (79, -2.43933402003956717463e-01) (80, -3.82526476410468885270e-01) (81, 2.08969806123522089392e-01) (82, 1.84428432356023769279e-01) (83, -1.94212767396593238844e-01) (84, -1.00287219701780047632e-01) (85, -5.57101931966181185274e-01) (86, -3.72791411635544078784e-01) (87, 3.90786968502927989366e-01) (88, 8.61222468099267918218e-02) (89, -6.57024708118779887656e-01) (90, -3.75456959831941994299e-01) (91, 4.18582201030106071382e-01) (92, -1.06228842016938510029e-01) (93, 3.49216148204688547896e-01) (94, -1.49692309381867810769e-01) (95, -4.34865041396325868739e-01) (96, -8.89206740829790787117e-01) (97, 4.93155883846639830903e-01) (98, -2.64248087108433893366e-01) (99, -6.67006024855712809085e-01) (100, -3.16740722955736742072e-01) (101, 7.63194288125773612208e-01) (102, 5.05162897275575839551e-01) (103, 3.73324356247645761098e-01) (104, -2.96703123058877971108e-01) (105, 6.85162605113336820040e-01) (106, 3.35135885159699553615e-01) (107, -6.20682756764168841457e-01) (108, 2.57248065213988297284e-01) (109, 1.65345489001952616892e-01) (110, -6.11357246425094924547e-01) (111, -1.15934030426410955572e-01) (112, 6.16316320028607145254e-01) (113, -5.12177742476146113937e-01) (114, 7.98013786634015065413e-02) (115, 4.06688896574621872038e-01) (116, -7.71041777497628699756e-01) (117, -1.19043019128548976937e+00) (118, 3.88601451118274987540e-01) (119, -1.13879687256503492332e-01) (120, -7.26872188732753166107e-01) (121, -2.56995049539884400785e-03) (122, 6.39891283896273588283e-01) (123, 9.91735550104857810361e-01) (124, 5.97954671620230748808e-01) (125, -4.62743953596639612247e-01) (126, 1.06778553675895637731e+00) (127, -1.86117126084284559284e-02) (128, -1.57466793631485035831e+00) (129, 4.36966221610321781110e-01) (130, 1.38399533633503296626e-01) (131, -3.63986190174452883817e-01) (132, -2.13975813624973726368e-01) (133, 9.69278595787131491690e-01) (134, -6.52020345754381391856e-01) (135, -1.51550838229632250931e-01) (136, 1.70016851038072597246e-01) (137, -1.72641524522170408673e+00) (138, -2.26421383651012053662e+00) (139, 2.04955855573902612221e-01) (140, 1.47624011826552409277e-01) (141, -9.68807541452438192309e-01) (142, -2.18357868048977693531e-01) (143, 1.22570793342111494795e+00) (144, 8.81748307155169941396e-01) (145, 6.90326581681487305708e-01) (146, -3.21780451724095972743e-01) (147, 6.15491152223445747715e-01) (148, 2.69582093359122421106e-01) (149, -1.37332720701501731497e+00) (150, 3.88731715693081292251e-01) (151, 6.08500670075274585624e-02) (152, -8.59140942857102740682e-01) (153, -2.10589991566903861342e-01) (154, 1.08970492848960631704e+00) (155, -4.20583142011869692833e-01) (156, 6.25935540137787932435e-02) (157, -5.86878605664990045040e-04) (158, -9.57315530282866533618e-01) (159, -2.54729343959454590518e+00) (160, 1.28696681532536969655e-02) (161, 2.95225797048783933363e-01) (162, -5.24750710263048175674e-02) (163, 1.88126249992881799944e-02) (164, 9.81585571947369839307e-01) (165, -1.98667716637786012646e-01) (166, 8.89980381826666722134e-01) (167, 8.18308219313621520996e-02) (168, 2.77549734236885170535e-01) (169, 1.04999123993686202527e-01) (170, -7.17393039717401759248e-01) (171, -1.00949421079693693604e-01) (172, -2.10219109996982622679e-01) (173, -1.81109971914748135724e+00) (174, 7.32182189826636325991e-02) (175, 3.50408648915974840765e-01) (176, -3.15920318207782824249e-01) (177, 2.30625949213566855400e-01) (178, -3.33833913937802650995e-01) (179, 4.31522914472461271984e-01) (180, -2.07077499941636045122e+00) (181, 7.09938756982226859549e-02) (182, -4.03292446886334143841e-02) (183, 1.36377820701884984456e-02) (184, 4.49242405417202783635e-01) (185, 5.70109114856234278079e-01) (186, 1.43436792093664527981e-01) (187, 9.01878841640869066687e-02) (188, -3.75621858706036593212e-01) (189, 2.33151750970046728328e-01) (190, 4.73059043308265259054e-01) (191, -1.04369946316094508454e+00) (192, -6.19403549154360910656e-02) (193, 2.47622843963638990250e-02) (194, -3.14904742694125550084e-01) (195, 1.34259706750694624011e-01) (196, 6.89266161852544190225e-02) (197, -2.16722642357329825513e-01) (198, 6.03708523481660930265e-01) (199, 8.16217727946586396603e-02) (200, 3.47651041731299806359e-02) (201, -1.13761521998117798304e+00) (202, 2.22455997726380472201e-01) (203, 3.93192405227309527138e-01) (204, -3.96918863090409412830e-01) (205, 2.57490992993548439838e-01) (206, -3.66840309861930946589e-01) (207, 2.13068238266567289152e-01) (208, 9.79575664536816853589e-02) (209, -3.53827246029423447826e-01) (210, 5.16284683351169837451e-01) (211, 2.03731069992627550347e-01) (212, -1.93797815740669343576e-01) (213, 2.16500144981371656083e-02) (214, -1.78848239611752807265e-01) (215, 8.09679756184182086720e-01) (216, -1.14508969403485580396e-01) (217, -4.55674092838141808759e-01) (218, -2.67951680253104118634e-01) (219, 3.22662245843989725635e-01) (220, -7.44584813134092499132e-02) (221, 3.46596855721185481691e-01) (222, -1.29165802085852532421e+00) (223, 4.33662926413702284889e-03) (224, -2.62331969870688685997e-01) (225, -3.89879916046408703245e-01) (226, -6.68123538577213404999e-01) (227, -1.18258700474797220220e-02) (228, -1.66975232922979388572e-01) (229, 2.24252718820788815579e-01) (230, -3.85881734620915795020e-01) (231, -5.06206764498468797520e-01) (232, 8.27931214814028731963e-02) (233, -4.39941222110651619648e-01) (234, -2.09849365226239537030e-01) (235, -1.32163218769731194424e-01) (236, 3.92749265463308416119e-03) (237, -2.72868030871022737571e-01) (238, 3.22316486159417492363e-01) (239, -2.37505822839261027113e-01) (240, 9.74810740725855356947e-02) (241, -4.29168306440412483660e-01) (242, 1.86853955900906754106e-01) (243, -6.91256586831684671779e-01) (244, 3.15687216084157978857e-02) (245, 5.18803076868003865130e-01) (246, -9.81238094935652643835e-02) (247, -6.03167618227491875160e-01) (248, 5.76533785950936045195e-02) (249, 2.56797985453492361163e-01) (250, 2.96899424165132763687e-01) (251, -2.12558119310503279564e-01) (252, -6.12737135619731421166e-01) (253, -5.34466510096108238237e-01) (254, 4.53369832451917309513e-01) (255, 2.03732449164930017049e-02) (256, 8.64197171352407839118e-02) (257, 8.15764246779075441474e-02) (258, -2.02602819391466959509e-02) (259, -8.18704872750923851044e-02) (260, 3.05175734746804094843e-01) (261, -4.94891474966090649801e-01) (262, -6.46925426547291376744e-02) (263, 3.42570750266853074617e-01) (264, 3.24172901234634908141e-02) (265, -5.74380103826040433468e-02) (266, -3.35771835720316130791e-02) (267, 3.16073615351850190081e-01) (268, 2.78040577473188443847e-01) (269, -8.97952869241071954809e-02) (270, -7.22044752596806560518e-02) (271, -8.36203173709650499079e-02) (272, -3.88135972375994731109e-01) (273, -4.13483075228216867547e-01) (274, -1.10742555283199414773e-01) (275, 1.79429904576801746430e-01) (276, -2.75638562797488217981e-01) (277, 2.51018533826233902762e-01) (278, 8.31445921087131667448e-02) (279, 4.97138585789817788463e-01) (280, 5.10400270442728509757e-01) (281, 4.37126823892840021824e-01) (282, 7.15638934545637095397e-02) (283, -1.54736368655469108679e-01) (284, 3.72670551240633529666e-01) (285, -5.83506498741515472473e-02) (286, -7.97722182718858530137e-02) (287, -8.77938560998950678904e-02) (288, 3.19658943233731007716e-01) (289, 6.21295287844009669342e-01) (290, -2.80850424971301249055e-01) (291, 2.36600561031121703337e-01) (292, 3.59885868765826566484e-02) (293, -4.87206258520945900692e-01) (294, 2.35736349355708890707e-01) (295, 4.46101523123994370135e-01) (296, 4.07784698327583461364e-01) (297, -4.93169855134431400767e-01) (298, 2.62015178057346587170e-01) (299, 6.53694448464703814494e-01) (300, -5.90940260626195423832e-01) (301, 2.12653165602433497083e-01) (302, -1.43774738034323969899e-02) (303, 3.04687211096271004518e-01) (304, 4.36281707947936803205e-01) (305, -2.80589664207365585558e-01) (306, 1.00299853485221718286e-01) (307, -7.19176769668090076770e-02) (308, -3.54707506579791498336e-01) (309, 2.72574023518533603561e-01) (310, -1.59523521618537347799e-02) (311, 1.15539600770822314946e-01) (312, 9.09536897587688748790e-03) (313, -3.77331597470283497398e-01) (314, -9.25619795214114082782e-01) (315, -1.24492173577733344914e+00) (0, -2.88492204741211566432e-01) (1, -5.28426052420587821778e-01) (2, 1.28473819606910577562e+00) (3, 5.38658314459973253108e-01) (4, -8.32893814332797188804e-01) (5, -1.60116402904111360117e-01) (6, -7.79626105802893709651e-01) (7, -5.37889350419249678836e-01) (8, 4.15217467457402511499e-01) (9, 7.72007424809841996671e-02) (10, -4.89250210793649373264e-02) (11, -1.20680326261591960857e-01) (12, -6.78085482057928512489e-02) (13, 1.16339922627951619649e-01) (14, -4.59626930987168003107e-01) (15, -3.17401063876732336677e-01) (16, 7.40205726180685918969e-01) (17, 5.05825100582830353146e-02) (18, -2.15208206759542365616e-02) (19, 2.03215117328943956077e-01) (20, -1.29357333061957469056e+00) (21, -6.88925355174601905528e-02) (22, 3.19462168334141427550e-02) (23, -1.23166215740952322832e-01) (24, -8.01418167356429678172e-02) (25, 3.20065616785362161423e-01) (26, -5.81506407542532244292e-01) (27, -6.64790785034877429460e-01) (28, 1.70654599838851672722e-01) (29, -1.68469311241289387837e-01) (30, 1.27071618472351266504e-01) (31, -2.50234203709348401734e-01) (32, -4.40356198191830583433e-01) (33, -2.85931755668289933059e-01) (34, -3.19100435063457699147e-01) (35, -4.95837794704367118559e-01) (36, 3.81797420569653211952e-01) (37, -4.13161805247730828938e-01) (38, -6.33838868195307325593e-01) (39, -8.14073977658422709425e-01) (40, -2.40011182006746870421e-01) (41, -5.02284048974023900058e-01) (42, -3.32425214161778226352e-01) (43, 1.17943969271833726253e+00) (44, 1.38009214949979308606e-01) (45, -4.68443915917330921950e-01) (46, 6.22750922549805199790e-02) (47, -5.49957866188185429124e-01) (48, 5.97978185034577155998e-02) (49, 4.36278943752803682887e-01) (50, 6.23952993845098349834e-02) (51, 1.41629048832778547951e-01) (52, 1.42051005369700205500e-02) (53, -4.95343554816730147206e-01) (54, -1.06846161622348945208e-01) (55, -9.79289031707364698853e-01) (56, -8.58450777959433447561e-02) (57, -4.71003010495303520155e-01) (58, 2.51285658228104669121e-01) (59, -4.64418556146911909455e-02) (60, -3.67057119184870050965e-01) (61, 4.27687199166289333530e-01) (62, -4.33353025957653459344e-01) (63, -4.01807718487303511257e-01) (64, -2.64380892025614544494e-01) (65, 2.31812742295866514031e-01) (66, 1.99052135257227535980e-01) (67, -4.84923441244860031762e-01) (68, -7.55091329139228717438e-01) (69, 3.58654713092615040626e-01) (70, 3.42166836471876789627e-01) (71, 4.41089926183703739948e-01) (72, -5.30738440815679113349e-01) (73, -1.91753075878327045034e-01) (74, 4.08189623998761408341e-01) (75, 2.73361275957728855346e-01) (76, 1.27224927879568716627e+00) (77, 6.74900790683427564964e-01) (78, -1.24143615910035629013e-01) (79, -1.75627605743941594962e-01) (80, -4.64493342273525677832e-01) (81, 3.97821736518997048915e-01) (82, 2.44995371154412527881e-01) (83, -5.19340351085927132146e-01) (84, -5.98643028936638010862e-01) (85, 2.98815353107978687319e-01) (86, 1.16740873048492899144e+00) (87, 3.85169991755570373382e-01) (88, -2.30285883779958899797e-01) (89, -7.34834101822004925886e-01) (90, -3.08788528036529841270e-01) (91, -8.54636606003319858338e-03) (92, 6.51894263697342268848e-01) (93, -2.22669544923705775563e-01) (94, -5.92237051172158746049e-01) (95, 6.00519871889951262212e-03) (96, -8.12594507515316810675e-01) (97, -9.14152825049993761342e-02) (98, 7.46034991845809375421e-02) (99, -5.35609304986682688288e-01) (100, 1.32457796043920217333e-01) (101, -8.63795703290682892472e-01) (102, 3.56674398938155723382e-01) (103, -6.03123817451702848302e-01) (104, -5.83337986588598589321e-01) (105, 3.23027134869328713673e-01) (106, -5.10263095300875435534e-01) (107, 2.12892811035367141015e-02) (108, -1.17758989123869084459e+00) (109, -1.72492836318398928830e-01) (110, -2.27070638632419097291e+00) (111, -4.77458834640451301734e-01) (112, -3.91066751857616523580e-01) (113, -1.18974693806679976404e+00) (114, 4.42883909863592051259e-01) (115, 8.71393141952703897957e-01) (116, 6.36926594657277189704e-02) (117, 8.42991974438353670884e-03) (118, -3.23864512834585616119e-01) (119, -1.41131960526022659508e+00) (120, -3.90228907761727583647e-01) (121, 3.83344611305640126098e-01) (122, -5.73801852872638407099e-01) (123, -3.19343887913563884151e-01) (124, -6.18273271505414334648e-01) (125, -2.27973328765717159206e-01) (126, 1.73961005375941085704e-01) (127, 2.47996115513125676977e-02) (128, -7.64175724970238279266e-03) (129, -3.73305031862032274392e-02) (130, -2.37537417664382355387e-01) (131, -1.02655109236885899726e+00) (132, -3.82427105492505303719e-01) (133, -2.59743541686189571838e-01) (134, -2.74847201217653380745e-01) (135, 1.18215977512500103330e+00) (136, -1.55530684974603788939e-01) (137, -2.82868819392705916904e-01) (138, 2.87580447639276315375e-01) (139, 1.62972686852546844172e-01) (140, 7.13078934653828683254e-02) (141, -6.79501911000274683161e-01) (142, -2.22570314357724063914e-01) (143, -2.60246511063411178899e-01) (144, 6.61076684978759293587e-02) (145, 6.46760989066846980755e-01) (146, -1.64940821036842544256e-01) (147, 2.35853342803229315550e+00) (148, -1.21364584532776276227e+00) (149, 2.46069401214307692527e+00) (150, 2.34955686511439942876e+00) (151, -5.62083761024936401363e-01) (152, -3.37284862323681267071e-01) (153, 1.21874825958377314139e-01) (154, 1.25265633548103799688e-01) (155, 1.05843031785000296630e+00) (156, -8.60930729818642770379e-02) (157, -2.39431462530488858853e-02) (158, 3.27347963274991771154e-01) (159, 6.84294801858793100280e-01) (160, 8.97244859251605353379e-01) (161, 5.45717137580498223848e-01) (162, 4.27082269099241018662e-01) (163, -5.91724437440090067497e-01) (164, -7.58529088148158447957e-01) (165, 3.69972616313371971408e-01) (166, 1.39014515012835845192e-02) (167, 2.74308994412422180176e-02) (168, 2.33132554866529684290e+00) (169, 3.95167219076378861686e-01) (170, 7.21956931447932492851e-01) (171, 1.33298390262886190527e+00) (172, -5.64283596770436823853e-01) (173, -2.48421937936592529539e+00) (174, 3.91634314099075009352e-01) (175, -6.02904061442042782382e-01) (176, -3.71618689557669412693e-01) (177, 5.32978204216980389063e-01) (178, 1.15790314379221229157e-01) (179, -8.45790012560084236704e-01) (180, -1.60185878954330807034e+00) (181, 1.25615141362241389267e+00) (182, -5.55680023955105073519e-01) (183, -7.53063691837188353695e-01) (184, -1.06521029871495120922e+00) (185, -8.01428653131786017383e-01) (186, 9.04865406965309065912e-02) (187, 3.69386226391827998672e-01) (188, -1.86473448442895345378e-01) (189, 1.10567944904129156214e+00) (190, 4.12417396605535724330e-01) (191, -1.50341128800713019764e+00) (192, -7.61765834963789467693e-01) (193, 8.24920035584345456847e-01) (194, -1.10478546918825104584e+00) (195, -1.58919053323268000266e-01) (196, 7.59109126144659890345e-02) (197, -1.45209432261331339298e+00) (198, 9.26699561836730745235e-01) (199, 7.80938845122072455851e-01) (200, -9.41754560868895973513e-01) (201, -1.87234426907805628915e+00) (202, -4.94705937128009642922e-01) (203, -1.63616598741216612289e+00) (204, -9.11486639375075791136e-01) (205, -9.57515964869011915184e-01) (206, -2.97248554933300435099e-01) (207, -8.88386473989422165154e-01) (208, 3.68229552664579407040e-01) (209, -3.78245464315721369175e-01) (210, 4.43947468255366906043e-01) (211, 4.75570897004812087605e-01) (212, -3.09052711190868689695e-01) (213, -5.00423709465539490182e-01) (214, -7.81696401421391517950e-01) (215, -1.05720011863754304038e+00) (216, -1.65717313750668088224e-01) (217, -4.75574561904152481873e-01) (218, 9.72747691332423225496e-01) (219, 8.39658099173777872082e-01) (220, 2.11977224369807766557e-02) (221, -1.17823987095490662069e-01) (222, -1.59125048109688460585e+00) (223, 8.56585727805124541590e-01) (224, 1.00444284426166308144e+00) (225, -2.57418952745543494487e-01) (226, -1.54369994481641081840e+00) (227, -6.86497025732633381345e-01) (228, 5.39828848710942194034e-02) (229, -1.26321405874817993542e-01) (230, -3.17721822200507819645e-01) (231, 9.94136893657210030106e-01) (232, -5.86617977723070893603e-01) (233, 2.27864617840782351932e-01) (234, 5.88594580717038184936e-01) (235, -6.25300460779843803039e-01) (236, 7.30090804984587227189e-01) (237, 2.01620784586372635283e-02) (238, -3.75500649428921473572e-01) (239, 2.11460163239685394743e+00) (240, -2.53482305592530321459e-02) (241, 4.81307191266164169363e-01) (242, 9.03116451902227446169e-01) (243, -3.38184561531728100636e-01) (244, 1.08493427113902884962e+00) (245, 1.00975381625158333598e+00) (246, 1.76954215355721006242e-01) (247, -8.09131059060841234531e-02) (248, -1.07684007777831958208e+00) (249, -7.74292111812112993086e-01) (250, 2.98408145416180936582e-01) (251, -2.50760118664266229427e-01) (252, 7.18076266351452718872e-01) (253, 6.91541948239964954226e-01) (254, 4.60411419984675385209e-01) (255, -2.72961630951466915906e-01) (256, 1.23649652678060120725e-01) (257, -7.58031181641339424360e-01) (258, 2.95350270060949826600e-01) (259, 2.07234828319691699594e-01) (260, 5.68724176740832976229e-02) (261, 4.37664120856649963009e-01) (262, -1.50784576089764088547e-01) (263, -5.37629440018258242251e-02) (264, -3.55947331182931925309e-01) (265, 2.10872217629471031541e-01) (266, -2.76942404993886059916e-01) (267, -4.32996583611961582960e-01) (268, -2.01517580602110751853e-01) (269, -6.45085700909530435077e-01) (270, 3.85401406922920353182e-01) (271, 1.08860669688299188662e-01) (272, -4.19026031323139369622e-01) (273, 2.00732343748339397971e-01) (274, 1.21417455928922099484e-01) (275, -8.12673234547535039418e-01) (276, -2.06172012017568385966e-02) (277, -4.05398441090131567144e-01) (278, -2.65371571928942673324e-01) (279, -7.71089218831181311131e-01) (280, 5.24783777802936279855e-02) (281, -3.06603202933420526666e-01) (282, 9.47109522623415966969e-01) (283, 8.15452585606648953920e-03) (284, -1.28516004321554078160e-01) (285, -4.88176065151775528950e-01) (286, -6.20175945265707295739e-01) (287, -1.07964003469023617221e+00) (288, 1.29599986777221565237e-01) (289, -5.42549991288602928563e-01) (290, -9.47180054773982676997e-02) (291, 5.06334053594384159158e-02) (292, -8.79796155068511276376e-02) (293, -6.50252468570182928786e-01) (294, -4.88137023209761905518e-02) (295, 5.88603440658317045298e-01) (296, -3.32994645888773310727e-01) (297, 2.67246512350465592611e-01) (298, 3.70848467764318345807e-01) (299, 3.68542905199002124306e-01) (300, -1.88971201993413412401e-01) (301, 1.46975965129262725606e-01) (302, 9.79191938256998128942e-01) (303, -2.73353479697885926036e-02) (304, 2.31220717418675392185e-01) (305, 2.67118699049054997285e-01) (306, 1.65363941462245284120e-01) (307, 8.25191259560234091630e-01) (308, 5.77612663890587851867e-01) (309, -1.95252597534946475966e-01) (310, -5.07116926733657713555e-01) (311, -1.35129163528397566729e+00) (312, 3.43311713367738469138e-01) (313, -2.18085902241056783790e-01) (314, -8.56063961532582129443e-01) (315, -2.95046832005755632622e+00) (0, -4.49540255671030952733e-01) (1, -6.03140434323852780985e-02) (2, 7.73676857311182075705e-01) (3, 8.53822156419707239960e-02) (4, -2.51589476512144805120e-01) (5, -1.31557079470136256694e-01) (6, -4.94517914737351294008e-01) (7, 4.46830798021450148472e-01) (8, 3.98154698142016649776e-01) (9, -4.37297411613253028673e-01) (10, 3.08365869112274926245e-01) (11, 1.71401100361932984262e-02) (12, -3.44515913631606107703e-01) (13, 3.15589837569893338909e-01) (14, -3.15339277529753214679e-01) (15, -8.62331372399029238984e-01) (16, 4.80935943316254443936e-01) (17, -2.89378136495361926173e-01) (18, -1.13008516656437241199e-01) (19, 8.17037910592830152190e-01) (20, -4.09505327920165806965e-01) (21, 2.12919610833396666383e-02) (22, 2.98132598267647375145e-01) (23, 7.00522010529610383855e-01) (24, -2.18125952294858566072e-01) (25, -2.00797997303677228098e-01) (26, -4.70603480267935525561e-01) (27, -3.29879555096446286377e-01) (28, -1.82053346618295891490e-01) (29, -7.46715201751151802512e-01) (30, 1.99117412219812633944e-01) (31, 6.01550798487347007648e-02) (32, 2.75021650818927376747e-01) (33, 7.02234021396906937795e-02) (34, 6.86957217685432275367e-01) (35, 1.26078398636099070496e-01) (36, -1.96432687561618024574e-01) (37, 5.89761860388604453043e-01) (38, -2.43496545678773435029e-01) (39, 8.30069398706824612688e-01) (40, -5.35229672990797711307e-01) (41, 4.82472405898267814317e-02) (42, -5.82485708396153323285e-01) (43, 2.37273328256253773771e-01) (44, 8.54885815153811678968e-01) (45, -3.59194742021693602663e-01) (46, -1.82114345173499975195e-01) (47, 3.89255033397799543593e-02) (48, 1.95156594217915313472e-01) (49, -1.78792075475110723293e-01) (50, -5.40550964788065968492e-01) (51, -8.63038685711899899999e-02) (52, -1.24918256673896749254e-01) (53, 2.48190922774577799048e-01) (54, -2.52903527085346080394e-01) (55, -6.64551891851230092101e-01) (56, -4.55821831393745158234e-01) (57, -5.10342017520550306209e-01) (58, 3.01091024474031521141e-01) (59, -6.55398413513794575458e-01) (60, 3.79983624326992119880e-01) (61, -5.49595417907994709950e-01) (62, 2.55963067732022875322e-01) (63, -2.45703128611576178397e-02) (64, 1.13954871543121227795e+00) (65, -2.90405541268695943646e-01) (66, -1.20642441084460028122e+00) (67, -5.84527289858465581851e-01) (68, 4.83102692319490434336e-01) (69, 2.82686228265936534410e-01) (70, -3.91905580946904141815e-01) (71, 7.23385257637359502247e-02) (72, -7.72416092795957909267e-01) (73, -4.43170645772113680483e-01) (74, 3.44163239961618683260e-01) (75, 4.40581152133736442256e-01) (76, -9.08498768099246567509e-01) (77, 1.51200893409764253184e-01) (78, -3.42832617208122969465e-01) (79, -4.43966103935530598257e-01) (80, 4.05603850520922626366e-01) (81, 6.70564294742244326741e-01) (82, -5.66706293968227914348e-01) (83, 2.14141188977210739086e-01) (84, -2.09480895994737681409e-01) (85, 9.92609880551479223376e-02) (86, -5.50510865605254640087e-01) (87, -6.54057014755312193799e-01) (88, -2.48455597345174250545e-01) (89, 4.68434740014055051027e-01) (90, -1.97081841495242160445e-01) (91, 6.18654876685590035534e-02) (92, -7.47102200262585114388e-01) (93, -1.68716721509765077425e-01) (94, -4.63188633230965596255e-01) (95, 7.38102498825806252469e-01) (96, -2.48931809508638496320e-01) (97, -2.30485819996609719862e-01) (98, 3.05870544615145067979e-01) (99, 4.36800831997186667088e-01) (100, 7.25284796268658493723e-01) (101, 7.41606981173174722999e-02) (102, -5.09654108937593774975e-01) (103, -1.51193080838679105860e-01) (104, -6.38083979008581714254e-01) (105, -8.21104682491212045647e-01) (106, 3.74487970168135064775e-01) (107, 9.98620020190419732664e-01) (108, -1.01869926871790772438e+00) (109, -1.02381061910325965592e+00) (110, -1.14450053828259501465e+00) (111, 3.99464982754923411679e-02) (112, 8.43360237061855505525e-02) (113, -1.08294676053782179537e+00) (114, 4.99221151634086479643e-01) (115, 3.87956211868749414884e-02) (116, 1.38833950029150265948e+00) (117, -3.86443686570562328075e-01) (118, -6.43512561319741216437e-01) (119, -5.12965229138081291183e-01) (120, 2.01452586621901547081e-01) (121, 1.71288328138407969226e-01) (122, -5.95865232675718448085e-01) (123, -1.06463811359026294667e+00) (124, 1.81923072890075310237e-01) (125, -6.31756313071325403818e-01) (126, 6.34665465999491695825e-01) (127, 5.64844775123148207241e-02) (128, 1.05305274815642047059e+00) (129, -1.61039402010196486259e+00) (130, -6.80872102869701234518e-01) (131, -1.02120689278900522723e+00) (132, 7.98709764543545142068e-01) (133, -1.13386801196324094043e+00) (134, -1.80867954089288263120e+00) (135, -2.50792869920812566686e-01) (136, -4.57505629437225003198e-01) (137, 1.16990028583615757185e+00) (138, 1.28377248278113409441e+00) (139, -7.11321488360381337657e-01) (140, -7.80293342964987424182e-01) (141, 1.01725879645199723811e+00) (142, 5.11406742769106359425e-01) (143, -1.87018563493383527252e+00) (144, 5.26769131730072115438e-01) (145, 1.99456539702923041357e-01) (146, -5.35525142237802009859e-01) (147, 1.46768361055737361909e+00) (148, -3.20200932095704215996e-01) (149, -6.62885708188101330229e-01) (150, 3.11113631837420190340e-01) (151, -9.67240331641827544296e-01) (152, 5.17852096752548576863e-03) (153, -6.52495552267602252350e-01) (154, 6.36744827441067529072e-01) (155, 2.24203732149055277867e-02) (156, 2.09988772477418178530e-01) (157, 1.33233369078349206394e-01) (158, -8.58354776143820386025e-01) (159, 1.73554316744478231982e+00) (160, 1.40548279314266544304e+00) (161, 5.40169588331492644961e-01) (162, -1.40135799505899427686e+00) (163, -1.07911822310674221370e+00) (164, -2.89262177283883981094e-01) (165, 4.94285676124570583223e-01) (166, -3.82627700827710623410e-02) (167, -2.42879092693328857422e-02) (168, 2.91181899216240713812e+00) (169, -1.93762676245463644209e-01) (170, 1.05426068600718592094e+00) (171, 2.35026030666779606193e+00) (172, -8.64354256052926150922e-01) (173, -8.28487159240962056650e-01) (174, -2.92152911042346419279e-01) (175, -4.13955362719471808841e-01) (176, -1.67873786323903068096e-01) (177, -5.40967242710406637229e-01) (178, -4.61763144163435945710e-02) (179, -1.46099752837464014199e+00) (180, -1.18531461132423077132e+00) (181, 1.12792315955114585968e+00) (182, -2.94484166409636427542e-01) (183, 1.45659733899307280991e-01) (184, -1.27292627366939981037e+00) (185, -2.57373732152051448718e-01) (186, 7.87953955325098931439e-01) (187, -1.19604097377622986542e+00) (188, -8.44168621047835104898e-02) (189, 1.56008735286391808650e+00) (190, 5.96434821497403011570e-01) (191, 1.05746736471727675877e+00) (192, 5.98232775018229689934e-01) (193, -7.37988060947376789400e-01) (194, -1.70791320212389230448e+00) (195, -7.85700784665911089455e-01) (196, -3.87870555772126812677e-01) (197, -6.14702492721531448816e-02) (198, -1.01934334087139769065e-01) (199, 8.03894777190091947006e-01) (200, -7.55824752053331216928e-01) (201, -2.35199761808372898031e+00) (202, 2.12137952927335593500e+00) (203, 1.05442901359646623582e-01) (204, -1.86638472827962775824e+00) (205, -3.55879227802426978400e-01) (206, -2.25912578229425786702e-02) (207, 7.55681196417000822230e-01) (208, 9.08101243144102815430e-02) (209, -1.54662776406683744046e-01) (210, 1.83177789326317808083e+00) (211, 6.16397592573521890813e-01) (212, -1.23766882254590449008e+00) (213, -2.88125937709221291438e-01) (214, -5.58798881483353881983e-01) (215, -1.44815395670822821828e+00) (216, -8.30875404932790995183e-01) (217, 4.93782585875627122451e-01) (218, -8.28385587212425167358e-02) (219, 1.36256922672877645031e-01) (220, 1.86384699568710593409e-01) (221, -3.18371766338187534018e-01) (222, -2.68080154367520462344e+00) (223, 4.37431340687783998256e-01) (224, 6.79737698043120230906e-01) (225, -9.29252085754597723088e-01) (226, -1.16130891588887541488e+00) (227, -4.21144725364291871994e-01) (228, 6.26502471272913363798e-01) (229, 1.40249259570597639701e-01) (230, -3.07954310124086694245e-01) (231, 1.88409348878860960497e+00) (232, -2.02508261180963766712e-01) (233, -7.75793288585422714798e-03) (234, 1.67380132441380669039e-01) (235, -3.79108564539018089157e-01) (236, -1.03051985136482993077e+00) (237, -2.98839848411052599886e-01) (238, -2.41998417455631831263e-01) (239, 7.81394944762726528786e-01) (240, 6.94642493176280240164e-01) (241, 3.01903533053669126396e-01) (242, 1.18596446949051803621e+00) (243, -1.18476195412770679560e+00) (244, 5.64566428010540577453e-02) (245, 3.22235829078708957418e-01) (246, -1.51499012588862141948e-01) (247, -1.51789790773766031240e-01) (248, -5.53942770940064943552e-01) (249, -4.16529913750969982278e-01) (250, -1.44283617961008248098e-01) (251, -4.86020294164927063596e-02) (252, 2.13657124567410017235e+00) (253, 4.85057193696482424894e-01) (254, -7.22799194386638088616e-01) (255, -1.55973139149991418817e-01) (256, -6.81016146953884349280e-01) (257, -9.17345507780921165519e-02) (258, 6.03524970683141592787e-01) (259, -5.26034883335004921356e-01) (260, 4.17799149230998367877e-01) (261, 1.16519249414150083410e+00) (262, 6.75705749825673995801e-01) (263, 5.13439720011634292973e-01) (264, -6.04587137374623662112e-01) (265, -4.45996650475374845080e-02) (266, 7.36890333183977230824e-01) (267, -5.52027738083570640448e-01) (268, -2.50002483906227090937e-01) (269, -1.38922666738316591406e+00) (270, -1.48841774909786561665e-01) (271, 1.32758472280411621291e+00) (272, -3.28013067940173208559e-01) (273, 5.92650572452035340199e-01) (274, 5.30370669975248398842e-01) (275, -8.46049434515884657415e-01) (276, 4.16528617111654730909e-01) (277, 1.37430937005181500604e-02) (278, 1.54274331868474501306e-01) (279, -3.65783309121494384919e-02) (280, 1.98266406659736771356e-01) (281, -6.84527924172521617940e-02) (282, 7.37318751310359510320e-01) (283, 6.10641614148275668761e-01) (284, -3.10489078558568110111e-01) (285, -1.11887916292514533190e+00) (286, 9.33456374746578637636e-02) (287, 1.51839762651304027719e-01) (288, -1.28294611726764512527e-01) (289, -1.59784674950057192788e+00) (290, -1.77842882495438070478e+00) (291, -3.16123235199566643416e-01) (292, 8.99520103193630626848e-01) (293, -6.93701939444541282320e-01) (294, 1.90294113470521608633e+00) (295, -5.32759055454100696747e-02) (296, -4.25767337275959167897e-01) (297, 5.94203828306824166638e-01) (298, -5.11282902575897701958e-01) (299, -6.58842962587890323967e-01) (300, 6.49194131692787668175e-02) (301, 3.89697178401486488131e-01) (302, 4.93659795706659798586e-01) (303, 1.08814506432744018127e+00) (304, 7.46790463349025324113e-01) (305, -2.84556421253815194916e-01) (306, -1.43938490277115871407e+00) (307, 3.44257294363047861019e-01) (308, -1.96228060942199383776e-01) (309, -1.52078628163818535546e-01) (310, -4.39181477596919167539e-01) (311, -3.24835375471938747616e-01) (312, 3.59252696545687255636e-01) (313, 5.76636309247042344595e-01) (314, -1.00897924287222617856e+00) (315, -2.54800528693355632370e+00) (0, -6.84386070405918617299e-02) (1, -1.03969109247883495506e-01) (2, 4.19181951325814164400e-02) (3, -1.09282908005671100526e-01) (4, 8.01467607793118208548e-02) (5, -3.74323905211170551710e-02) (6, -8.05374743600365539109e-02) (7, 9.93532828310459553700e-03) (8, -7.49286115951158931958e-02) (9, -7.34676534896458593993e-02) (10, -9.19128129630355505952e-02) (11, -1.06844305401717076798e-01) (12, -4.75723251929315235631e-02) (13, -1.27844394581859161636e-02) (14, -3.39461061518019080463e-02) (15, -7.11876339854962143089e-03) (16, -5.67425788003380268676e-02) (17, 5.71074168672575654959e-02) (18, -1.05641519303018446840e-01) (19, -1.44224421367775412772e-01) (20, 8.05874402535825262728e-02) (21, -9.09869185743853586823e-02) (22, -1.42774888642725972243e-01) (23, -1.30875073401273578355e-01) (24, -1.28650058205942663392e-01) (25, -1.22550941458520301630e-01) (26, -8.92604008155954420367e-02) (27, 2.56058004488730157552e-03) (28, -3.26409682779476573167e-02) (29, -1.50185214484199025531e-01) (30, -2.65502846046178145323e-02) (31, -1.22414850305628888916e-01) (32, -6.96625663993697408216e-02) (33, -1.84735860656193330576e-02) (34, -1.09484826484714969919e-01) (35, -1.10347140327996501297e-01) (36, 3.45696268269540391005e-02) (37, -3.59930281153795772475e-02) (38, -7.96727052697157045458e-02) (39, -8.07771803359675910627e-02) (40, 2.52326873041674934472e-02) (41, -8.25957764668890613569e-03) (42, -9.16393398404344583508e-02) (43, -1.34680945006189045632e-01) (44, -1.34454767552449339085e-01) (45, 2.57044101001716353283e-02) (46, 5.88257789145182202750e-02) (47, -3.05409028932011328283e-02) (48, 2.68416451924113723393e-02) (49, 2.85065950619981835212e-02) (50, -3.23803402821874197759e-02) (51, -8.09886034727259201960e-02) (52, -6.62238562362277433104e-02) (53, 2.05713390147068287545e-03) (54, -1.27039201963032224313e-02) (55, -8.61904868005595597991e-02) (56, 2.76819502017060514731e-02) (57, 1.49550390459649591018e-02) (58, -9.75853610467289356301e-02) (59, -7.16821558915122641897e-02) (60, -3.01210877213962729612e-03) (61, 2.58173151960335196808e-03) (62, -5.85620457081860168458e-02) (63, -1.85094255389059159089e-01) (64, -1.34971379936741381345e-01) (65, -4.55135120735516360280e-02) (66, -1.03802561497145298675e-01) (67, -8.43760308091057176227e-02) (68, 8.89963306975321832848e-02) (69, -1.07978256938149830280e-01) (70, -6.73501460748393843136e-02) (71, -1.48736016978707266678e-02) (72, -3.21808785042477576988e-02) (73, 7.60297509373236615055e-03) (74, -1.30649592257416957697e-01) (75, 4.74826727075300589198e-02) (76, 8.37668047878191088240e-03) (77, 5.18627674423591394914e-02) (78, -1.17126852328779784695e-01) (79, 7.54932140798037810969e-03) (80, 5.73287395247731659809e-02) (81, -3.19717896806701457058e-02) (82, -1.46615903321616558586e-01) (83, -8.24416553366847382200e-02) (84, -1.66921276514531202739e-01) (85, -9.68427924789619781754e-02) (86, 1.10138427024277698457e-02) (87, 8.99473131760009925184e-02) (88, -1.17375315174380323580e-01) (89, 3.77622079915501535075e-02) (90, -1.04184512944658816402e-01) (91, -4.52858501848042091509e-02) (92, -2.53827494558889060761e-02) (93, -1.47044220815517545642e-01) (94, -3.98029692793638381620e-02) (95, -8.15150814044635573484e-04) (96, 5.96892947265914852739e-02) (97, -1.11372094594130124912e-01) (98, 2.90847090104935680765e-02) (99, 2.06733132313116976797e-02) (100, -4.69818955764800538777e-02) (101, -1.37058259340444882346e-01) (102, -3.61586504839393613198e-02) (103, -1.49135849445984514094e-01) (104, 9.55690994987790920501e-02) (105, -1.30754004774510268483e-01) (106, -2.22423412746858249756e-02) (107, 3.77341346076802974796e-02) (108, -3.77927604405504727336e-02) (109, 3.73443390268561256629e-02) (110, 8.72103850540696320937e-03) (111, -3.09667260103951118289e-02) (112, -1.14756545558650127625e-01) (113, -3.09522636922569920059e-02) (114, -1.01270480212399233144e-01) (115, -4.35066347180090504110e-02) (116, 5.92128554310333149457e-02) (117, -8.77114074950864491820e-02) (118, -1.29015392646461245219e-02) (119, 6.26252567231432299977e-02) (120, 1.78653238030668168324e-02) (121, 4.12991163956365828214e-02) (122, 2.82737579068778992208e-02) (123, -1.31488133546003249652e-01) (124, -1.15472133348175506895e-01) (125, 1.59564274891172003246e-02) (126, -1.67776079693160828921e-01) (127, -2.69276085604427646916e-03) (128, -5.98552002990868844967e-02) (129, -1.59433292457893810434e-01) (130, -6.28910502368424106923e-02) (131, 5.95076358901900498433e-02) (132, -8.74917775750617826569e-02) (133, 1.79553100008489202599e-02) (134, 5.81389073759051092094e-02) (135, -1.63242170132180647313e-01) (136, -1.21475856927113032291e-01) (137, -4.40184068303983450782e-03) (138, 1.28695344202092054608e-01) (139, 1.27382203189176923530e-02) (140, -5.11829611472219281332e-02) (141, -9.14573295085764209622e-02) (142, -2.89147096253207259997e-02) (143, 7.98142637970776225309e-02) (144, 1.59887188063494792289e-02) (145, -8.26380187181683062252e-04) (146, 2.12655999661625662311e-02) (147, -1.31389449578179440259e-01) (148, -9.57131969921437737725e-03) (149, -2.05287220689855193223e-01) (150, -6.30411310039449973575e-02) (151, -2.21710747474296136772e-02) (152, 1.88804635865350185775e-02) (153, -5.52628383531328787326e-02) (154, -1.80642486907481580882e-02) (155, 6.58787607979052364238e-02) (156, -1.96732858524068313089e-02) (157, -1.36794945891764441193e-01) (158, -6.58119646212223102788e-02) (159, 4.10394637537206605216e-02) (160, -5.97658038163250346364e-02) (161, 9.78389608291545531671e-02) (162, -9.74242098212512591671e-02) (163, -4.55107339374564556084e-03) (164, 1.01862024160462624756e-01) (165, -6.81168786183475177820e-02) (166, 1.88427378215856762556e-02) (167, -6.33022487163543701172e-02) (168, -1.25539306897422736631e-01) (169, -6.53698260126897440214e-02) (170, -1.11006607127892370501e-01) (171, -7.76372479269981929928e-02) (172, -1.51823964401191197071e-01) (173, -8.77053472350915741540e-02) (174, -6.64060692384964013080e-02) (175, 3.96860618427473180181e-02) (176, -1.04326459181831129874e-01) (177, -7.76491453758993976919e-02) (178, -1.55406668814344513241e-02) (179, 4.77808498686300119063e-03) (180, 1.32642638650346950113e-01) (181, -5.72576088258637469486e-02) (182, -3.38716380558777493959e-02) (183, -6.56161030472223044674e-02) (184, 1.54207253588229623725e-02) (185, 6.02152927380877611707e-02) (186, -8.78842349758985758035e-02) (187, -5.61850332452843298503e-02) (188, 8.41779318069878906838e-02) (189, -7.40718373367373617011e-02) (190, 1.75567795930095700563e-02) (191, -1.18346230406803684665e-01) (192, -1.52223146968448203725e-02) (193, -7.17884504360604414064e-02) (194, 4.56717599587465414995e-03) (195, -1.60177561138807704466e-02) (196, -9.32912564692233298169e-02) (197, -6.41092691870289305145e-02) (198, -6.20053799185232429325e-02) (199, -4.78608246646833046523e-02) (200, 4.06852306307685374076e-02) (201, 1.19646472923038912906e-01) (202, 4.67022883970215352267e-02) (203, 6.88986540191511842579e-02) (204, -9.03293976441990470461e-02) (205, -8.11251924152757430964e-02) (206, -1.31538957318283900727e-02) (207, -8.93760058991306810539e-02) (208, 4.21514047318970117018e-02) (209, -4.56905018937197246465e-02) (210, -7.00645603354297930032e-02) (211, -5.68688962307946285768e-02) (212, -2.62437464318127748608e-02) (213, -1.47174887760086858801e-01) (214, -1.46475568940442918420e-01) (215, -5.35038443740432495543e-02) (216, 5.04225556308593655941e-02) (217, -1.62282422833048223243e-01) (218, -1.86175874331949743612e-02) (219, -9.65108352007940373252e-02) (220, -1.45734923682720313165e-01) (221, 6.59692636350916843113e-03) (222, 6.88760364140120345811e-02) (223, 2.57627600146706180195e-02) (224, 3.67154583841636239505e-02) (225, -5.75891025400808512225e-02) (226, -2.91604379219526296807e-02) (227, -9.41178210975694706786e-02) (228, -7.58416093863535228925e-02) (229, -1.17410771761459364892e-01) (230, 6.69459608390969851399e-02) (231, -1.48430064111323256615e-01) (232, -1.58634401970294047768e-01) (233, 4.89316086126215868402e-02) (234, -1.00112478486966596791e-01) (235, -1.71194577362419719790e-01) (236, 8.86153163572050428520e-02) (237, 2.61431467345395879276e-02) (238, -1.80975800758334970375e-01) (239, -4.95930811050956585340e-03) (240, -1.75879796385666309355e-01) (241, -1.75955812787166543387e-01) (242, -8.93264264580918981862e-02) (243, 5.76391821408182430941e-02) (244, -8.21395064536051405790e-02) (245, -8.53058140606483689128e-02) (246, 7.34106854696450483733e-02) (247, 5.72400787168848568243e-02) (248, -8.14392168653225445585e-02) (249, -8.40578746122387227002e-02) (250, -7.87336860746741112882e-02) (251, -3.46162150660335385388e-02) (252, -2.16630825710447894039e-01) (253, -1.22350921182339852922e-01) (254, -1.94861387896054716806e-04) (255, 8.17299005377117721016e-02) (256, -5.50205442216010476297e-02) (257, 8.04057655135431009752e-02) (258, -7.75414324263940385462e-02) (259, -6.44839645748294335720e-03) (260, -1.06576512610550511173e-01) (261, -1.30528011284863576513e-01) (262, -1.29030127934852995031e-01) (263, -6.54211858281019131844e-02) (264, 5.04787046475753051200e-02) (265, -4.16167929917006310103e-02) (266, -9.97088992157480619172e-02) (267, 1.57032465452401695516e-02) (268, -1.23741682071913411400e-01) (269, -6.88294125187123295717e-02) (270, -8.96175563443309258771e-02) (271, -9.68356019147523089385e-02) (272, -5.10863391460616364514e-02) (273, -8.56689795831448303032e-02) (274, -1.50987374095911647265e-01) (275, -4.02945127442540657059e-02) (276, -1.71982908692724263677e-02) (277, 4.53591565973424093450e-02) (278, -2.43248318959084774971e-02) (279, -1.00750301500843963964e-01) (280, -1.05923906648332982749e-01) (281, 2.20152543937435184185e-02) (282, -2.34382625758222801204e-02) (283, -7.07667770322111949755e-02) (284, -8.39106030774264266547e-02) (285, -1.24329987015931786587e-01) (286, -8.08224647016153041612e-02) (287, -3.21582400798939155306e-02) (288, -1.24976309147851794012e-01) (289, -3.19895518068857506733e-02) (290, 1.31749692265311778468e-03) (291, -1.14185139753252062889e-01) (292, 1.62556190584975217284e-03) (293, 4.52569862438006800809e-02) (294, -9.76242362905551108732e-02) (295, 4.82850829772524508393e-03) (296, -1.70795649577786590179e-01) (297, -3.37003797645770569735e-02) (298, -2.51230833210637667652e-02) (299, -1.19022690680484141690e-01) (300, 1.83501684440769523288e-02) (301, 4.71913465473120380400e-02) (302, -8.01947178405087446329e-02) (303, -4.48600384293120074686e-02) (304, -3.73471793950974628729e-02) (305, -3.60703818757167754550e-02) (306, 2.93310714718745535468e-02) (307, -1.51915929810516742160e-01) (308, -5.78021985664809861971e-02) (309, -1.21461511908208974475e-01) (310, -1.17835742313727925845e-01) (311, 1.17560385736994746364e-01) (312, -1.39177893654266804369e-01) (313, -7.76964836270493518916e-03) (314, 2.34631214917269126374e-03) (315, -1.38366457028791661754e-01) (0, -5.13229151189496413110e-01) (1, 7.79105597188360587957e-01) (2, -1.75146968907084976674e-01) (3, -8.30797861937225719242e-03) (4, 2.08291503501450064872e-01) (5, -3.04955543254347427595e-01) (6, 5.84104892944811382449e-01) (7, 1.95366294154609675127e-02) (8, -2.68384394776884083189e-01) (9, -6.53779744844024901518e-01) (10, 8.95539395719116226857e-01) (11, -3.32054083713963360536e-02) (12, -4.18930183004434408822e-01) (13, 2.65785849363961490521e-01) (14, -4.34157791975019580200e-01) (15, 5.84935045630603056566e-01) (16, 1.77332842666171636159e-01) (17, -5.32571029575814591794e-01) (18, 2.96433893357902045196e-01) (19, 2.95921777636510341392e-01) (20, -1.71258128472836523848e+00) (21, -1.04317677283876952821e+00) (22, 8.24991841560622995999e-01) (23, 2.25301354799119224470e-01) (24, -3.84642146553004327103e-01) (25, -3.16869528206289774452e-01) (26, -8.55733187333724831802e-02) (27, 6.33914724566555953800e-01) (28, 4.56276971134091768878e-01) (29, -8.89683751997626393049e-01) (30, -1.03672319892726561008e+00) (31, 2.36976292421853973469e-01) (32, -2.33241331283738834168e-01) (33, 2.80948873781130814553e-01) (34, 2.76521832077398721506e-01) (35, -7.12124161817190848289e-01) (36, 4.35335719732297954376e-01) (37, 1.87169661277978210956e-01) (38, -3.28598136786434458223e-01) (39, 2.09013697189338543136e-01) (40, 2.87908360366209759018e-01) (41, -1.28303896956665686169e+00) (42, 1.58019819474250096392e-02) (43, -3.38668745071330268281e-01) (44, -1.39198243666437265764e-01) (45, -4.03551211356107941697e-01) (46, 5.70133415948987434807e-02) (47, 1.28572876753278358963e-01) (48, 1.90061414635215114588e-01) (49, 1.76241022836679167574e-01) (50, -3.99724964777399480176e-02) (51, -1.21927843125227211574e-01) (52, 3.29980782053303112189e-01) (53, -3.19900955608328485535e-01) (54, 6.84524296225001993577e-01) (55, 1.06719398178939295363e+00) (56, -4.96725629211106300964e-01) (57, 8.25501689618117096003e-01) (58, -9.03177126847758485195e-03) (59, -6.55958876759788755972e-02) (60, 7.13224288029948416678e-01) (61, 1.28480996780871492557e-01) (62, -1.02807816634378879073e+00) (63, -1.85600944087824445972e-02) (64, -3.51851743414778095342e-01) (65, -2.35026297200116203456e-02) (66, -2.60610151115043431336e-01) (67, -1.34929160426705191389e-01) (68, 2.74047613340664186765e-01) (69, -6.89361048806634735264e-01) (70, 1.71739238291122003899e-01) (71, -7.62406025621888638888e-01) (72, 2.69061215808189702070e-01) (73, 4.54152452157426778090e-01) (74, 7.69944125692092889990e-02) (75, -1.30785285343686386028e-01) (76, 1.48922563875976937675e-01) (77, -3.57111340853863645783e-01) (78, 1.34095373970322256918e-01) (79, -3.34930009582793841716e-01) (80, -6.11199677997727897072e-01) (81, 6.34839852557544048750e-01) (82, -4.00892406346557261809e-01) (83, -9.36945189845184489563e-01) (84, -3.51553315673565236477e-01) (85, -2.08072120136742227947e-01) (86, 2.12177622286161271514e-01) (87, -1.20761312330584313912e+00) (88, -3.27370999501939763388e-01) (89, -3.25515580571971163693e-01) (90, -7.18902088344135714593e-01) (91, 2.29492587557511118490e-01) (92, -9.59205661351080762778e-01) (93, 2.88783228535059499631e-01) (94, 3.63093153766855025744e-01) (95, -8.92170088395032728767e-02) (96, -3.96453255406812310468e-02) (97, -3.89812702671636257534e-01) (98, -7.51956285379289601778e-01) (99, -8.78122615717667753810e-02) (100, -3.38264754603211717510e-02) (101, -1.53479576076077051106e+00) (102, 2.53836120555628930173e-01) (103, -6.30441333043924356794e-01) (104, -5.73867507810894239562e-01) (105, 1.43436471881036503584e-01) (106, 3.10895497087088135135e-01) (107, -5.00446169786605943308e-01) (108, -5.44953531583953432182e-01) (109, -6.98908892090871924907e-01) (110, -8.06565211408102555879e-01) (111, 1.55600305109374666829e-02) (112, 5.90351873229716828106e-01) (113, -6.81429915909794514661e-01) (114, 4.77810430893983673073e-01) (115, 1.57590615371705544678e-01) (116, -5.64910562563572193895e-01) (117, 9.62113441914057981874e-02) (118, 6.37935076731291905716e-02) (119, -1.11683350242129320051e+00) (120, 5.19644785401769615518e-01) (121, 4.64814357573226144549e-01) (122, -9.49579004675235927024e-01) (123, 5.61451167262832173677e-01) (124, 9.31430165670884546714e-01) (125, -8.41207242451318532028e-02) (126, 5.32095933427116696279e-01) (127, -1.07814496963969372323e-01) (128, -2.60928101509426857429e-01) (129, 9.36041385992125052340e-01) (130, -8.98092836622119805590e-01) (131, -5.65858375941411084753e-01) (132, -2.24499456629109694905e-01) (133, 1.44102528464075847758e-02) (134, -1.50246735280922166789e-01) (135, 1.31070063185252216886e-01) (136, -9.51925286917516405572e-02) (137, -3.83980615315307582947e-01) (138, -6.69601373407262556725e-01) (139, 1.01997085472694681840e+00) (140, -5.38634435072874340200e-01) (141, -6.08006560753099403738e-02) (142, -4.41852890126803565796e-01) (143, -7.17684068487704940331e-01) (144, 1.32495893343980752910e+00) (145, 5.94125107191805446050e-01) (146, -1.96080260642121112502e-01) (147, 2.25464019170939256043e+00) (148, -7.30621696046559576665e-01) (149, -1.81232826337834856956e-01) (150, 7.73814836117903137591e-01) (151, 8.58537564629212324174e-03) (152, -7.63198457180811695721e-01) (153, -5.07229518111197874575e-01) (154, 8.56316206708798821623e-01) (155, -2.91250756661599774500e-01) (156, 5.17331884270432640349e-01) (157, 7.51358630920160308619e-01) (158, -1.72877118116242489698e+00) (159, -3.13487259042305288492e-01) (160, 1.94443963383700041403e-01) (161, -8.28997545820893688706e-01) (162, -4.89452521287775665915e-01) (163, -2.61566506277732591101e-01) (164, -2.60918007722454325936e-01) (165, 7.66861969330242865261e-01) (166, 3.28929950984850116846e-01) (167, 6.25211074948310852051e-02) (168, 1.31782370111242252975e+00) (169, 4.87008880372993668839e-01) (170, -2.60527936486187794429e+00) (171, -4.17909332080380446772e-01) (172, -2.58372563925196252477e-01) (173, -9.69942739871869075152e-01) (174, -6.43488079356702713518e-01) (175, 1.02730089639550170588e+00) (176, -1.24845766924439716128e+00) (177, 9.19727239726167766776e-01) (178, 1.77768327470278070246e-01) (179, -7.45851466696953679936e-01) (180, -9.59129621476013327630e-01) (181, -4.03358623990781664514e-02) (182, -6.27958910196474429100e-01) (183, -1.24488389224946449652e+00) (184, 4.81635070486736371898e-01) (185, 3.65022370428919815111e-02) (186, 4.01868136565529388005e-01) (187, 1.44830576786865422578e-01) (188, -5.94442996943503887408e-02) (189, 1.58194611644119587091e+00) (190, 6.11342692813006016728e-01) (191, -1.39861301352889721983e+00) (192, -6.67506838121917078777e-02) (193, -6.54084987298072739748e-01) (194, -1.41342258855719382638e+00) (195, 5.60844283369557397578e-02) (196, 6.64196374059296656966e-01) (197, 7.50483312492507326219e-01) (198, 3.67850210937216981488e-01) (199, 6.28121752877860206610e-01) (200, 6.63176166814840040153e-01) (201, -2.51560693225254050631e+00) (202, 2.88830310707057447139e-01) (203, 6.69232710331830737971e-01) (204, -1.20560257718230867674e-01) (205, 3.36398430713559348781e-01) (206, -3.85786728041765614172e-01) (207, 6.82660637787996460446e-01) (208, 7.00133625304095730257e-01) (209, -1.41855777021660967030e-01) (210, 1.70737404108573653794e+00) (211, 3.85243569047305611797e-01) (212, 5.31225765413175676777e-01) (213, 7.77141398963470120265e-01) (214, -9.91154658602531379863e-01) (215, -2.66518486624304384858e-01) (216, -3.43938947957749763251e-01) (217, 7.78840719824107352576e-02) (218, 9.21166485470121698675e-01) (219, 4.82881917202869770378e-01) (220, 1.30185446998745479874e+00) (221, 1.45390216069283662037e+00) (222, -1.61717207730967849066e+00) (223, 5.73006162389850914884e-01) (224, 9.54946895740026224786e-01) (225, 3.83119761216296978237e-03) (226, 5.20357713700671187240e-01) (227, -1.12428108458640463319e+00) (228, -7.44368322513508720584e-03) (229, 1.23303675418985814183e+00) (230, -1.36882219173533603573e-01) (231, 2.01614037702628978721e+00) (232, 7.62940701364953843822e-01) (233, -1.84047207508003207721e+00) (234, -8.20635753655427624409e-01) (235, -5.63427507643886604782e-01) (236, -2.77523183507387638524e-01) (237, 2.06861239059744989044e-01) (238, 9.99675318415561564578e-02) (239, -3.19959466964190197835e-01) (240, 1.53506153478447826544e+00) (241, 8.18343794906394306210e-01) (242, -6.13235724397830805898e-01) (243, -1.62456714773448096523e+00) (244, -9.77894987375783342198e-02) (245, 1.38284935387048141253e-01) (246, -8.46526616119418207074e-02) (247, -1.40514627201436093085e-01) (248, -1.11252383422728629014e+00) (249, -4.49052921774034229790e-03) (250, 1.46599511483101530018e+00) (251, -3.03897663403617623867e-01) (252, 5.69242889628129078439e-01) (253, 8.32013712294164320404e-01) (254, -1.49564295250118473035e+00) (255, -1.46608980372948005666e+00) (256, -4.91548340290256180474e-01) (257, 3.86779857052407083362e-01) (258, -4.18566236954885373400e-01) (259, 3.85939213226108190913e-01) (260, -4.11236723577900475934e-01) (261, 1.23528160676539777718e+00) (262, 1.06652553366675451052e+00) (263, -5.67217830097487940577e-01) (264, -1.00182380324128827986e+00) (265, -9.13076399433803032046e-01) (266, -7.43940838463846731976e-01) (267, -1.32680582817218534197e-01) (268, -1.30387731122912509107e+00) (269, -1.03948580516300137511e+00) (270, -1.91078251106414798155e-01) (271, -1.25993117545108918032e-01) (272, -5.83283659545166033311e-01) (273, 3.70925952370706135675e-01) (274, 3.70801720718654456710e-02) (275, -6.31587578373432934065e-01) (276, 1.24700193104022541424e-01) (277, -5.13618733485188480592e-02) (278, 8.67620180734748447371e-01) (279, 9.93658273004615483215e-03) (280, 3.13229399394514662625e-01) (281, 5.15744701373524905286e-01) (282, 7.09384525877183258480e-01) (283, 3.62691908702624743466e-01) (284, 7.23561099859344886154e-02) (285, -1.64329054121115536446e+00) (286, -2.58238198114535355554e-01) (287, -2.62303497894420152570e-02) (288, 5.49291735294999347583e-02) (289, -1.04729107399620025021e+00) (290, -1.13338748629492114262e+00) (291, -3.40281887937239485575e-02) (292, -4.84305229998766517685e-01) (293, -9.50981686197180819953e-01) (294, 1.30982883688185891558e+00) (295, -3.18181571178574040815e-02) (296, -3.28418440961899399388e-02) (297, 4.37018130564231555013e-01) (298, -2.34388697650965399655e-01) (299, 2.26537540938648029876e-01) (300, 3.80623326983520526845e-01) (301, 3.60242865772126608093e-01) (302, -5.03907050389256205847e-02) (303, -1.04612011755059464146e-01) (304, 8.05540179447870041685e-01) (305, 4.04459790614879688420e-01) (306, -8.66097477882886046530e-01) (307, 6.39847734728285044703e-01) (308, 1.98550171945762660153e-01) (309, -2.34259999975441890463e-01) (310, -4.19192268737505036036e-01) (311, -1.14373839883500361125e+00) (312, 1.92838550707925077132e-01) (313, -1.43084352166863076894e-01) (314, -1.24562112768111865613e+00) (315, -1.64275231465563176236e+00) (0, 3.86076382899438352858e-01) (1, 8.57267213481969353461e-02) (2, -4.60723757118515930831e-01) (3, 1.81865324402860323305e-01) (4, 1.32165698007561588367e-01) (5, 2.68001568068695517066e-01) (6, 5.54680613309132472533e-02) (7, 2.13880784152322173108e-01) (8, 2.06253897820855874867e-01) (9, 6.17457301155172832985e-01) (10, 4.84497049926544742782e-01) (11, -1.33655211525462891409e-01) (12, -2.65149915756479670481e-01) (13, 1.29316394238730425492e-02) (14, 2.28502252644073783339e-01) (15, -8.89248813560229334207e-01) (16, -2.29194082856108122259e-01) (17, -4.10693787999006021394e-01) (18, -2.49988128403831860735e-01) (19, 1.39245053134109703086e-01) (20, -2.66024568177526732349e-01) (21, 1.03897251382176847301e+00) (22, 9.65044208863521935093e-02) (23, 5.22930448470840580910e-01) (24, 6.04748164029283996612e-01) (25, -5.14183986593962250033e-01) (26, -6.76355262707017956814e-02) (27, 1.93419574360508050859e-01) (28, 3.55147094239886551570e-02) (29, 6.42648921006135076528e-02) (30, -2.94962884253056834005e-01) (31, -4.65282516612562591085e-01) (32, 1.50955879656310298920e-01) (33, 4.53049152264963950199e-01) (34, -8.26963254491617366648e-02) (35, -1.55429164656822587504e-02) (36, 1.56751642548571851199e-01) (37, 1.51235520514925420033e-01) (38, -3.95076853819164991455e-02) (39, 3.75329562795161109090e-01) (40, 4.56602342687008999622e-01) (41, -3.81603167957912547958e-01) (42, 5.90015818883913634174e-01) (43, -3.10704756739751064565e-01) (44, 2.31684094493290471117e-01) (45, 5.38236485359623983982e-01) (46, 2.91218299205567576760e-01) (47, -1.15392346074781756982e-01) (48, 5.58418393613106384121e-02) (49, 5.56359244047712087067e-01) (50, -4.42241590241806495354e-02) (51, 3.84800846098589222066e-01) (52, 4.93335478334481214446e-01) (53, 5.99223656140809510240e-02) (54, -1.08074566582698916584e+00) (55, -1.30676299896096886899e-01) (56, -1.70078116381490229703e-01) (57, 2.54105524564150309086e-01) (58, -4.28411694172481261056e-01) (59, -7.08544658254419978949e-02) (60, -4.15240580353889443543e-02) (61, 3.06082435367486915823e-01) (62, -1.75742059936411898491e-01) (63, 4.08271263489748625908e-01) (64, 4.80258717460741335614e-01) (65, 1.60510486095950255514e-01) (66, 8.66364282366234583765e-02) (67, 4.48671544939054256496e-01) (68, -3.78441390608427241649e-01) (69, -8.09684272822694568739e-03) (70, -5.28982029784159646368e-01) (71, -2.22992863618219405719e-01) (72, 1.66733891847407528219e-01) (73, 1.71160608218483861753e-01) (74, -1.04180265298747243286e-01) (75, -7.71290874021298811236e-01) (76, -3.19154278500474508640e-01) (77, -5.24053786312937905367e-02) (78, -7.23095177384182941083e-01) (79, -7.39511318513744297931e-01) (80, -8.88037569762056722134e-01) (81, -1.70330110640272175404e-01) (82, -1.69547708046197731502e-01) (83, -1.48124792985345477003e-01) (84, -1.25654621168252211838e-01) (85, 4.73225409195954405117e-01) (86, -5.17087003096288300164e-01) (87, 9.46235638396739409117e-01) (88, 3.42623834377753622160e-01) (89, -3.85436293607448812737e-02) (90, 2.69249311911370046990e-03) (91, 2.07702978195873355638e-01) (92, -9.34262831227402196221e-02) (93, 1.05803961131869350698e-01) (94, -5.94411507424500218377e-01) (95, -5.89875338764767165323e-01) (96, 3.89941954534833712387e-01) (97, 9.29031716778778271504e-01) (98, 2.29994739452543117686e-01) (99, -3.32129978609219222996e-01) (100, -6.97574105668278932058e-01) (101, -2.65492034206070037783e-01) (102, -2.15880988891125807916e-01) (103, -2.60922263621959638069e-01) (104, -4.50412216905667836531e-02) (105, -1.76480130933998641263e-01) (106, -1.53022616726943144760e-01) (107, 8.46397705143988932086e-01) (108, -5.45328586570177908932e-02) (109, -4.56436316265204145015e-01) (110, 6.05436403364869812904e-01) (111, -2.21194532060842413701e-01) (112, -2.36243640737882870662e-01) (113, 9.45284580815491243255e-02) (114, 4.31068068985426475215e-02) (115, 2.78741565307443137089e-02) (116, 6.59755934637752838867e-01) (117, -3.94686549866375468998e-01) (118, 9.27148706965400387636e-02) (119, -1.63560811020517060665e-01) (120, -6.92341074936490136205e-02) (121, 7.25887092418283419448e-01) (122, 4.57867632504197694110e-02) (123, -6.58855778655835555568e-01) (124, -3.09163149038561291260e-01) (125, 1.11855797383218255603e-01) (126, 3.65015422815837820014e-01) (127, 1.34733748784474727245e+00) (128, -1.02485171359490379039e+00) (129, -2.94876010172503311146e-01) (130, 3.21784927627084993418e-01) (131, -7.74294995193760438035e-01) (132, 7.30135121528022873472e-02) (133, -4.61207845849003428285e-01) (134, 8.25712184616622546507e-01) (135, 5.88545383014641432240e-01) (136, 6.72312011107481399819e-01) (137, -9.20448052261985671940e-02) (138, 1.18817410815278301506e+00) (139, 4.94867385310996832359e-01) (140, 5.56468918809153723082e-01) (141, -1.42376861222257317108e-01) (142, 3.13115502408984835991e-01) (143, -4.06417516162856540252e-01) (144, -1.82236719817880393757e-01) (145, 5.26550846539577607763e-03) (146, 9.36404471217767431224e-02) (147, -2.30581709125060152488e+00) (148, -4.81932623086285150116e-01) (149, 1.42236925218191379017e+00) (150, -1.75311980726744143233e+00) (151, -4.75983570089352325816e-01) (152, 2.99705415133931962757e+00) (153, 1.07008943662163757971e+00) (154, -8.73146807512011458030e-01) (155, -3.69671934281806113809e-01) (156, -6.13267742299563822783e-01) (157, -1.35887802376487609735e+00) (158, 8.24224501496502948150e-01) (159, 2.54602009005550578014e-01) (160, -5.56654596961005498912e-01) (161, -3.42629176224495457515e-01) (162, -8.07832395236228184565e-01) (163, -4.72685840502203913349e-01) (164, -1.37227131701304161382e+00) (165, -4.45442306769373297382e-01) (166, -9.07347057470511808575e-01) (167, 8.52996185421943664551e-02) (168, -4.92188430421523770431e-02) (169, 1.21769060586440125427e+00) (170, -4.35666482890081308010e-01) (171, 1.40375117777446045686e-01) (172, 1.16352485038870390177e+00) (173, -8.63150787884105485936e-01) (174, -4.67516700587649547405e-01) (175, 5.92767435311043033863e-01) (176, -3.67989581189457737320e-01) (177, -2.31510721018626325352e-01) (178, 5.12672369918726666960e-01) (179, -7.76315787799945145053e-01) (180, 5.35533454577738377012e-01) (181, 1.44797889723510986304e-01) (182, -6.16438019611689980159e-01) (183, -1.07982985856937885316e+00) (184, -7.37167892930416512876e-01) (185, 4.33454532573964546049e-01) (186, 5.75262406378501678361e-01) (187, 3.11126032884079806173e-01) (188, 3.48157913711280575519e-01) (189, -1.07893562796320319208e+00) (190, -6.06671738852982866952e-01) (191, 6.19403677203007374530e-01) (192, -3.87207187038925038092e-01) (193, -7.55114514897583077868e-01) (194, -5.76894757097741406326e-01) (195, 8.64251932601011185753e-02) (196, -3.65035935777316355999e-01) (197, 6.41907025407040476850e-01) (198, -3.30349100407624884923e-01) (199, -6.20967300873360605884e-01) (200, -5.39681763010963766458e-02) (201, 1.56152684343741876560e+00) (202, -6.71670527378918191808e-01) (203, 3.81414743345411033637e-01) (204, 7.96208744550344071911e-02) (205, 6.19621955104226240785e-01) (206, -9.02260108773030450324e-02) (207, -2.55033094926417736037e-01) (208, -4.84781746435340304968e-02) (209, -3.44784752725374732396e-02) (210, -6.59728038514306613926e-01) (211, 8.22054812464213968681e-01) (212, -3.30099782416101328320e-01) (213, 1.13122067935963577234e-01) (214, 2.06101440990201445480e-01) (215, -2.46325196621922037910e-01) (216, -1.09701631090842388616e+00) (217, -3.42064860456957831047e-01) (218, 6.82807839703478247628e-01) (219, 4.21446132409393714457e-01) (220, -1.48789933927535034108e-01) (221, -6.91851162392874030616e-01) (222, 6.64856171869452117207e-01) (223, -5.51131052584875491540e-01) (224, -7.87650732280240406524e-01) (225, 1.02030687222461696750e-01) (226, -1.35988144393455440140e-01) (227, -1.00915596195177731387e-01) (228, 6.01567070400702119670e-01) (229, -8.99296546896814374961e-01) (230, -1.28708301335853675385e-01) (231, -4.42611202852403531893e-02) (232, -5.77913892474420931578e-01) (233, -2.95853779624325075037e-01) (234, 3.06633353069289071868e-01) (235, -3.86188609866215531996e-02) (236, -1.58370071574515325352e-01) (237, 1.90519057020075488484e-01) (238, -8.38856069979937030157e-02) (239, -1.46213723054861993722e-02) (240, -1.09062124111624123013e-01) (241, 4.37592816474431725582e-02) (242, -2.62756196279825327000e-01) (243, -6.76348535104271619822e-01) (244, -3.98802119635520813112e-01) (245, 2.16124999551015717358e-01) (246, 3.22740855806629534097e-01) (247, -2.21584092739079752121e-01) (248, -1.54304538758327086656e-01) (249, -3.68689741674546545003e-01) (250, -1.01933031565355811110e-01) (251, -4.38280083657471897229e-01) (252, -2.72300202957365511391e-01) (253, -2.19976270835493065148e-01) (254, 4.74611051259191535356e-02) (255, 7.68069097114551069261e-01) (256, 1.93353032412865888379e-01) (257, -2.60560965480463702093e-01) (258, -4.46296264831653410887e-01) (259, -5.36792990393706204166e-01) (260, -3.58337590797392746556e-01) (261, 3.05542743481724034249e-02) (262, -4.36620017200887611253e-01) (263, -5.70273431782674200541e-01) (264, -3.60482893796668313335e-01) (265, -4.32300966645871531657e-01) (266, -2.79258373020734029790e-01) 